tree
version=v3
num_class=1
num_tree_per_iteration=1
label_index=0
max_feature_idx=12
objective=binary sigmoid:1
feature_names=id age anaemia creatinine_phosphokinase diabetes ejection_fraction high_blood_pressure platelets serum_creatinine serum_sodium sex smoking time
feature_infos=[0:1998] [39:85] [0:1] [23:7861] [0:1] [14:70] [0:1] [138173.13449999999:824131.91669999994] [0.62917836399999993:8.9945972540000003] [116:146] [0:1] [0:1] [4:285]
tree_sizes=2543 3120 3334 3332 3325 3240 3318 3298 3321 3322 3331 3316 3338 3343 3329 3233 3330 3331 3336 3326 3328 3328 3324 3122 3331 3309 3337 3320 3349 3348 3336 3332 3339 3322 3341 3344 3328 3342 3339 3345 3354 3356 3334 3340 3358 3343 3363 3373 3339 3353 3372 3357 3344 3365 3380 3384 3387 3374 3355 3375 3368 3368 3372 3374 3368 3378 3380 3375 3370 3378 3385 3377 3368 3377 3393 3384 3369 3366 3372 3374 3399 3395 3394 3385 3388 3414 3383 3389 3397 3397 3393 3388 3402 3410 3421 3399 3406 3407 3401 3418

Tree=0
num_leaves=24
num_cat=0
split_feature=9 1 12 7 8 7 1 8 1 12 8 12 12 7 7 6 7 7 12 0 11 0 0
split_gain=66.5396 42.4159 36.0837 29.6531 18.793 11.3597 18.8375 9.53899 6.99576 6.69476 6.13 5.79399 5.40587 5.33557 5.02912 4.39413 3.06308 2.22841 0.823416 1.33358 3.18007 7.10543e-15 1.77636e-15
threshold=130.50000000000003 66.500000000000014 205.50000000000003 194051.91495000003 1.3947674940000001 278217.45510000008 73.000000000000014 0.9355546695000001 48.500000000000007 173.00000000000003 0.90727182400000006 214.50000000000003 195.00000000000003 369685.45010000007 277344.94675000006 1.0000000180025095e-35 276684.08010000008 267698.45265000005 177.00000000000003 1102.5000000000002 1.0000000180025095e-35 1212.0000000000002 450.50000000000006
decision_type=2 2 2 2 2 2 2 2 2 2 2 2 2 2 2 2 2 2 2 2 2 2 2
left_child=-1 3 5 12 8 6 7 -3 9 16 13 -11 -2 18 -6 -12 -5 -4 19 22 -21 -20 -10
right_child=1 2 17 4 14 -7 -8 -9 10 11 15 -13 -14 -15 -16 -17 -18 -19 21 20 -22 -23 -24
leaf_value=-0.97975557237346167 -1.1535014864372171 -1.3768160877485733 -1.4483585229512961 -1.4662441317519768 -1.2128646737423334 -1.0218555438581409 -1.0608369989365476 -1.1621887821404049 -1.4662441317519768 -1.2184953283647699 -1.4243054628400358 -1.3869253448967842 -1.3142164569461909 -1.3485452867410457 -1.3604857492783866 -1.2860631838340082 -1.3446219919073481 -1.3446219919073481 -1.4662441317519768 -1.3492997665167568 -1.4662441317519768 -1.4662441317519768 -1.4662441317519768
leaf_weight=4.9333123862743369 5.755531117320059 5.5910873711109215 5.5910873711109144 5.5910873711109179 5.9199748635292035 4.2755374014377585 5.4266436249017707 3.2888749241828918 4.1110936552286166 4.4399811476469022 4.7688686400651914 3.7822061628103256 3.2888749241828918 5.0977561324834815 3.7822061628103256 4.439981147646904 3.2888749241828918 3.2888749241828918 19.239918306469921 4.2755374014377576 5.0977561324834824 11.017730996012686 5.262199878692627
leaf_count=30 35 34 34 34 36 26 33 20 25 27 29 23 20 31 23 27 20 20 117 26 31 67 32
internal_value=-1.34006 -1.3541 -1.24412 -1.38456 -1.40188 -1.16488 -1.20762 -1.29732 -1.41774 -1.36099 -1.43307 -1.29597 -1.21194 -1.44591 -1.27041 -1.35765 -1.4212 -1.40994 -1.45604 -1.43957 -1.4129 -1.46624 -1.46624
internal_weight=0 126.622 27.4621 99.1596 90.1152 18.5821 14.3066 8.87996 80.413 17.1021 63.3108 8.22219 9.04441 54.102 9.70218 9.20885 8.87996 8.87996 49.0042 18.7466 9.37329 30.2576 9.37329
internal_count=800 770 167 603 548 113 87 54 489 104 385 50 55 329 59 56 54 54 298 114 57 184 57
shrinkage=1


Tree=1
num_leaves=29
num_cat=0
split_feature=8 1 6 7 7 8 3 12 11 6 7 9 8 12 5 1 9 5 6 12 8 8 9 1 0 12 8 3
split_gain=45.0223 25.6678 18.9282 18.1428 11.2536 11.1109 8.85575 6.35654 4.7526 6.06123 6.8419 4.25084 4.84906 3.81453 3.36151 3.10985 2.5587 3.81747 1.78135 1.49992 1.08153 0.787366 0.00285455 0.00108669 0.000626121 0.000231842 7.7619e-06 1.0127e-07
threshold=0.94840649600000015 73.000000000000014 1.0000000180025095e-35 185469.01505000002 267423.92890000006 1.3947674940000001 1688.5000000000002 90.500000000000014 1.0000000180025095e-35 1.0000000180025095e-35 282123.76090000005 138.50000000000003 2.2422321510000005 177.00000000000003 36.500000000000007 48.500000000000007 136.50000000000003 32.500000000000007 1.0000000180025095e-35 197.50000000000003 0.99044911000000002 0.81831832150000017 134.50000000000003 57.500000000000007 1205.5000000000002 132.00000000000003 0.83451556700000007 103.50000000000001
decision_type=2 2 2 2 2 2 2 2 2 2 2 2 2 2 2 2 2 2 2 2 2 2 2 2 2 2 2 2
left_child=1 3 5 -1 16 7 8 -2 9 14 -11 12 -7 -4 15 -6 22 -18 24 23 -9 -16 -5 -10 -19 -24 27 -27
right_child=2 -3 13 4 6 11 -8 20 19 10 -12 -13 -14 -15 21 -17 17 18 -20 -21 -22 -23 25 -25 -26 26 -28 -29
leaf_value=0.11430153846953717 0.068292497373870775 0.15960013197849876 0.26162353859371579 -0.12613138251190631 0.049167710527148578 0.013937905101122666 0.10799515056288352 -0.029951447237789676 -0.12389104903047013 -0.030457011311658285 0.15946370922847086 0.20314932883972991 0.15265035967502324 0.14230414275062148 -0.12520722051444794 -0.059949226612437435 0.022664026469196866 -0.12326024019668835 -0.038372106604986064 -0.056215089546373234 -0.10539106133347748 -0.060800850710695999 -0.12398482430757514 -0.12638648274300507 -0.1250619427949429 -0.12307906429934441 -0.12326243226810446 -0.12310011072850779
leaf_weight=6.1448549628257743 5.0505131781101245 6.169363170862197 5.5704334229230863 4.3587989360094097 4.5289620310068184 5.5794573873281461 4.2598423063755027 3.1637401282787323 3.5732696652412397 4.1987358182668677 3.4599202275276184 3.5904599428176871 4.596171572804451 5.1622416526079178 4.7864576131105414 6.1704535186290741 3.375891536474227 4.8975134342908841 3.4777023792266837 5.7715158760547638 4.7589936405420303 3.1454489678144455 3.8914656639099148 3.4108148068189621 3.1820205599069595 9.141156077384947 3.0614588707685462 3.0487570315599433
leaf_count=35 29 34 30 27 27 32 26 20 23 26 20 20 26 30 30 39 21 32 22 36 29 20 25 21 20 60 20 20
internal_value=0 -0.0375706 0.092051 -0.0514116 -0.0638692 0.0470233 -0.0289135 -0.0193785 -0.0438501 -0.0195485 0.0553427 0.109601 0.0765921 0.204233 -0.0503335 -0.0137611 -0.103255 -0.0708863 -0.0982125 -0.093937 -0.0752662 -0.0996665 -0.123822 -0.12511 -0.12397 -0.123296 -0.12312 -0.123084
internal_weight=0 94.0544 37.472 87.885 81.7402 26.7393 43.3054 12.9732 39.0456 26.29 7.65866 13.7661 10.1756 10.7327 18.6313 10.6994 38.4348 14.9331 11.5572 12.7556 7.92273 7.93191 23.5016 6.98408 8.07953 19.1428 15.2514 12.1899
internal_count=800 584 216 550 515 156 268 78 242 162 46 78 58 60 116 66 247 95 74 80 49 50 152 44 52 125 100 80
shrinkage=0.1


Tree=2
num_leaves=31
num_cat=0
split_feature=9 1 12 7 8 5 9 7 1 10 12 12 0 8 1 7 12 7 7 8 7 0 9 8 9 7 7 0 0 12
split_gain=39.4758 28.9641 23.3114 20.5084 12.5652 7.69536 9.61136 8.16355 6.09183 5.51199 6.62146 5.45535 5.03092 4.01122 3.63734 3.55655 2.93567 2.64546 1.99382 1.37514 0.774582 0.891784 0.181211 0.00297103 0.000894393 0.000752154 0.0006461 0.000281631 1.272e-06 1.88179e-07
threshold=130.50000000000003 66.500000000000014 205.50000000000003 194051.91495000003 1.3947674940000001 39.000000000000007 138.50000000000003 267219.95905000006 48.500000000000007 1.0000000180025095e-35 90.500000000000014 173.00000000000003 1081.0000000000002 0.91631650750000015 57.500000000000007 277344.94675000006 195.00000000000003 276684.08010000008 267698.45265000005 0.97347750850000014 358017.21070000005 1818.5000000000002 139.50000000000003 0.88046258600000005 136.50000000000003 271263.33525000006 268608.78815000009 1249.5000000000002 1493.0000000000002 196.50000000000003
decision_type=2 2 2 2 2 2 2 2 2 2 2 2 2 2 2 2 2 2 2 2 2 2 2 2 2 2 2 2 2 2
left_child=-1 3 5 16 8 6 13 -7 11 10 -10 17 -13 -3 -12 -6 -2 -5 -4 20 21 22 23 24 26 -16 28 -26 29 -11
right_child=1 2 18 4 15 7 -8 -9 9 19 14 12 -14 -15 25 -17 -18 -19 -20 -21 -22 -23 -24 -25 27 -27 -28 -29 -30 -31
leaf_value=0.24535366294084346 0.13272006862094723 0.028427953793194811 -0.10477347119027847 -0.12158412339179964 0.089233034111850726 -0.053481017137705894 0.27523905021446393 0.15320893597827265 0.094769024243289576 -0.120377489614318 -0.0072041589885626107 -0.047520101401274689 0.10833218244439134 0.17100055063113298 -0.12112676670834266 -0.029678741398771365 0.018734609053272257 -0.0061102278578864383 -0.0055655892930503367 -0.044533507632361753 -0.061981579826573069 -0.065827382886083849 -0.099230063171729832 -0.12435965947155746 -0.12146324822294451 -0.12338193640360512 -0.12200120535826134 -0.12267140815181775 -0.12047108177346388 -0.1204047878652371
leaf_weight=6.1971067637205115 6.7176686525344831 3.7282271087169701 5.240194231271742 4.9476650059223193 6.7362655699253065 3.8486800193786612 5.5797926187515259 3.7953329831361771 3.1842798143625251 3.6562266051769354 5.1222128272056562 3.7223396897315961 4.6693084239959717 4.1923857033252716 2.8723577409982681 4.0140246152877808 3.404624804854393 3.3120600134134293 3.3024791479110718 3.5656064301729193 3.1744012087583533 3.5461471974849692 4.2126271426677695 3.1019604653120032 4.6469081938266745 3.0486176908016205 3.0939709246158591 3.2993659526109695 2.8206278681755057 8.1634269654750806
leaf_count=30 35 21 34 34 36 22 29 20 20 26 33 22 28 21 20 23 20 20 20 21 20 24 28 20 32 20 21 22 20 58
internal_value=0 -0.0132301 0.0729912 -0.0401647 -0.0562041 0.129316 0.174711 0.0491427 -0.0708504 -0.0862726 -0.0322752 -0.0175868 0.0391997 0.103892 -0.0689081 0.0448329 0.0943812 -0.0752803 -0.0664211 -0.104023 -0.109364 -0.11348 -0.118601 -0.121436 -0.121083 -0.122288 -0.120688 -0.121965 -0.120411 -0.120396
internal_weight=0 124.72 29.6871 95.0327 84.9104 21.1444 13.5004 7.64401 74.1601 57.5087 14.2275 16.6514 8.39165 7.92061 11.0432 10.7503 10.1223 8.25973 8.54267 43.2813 39.7157 36.5413 32.9951 28.7825 25.6805 5.92098 17.7343 7.94627 14.6403 11.8197
internal_count=800 770 167 603 548 113 71 42 489 385 93 104 50 42 73 59 55 54 54 292 271 251 227 199 179 40 125 54 104 84
shrinkage=0.1


Tree=3
num_leaves=31
num_cat=0
split_feature=8 1 9 7 7 7 5 7 1 3 8 12 11 6 3 5 9 8 9 0 8 12 9 8 8 9 7 8 12 8
split_gain=29.438 18.0766 16.0092 12.4168 10.1941 7.79705 8.73086 9.52421 11.4518 7.00864 4.89965 4.31232 4.03098 4.3806 6.92305 2.90655 2.90525 2.40557 2.08913 3.14345 2.04387 1.69838 1.54746 0.815963 0.235885 0.00930461 0.00208227 0.00141673 0.000700338 6.59558e-05
threshold=0.94840649600000015 73.000000000000014 130.50000000000003 194051.91495000003 267423.92890000006 376012.74000000005 32.500000000000007 255791.03840000005 66.500000000000014 1688.5000000000002 1.3947674940000001 118.50000000000001 1.0000000180025095e-35 1.0000000180025095e-35 209.50000000000003 36.500000000000007 135.50000000000003 0.79407225750000021 136.50000000000003 1130.5000000000002 0.79866853849999997 207.50000000000003 135.50000000000003 0.81831832150000017 0.78275807000000019 134.50000000000003 281880.13185000006 0.81831832150000017 118.50000000000001 0.83285787950000001
decision_type=2 2 2 2 2 2 2 2 2 2 2 2 2 2 2 2 2 2 2 2 2 2 2 2 2 2 2 2 2 2
left_child=1 3 -2 -1 18 6 16 10 11 12 -8 -9 13 15 -15 17 -4 -6 25 27 -21 -19 -14 -17 -24 -5 -26 -20 -27 -30
right_child=2 -3 5 4 9 -7 7 8 -10 -11 -12 -13 22 14 -16 23 -18 21 19 20 -22 -23 24 -25 26 28 -28 -29 29 -31
leaf_value=0.076549839728328295 0.27522855013997716 0.1235811485916383 0.21086552123929192 -0.1240708503246933 0.060771336247780056 -0.096299270965227071 -0.095379279147302959 -0.073033951641581649 0.19317420198687144 0.092932851071466857 0.042059543153769308 0.080348533025771426 -0.026301868042636817 0.14966974022832802 -0.038385803603394129 -0.12167023430605613 0.098959429824113307 0.0011241973476755125 -0.11887590391999628 -0.086004821716785806 0.023855888482035542 -0.095800780202845146 -0.086271211957660618 -0.053109719684435702 -0.11944075542671025 -0.12009278505163533 -0.12323069746253637 -0.12191062731462701 -0.11817983711895892 -0.11867849815503423
leaf_weight=7.5041398108005515 3.4667411297559729 6.7936133891344062 3.990069776773451 3.8178976625204113 3.1989193558692985 3.2969137281179419 6.1880630999803561 3.5602318644523603 5.8868449628353119 4.4692475497722617 4.4657816141843796 3.778193324804306 2.9860495626926413 3.4919505268335334 4.4552278369665146 4.3004720807075492 5.5425130128860474 3.9477380812168121 3.3275948017835599 2.9199894517660141 4.0314662307500839 3.3351893424987793 2.8580894470214826 2.9108623415231705 2.8468078076839447 2.6149038076400783 2.9538888335227966 2.8609246462583542 10.280866399407385 3.5746650695800772
leaf_count=39 15 34 20 26 20 20 38 21 28 26 23 21 19 19 27 30 30 25 25 21 26 21 20 20 21 19 20 20 79 27
internal_value=0 -0.0332245 0.0698156 -0.0461077 -0.0583504 0.0504165 0.0648937 0.0325957 0.0892792 -0.025403 -0.0377689 0.00593513 -0.0395876 -0.017429 0.0442449 -0.0451308 0.1458 -0.0115126 -0.0995041 -0.0684405 -0.0222916 -0.0432622 -0.0883777 -0.0939957 -0.109785 -0.119623 -0.121371 -0.120279 -0.118592 -0.118308
internal_weight=0 89.4805 40.1754 82.6869 75.1828 36.7086 33.4117 23.8791 13.2253 41.7544 10.6538 7.33843 37.2852 25.6404 7.94718 17.6932 9.53258 10.4818 33.4283 13.14 6.95146 7.28293 11.6448 7.21133 8.65879 20.2883 5.8007 6.18852 16.4704 13.8555
internal_count=800 584 216 550 511 201 181 131 70 268 61 42 242 162 46 116 50 66 243 92 47 46 80 50 61 151 41 45 125 106
shrinkage=0.1


Tree=4
num_leaves=31
num_cat=0
split_feature=9 8 1 1 7 12 1 7 8 7 10 8 3 7 5 7 12 5 0 0 0 8 9 3 8 12 7 2 7 2
split_gain=24.0226 20.0061 19.3762 11.1747 10.2571 8.84425 9.58023 10.2803 8.19554 7.76333 7.04608 5.26466 4.84737 3.76672 3.992 5.10423 2.09993 1.52112 1.16762 0.960548 1.68791 0.80011 0.255334 0.19243 0.0117361 0.00938533 0.0072108 0.00656791 0.00309834 0.00101881
threshold=130.50000000000003 0.83470541950000021 73.000000000000014 48.500000000000007 453643.46280000004 205.50000000000003 66.500000000000014 194051.91495000003 0.89368750200000013 269142.26345000009 1.0000000180025095e-35 1.4423569265000002 249.50000000000003 278217.45510000008 39.000000000000007 263493.64135000005 238.50000000000003 32.500000000000007 936.50000000000011 1019.5000000000001 1154.0000000000002 0.7695505720000001 138.50000000000003 80.500000000000014 0.93840253150000008 146.50000000000003 237270.74895000001 1.0000000180025095e-35 267698.45265000005 1.0000000180025095e-35
decision_type=2 2 2 2 2 2 2 2 2 2 2 2 2 2 2 2 2 2 2 2 2 2 2 2 2 2 2 2 2 2
left_child=-1 2 3 12 5 6 7 -3 27 16 -9 17 18 14 15 -8 -10 -12 -2 23 -21 -22 25 -5 -19 -23 -25 -7 -28 -30
right_child=1 4 -4 19 -6 8 13 10 9 -11 11 -13 -14 -15 -16 -17 -18 24 -20 20 21 22 -24 26 -26 -27 28 -29 29 -31
leaf_value=0.17868695796415149 -0.086578202336933197 0.14201286163147173 0.19214150675390454 -0.097465464224603227 -0.10851468001811114 -0.11793822076633571 0.20358050281145662 0.078441474200094577 0.0016969505103413903 0.11628357438934211 -0.040645825553101603 0.032053107779540943 0.096641983891457839 0.19223211670807161 0.0074557169845687957 0.047844460977634826 -0.097991473883234162 -0.11853947837082877 0.0014632309236835101 -0.0098941232954866034 -0.063491585790819038 -0.12440420813760232 -0.083568422827067806 -0.12504636045648174 -0.12742170608794337 -0.11719339712404298 -0.1172639351370646 -0.12467907418732734 -0.11975041394979176 -0.12213627825759088
leaf_weight=6.9938988238573065 2.9090563803911191 5.6146199703216579 2.8964006453752509 4.785887926816943 5.4575846642255774 2.9184377864003208 4.3174466937780398 6.2929255366325423 5.455987907946108 5.2630366235971442 3.5705221295356697 5.3006255328655252 4.4440181478857994 4.8240203261375418 4.1104828566312781 4.1059262901544571 3.4487693756818771 2.8485084772109985 3.124026782810688 2.6965185701847103 5.2929383218288448 2.6671979725360853 2.5965208336710921 2.8967944979667655 3.1135670989751816 5.5839091837406158 4.1137105971574766 2.8638004511594772 4.6135486960411072 2.9242271333932877
leaf_count=30 21 27 13 38 34 23 21 39 34 30 24 27 27 21 22 20 22 22 20 20 39 18 18 20 19 45 33 19 34 20
internal_value=0 -0.0119237 -0.0591318 -0.074092 0.0230851 0.0342987 0.0592926 0.0217403 -0.0209492 0.019997 -0.0102241 -0.04784 0.0173893 0.117144 0.0882442 0.127668 -0.0369119 -0.0922648 -0.0409889 -0.0992014 -0.0831303 -0.0953654 -0.110918 -0.114859 -0.123178 -0.119524 -0.120581 -0.121277 -0.119471 -0.120676
internal_weight=0 121.051 51.5448 48.6484 69.5063 64.0487 44.0986 26.7408 19.95 14.1678 21.1261 14.8332 10.4771 17.3579 12.5339 8.42337 8.90476 9.5326 6.03308 38.1713 18.8371 16.1406 10.8476 19.3342 5.96208 8.25111 14.5483 5.78224 11.6515 7.53778
internal_count=800 770 366 353 404 370 242 158 128 86 131 92 68 84 63 41 56 65 41 285 140 120 81 145 41 63 107 42 87 54
shrinkage=0.1


Tree=5
num_leaves=30
num_cat=0
split_feature=8 1 7 6 7 7 5 7 3 8 11 6 3 12 8 9 5 1 6 2 9 1 3 9 0 12 0 0 0
split_gain=19.8082 11.9553 9.57368 9.05013 8.71263 5.82728 7.05066 6.99246 5.24222 4.80736 3.59256 3.25555 5.49239 3.00383 3.55441 2.52788 3.11763 1.92739 1.92175 1.59203 0.628147 1.10184 0.20924 0.0172564 0.00879426 0.000687544 1.94664e-05 5.30565e-05 2.25925e-06
threshold=0.94840649600000015 73.000000000000014 185469.01505000002 1.0000000180025095e-35 267423.92890000006 279950.99975000002 32.500000000000007 255791.03840000005 1688.5000000000002 1.6471075685000003 1.0000000180025095e-35 1.0000000180025095e-35 158.50000000000003 41.500000000000007 0.7695505720000001 136.50000000000003 32.500000000000007 49.500000000000007 1.0000000180025095e-35 1.0000000180025095e-35 138.50000000000003 50.500000000000007 579.50000000000011 134.50000000000003 1205.5000000000002 132.00000000000003 1154.0000000000002 836.50000000000011 1601.0000000000002
decision_type=2 2 2 2 2 2 2 2 2 2 2 2 2 2 2 2 2 2 2 2 2 2 2 2 2 2 2 2 2
left_child=1 2 -1 5 15 6 -2 9 10 -8 11 13 -13 -6 -15 23 -17 -12 24 -5 21 -16 -19 -4 -18 -25 27 -27 -28
right_child=3 -3 4 19 8 -7 7 -9 -10 -11 17 12 -14 14 20 16 18 22 -20 -21 -22 -23 -24 25 -26 26 28 -29 -30
leaf_value=0.070102147080395277 0.13686793953704798 0.092724439049005042 -0.12280800705128184 0.15243018158574551 0.055704893018414192 -0.065240606467390869 -0.095411906136961627 0.089781537268222092 0.078240962901418354 0.05106160934046499 -0.010067025221337352 0.13070910665607866 -0.036109929539663403 0.019843940130879589 -0.03104011285861142 0.025819438763125591 -0.11523178364360541 -0.12261102099726934 -0.021650894732473797 0.079174857353160669 -0.12253751069215371 -0.11797932415983964 -0.08982635509566228 -0.11643661874830158 -0.12271584914006402 -0.11462937515617713 -0.11449723812664672 -0.11522448256953076 -0.11463823276965468
leaf_weight=7.0555258542299262 6.2830894887447419 7.3240538388490668 3.6372256502509162 7.9957841187715513 2.7996329069137635 5.8419009670615187 6.1718700677156466 6.8474338054656974 4.6700755357742301 3.5179169028997421 2.6855694428086263 3.5886967480182639 4.3855297341942787 4.1274866610765448 3.2158173620700818 3.2738079130649558 3.6506772786378843 4.4100083336234093 3.0168497636914253 4.7167894840240479 3.8180889189243317 2.6665443480014801 3.4851903989911079 2.9733915254473695 2.7549360692501068 4.3371587321162206 2.3213332071900368 2.288663350045681 2.2265352308750153
leaf_count=35 30 34 27 37 19 35 39 35 26 17 19 18 28 28 22 21 32 33 22 23 26 21 28 25 20 39 21 20 20
internal_value=0 -0.0293903 -0.0409472 0.055024 -0.0520872 0.0238767 0.0466903 0.0124286 -0.0213066 -0.0422341 -0.0345204 -0.0135642 0.0389648 -0.0387559 -0.0578806 -0.0923322 -0.0582484 -0.0832466 -0.0874576 0.12525 -0.090952 -0.0704507 -0.108139 -0.116665 -0.118451 -0.115085 -0.114726 -0.114835 -0.114566
internal_weight=0 84.7128 77.3887 41.3748 70.3332 28.6622 22.8203 16.5372 39.8526 9.68979 35.1826 24.6018 7.97423 16.6276 13.8279 30.4806 12.6963 10.5808 9.42246 12.7126 9.70045 5.88236 7.8952 17.7843 6.40561 14.1471 11.1737 6.62582 4.54787
internal_count=800 584 550 216 515 156 121 91 268 56 242 162 46 116 97 247 95 80 74 60 69 43 61 152 52 125 100 59 41
shrinkage=0.1


Tree=6
num_leaves=31
num_cat=0
split_feature=9 8 1 1 7 12 1 7 8 2 7 10 8 3 0 7 9 5 0 0 3 0 12 0 3 8 7 8 2 7
split_gain=17.5478 14.6191 14.0168 9.97364 7.95613 6.49545 6.9867 7.23618 6.63672 6.20018 5.80283 5.78523 4.02566 3.42657 3.34935 2.76804 3.67268 1.45598 1.20465 1.00804 1.49595 2.16412 0.921306 0.234025 0.216132 0.0115416 0.00883806 0.0080789 0.00713546 0.00322197
threshold=130.50000000000003 0.83470541950000021 73.000000000000014 48.500000000000007 453643.46280000004 205.50000000000003 66.500000000000014 194051.91495000003 0.89368750200000013 1.0000000180025095e-35 251532.61570000002 1.0000000180025095e-35 1.4423569265000002 249.50000000000003 1102.5000000000002 278217.45510000008 136.50000000000003 32.500000000000007 1029.0000000000002 1019.5000000000001 167.50000000000003 1338.5000000000002 209.50000000000003 1734.0000000000002 80.500000000000014 0.93840253150000008 237270.74895000001 0.80400731800000014 1.0000000180025095e-35 267698.45265000005
decision_type=2 2 2 2 2 2 2 2 2 2 2 2 2 2 2 2 2 2 2 2 2 2 2 2 2 2 2 2 2 2
left_child=-1 2 3 13 5 6 7 -3 28 10 -10 -9 17 18 -11 16 -8 -13 -2 24 23 -22 -23 27 -5 -19 -26 -21 -7 -28
right_child=1 4 -4 19 -6 8 15 11 9 14 -12 12 -14 -15 -16 -17 -18 25 -20 20 21 22 -24 -25 26 -27 29 -29 -30 -31
leaf_value=0.14967260315237169 -0.082100265236321468 0.11299681035007347 0.15148880474598944 -0.091720327997103474 -0.10379916209857397 -0.1148085311746546 0.0067585132291468758 0.066324681255219758 -0.015727937437737583 -0.12714709214367723 0.15901164280397284 -0.037840707094314474 0.019910663241091031 0.080839464950316367 0.012888847149577172 0.15977057016392937 0.11544964162176996 -0.11599849013252542 0.010015414617702112 -0.1208443282232453 0.02574439462819321 -0.11879701873349974 -0.037289029369874126 -0.081420555141574855 -0.12311016882202915 -0.12525338893295221 -0.11414825022297298 -0.11351365636827865 -0.12228682174876071 -0.11787611605792647
leaf_weight=7.2058321833610526 2.7527754604816419 6.0076770484447506 3.1076368689537039 4.1688801646232632 4.9701130017638198 2.5063117742538479 5.1552435681223887 6.5652611106634184 3.618823826313017 3.320849671959877 4.0022814869880676 3.4407877624034828 5.5439534783363351 4.6960494890809059 3.5166622176766396 5.0154319107532492 7.8315545842051506 2.4939824864268303 2.9316381290555 2.9925556033849734 2.7487861365079862 3.1180339157581329 2.4975840821862221 2.6346310451626778 2.610796906054019 2.9311964213848114 3.532830633223055 3.0210392102599144 2.5989760905504227 6.7448888421058655
leaf_count=30 22 27 13 38 34 23 26 39 24 21 20 24 27 27 21 21 37 22 19 23 21 25 21 21 20 19 33 29 19 54
internal_value=0 -0.0111102 -0.0538334 -0.0681879 0.0181168 0.027504 0.0484236 0.0162336 -0.0205984 0.0140112 0.0760379 -0.0114812 -0.0469301 0.0176277 -0.0551239 0.0966719 0.0723036 -0.0887261 -0.0345932 -0.0943342 -0.0771107 -0.0469585 -0.0825458 -0.106273 -0.111513 -0.120999 -0.117915 -0.117162 -0.118616 -0.116595
internal_weight=0 117.077 47.5581 44.4505 69.5191 64.549 44.9851 26.9829 19.5639 14.4586 7.62111 20.9752 14.4099 10.3805 6.83751 18.0022 12.9868 8.86597 5.68441 34.07 17.0126 8.3644 5.61562 8.64823 17.0574 5.42518 12.8885 6.01359 5.10529 10.2777
internal_count=800 770 366 353 404 370 242 158 128 86 44 131 92 68 42 84 63 65 41 285 140 67 46 73 145 41 107 52 42 87
shrinkage=0.1


Tree=7
num_leaves=31
num_cat=0
split_feature=9 8 1 1 7 12 8 8 7 8 0 1 5 12 1 12 3 8 0 0 3 0 12 0 0 3 7 8 2 7
split_gain=14.1239 12.3785 11.587 8.97588 6.75116 5.23528 6.43742 5.89322 5.14013 4.47632 5.01848 3.69175 4.46667 3.49048 3.0502 3.021 2.6881 2.25752 1.05704 1.01004 1.43936 1.89602 0.979416 0.892084 0.242093 0.217896 0.00648902 0.00585862 0.00509511 0.00228778
threshold=130.50000000000003 0.83470541950000021 73.000000000000014 48.500000000000007 453643.46280000004 205.50000000000003 0.856203932 0.89368750200000013 277124.01860000007 0.9494726535000001 1346.5000000000002 66.500000000000014 32.500000000000007 238.50000000000003 58.500000000000007 73.000000000000014 249.50000000000003 0.89585631950000011 1029.0000000000002 1019.5000000000001 167.50000000000003 1338.5000000000002 212.50000000000003 1109.0000000000002 1734.0000000000002 80.500000000000014 237270.74895000001 0.80400731800000014 1.0000000180025095e-35 267698.45265000005
decision_type=2 2 2 2 2 2 2 2 2 2 2 2 2 2 2 2 2 2 2 2 2 2 2 2 2 2 2 2 2 2
left_child=-1 2 3 16 5 6 -3 28 13 10 15 12 -11 -9 -14 -8 18 -17 -2 25 24 -22 -23 -13 27 -5 -27 -21 -7 -28
right_child=1 4 -4 19 -6 7 9 8 -10 11 -12 23 14 -15 -16 17 -18 -19 -20 20 21 22 -24 -25 -26 26 29 -29 -30 -31
leaf_value=0.13310486084439038 -0.078518998962499642 0.1479454743449965 0.13319014950885685 -0.088698809235835729 -0.10016130900908199 -0.11322053715060398 0.094099567910928272 0.019547538290883241 0.10816985544323404 0.098162579672048694 -0.10905117750814007 0.1335187170741495 0.028885737045331396 -0.10031748019346665 -0.084484041371245641 -0.074648069603968317 0.069664539022610925 0.041017538199261336 0.0089580517458347619 -0.11857990534182572 0.022751855796011265 -0.116767948962927 -0.030067521617490503 0.074726674750827254 -0.077761870424974761 -0.12059780069907351 -0.11262839864706664 -0.11206650966471106 -0.11981005007388633 -0.11590796899428274
leaf_weight=7.2872082591056815 2.5985963866114599 5.1861277297139159 3.1768798977136603 3.8941092044115093 4.6520988643169394 2.2979772910475758 3.7278658077120763 6.5759162828326208 4.0362382382154456 5.1904953420162228 4.0654209032654753 4.5595979392528516 5.9438507035374624 3.8527748286724091 3.950514942407608 3.4484724625945091 4.8929578810930252 3.3042915537953377 2.9489387348294258 2.7568183690309542 2.7965973764657956 2.9924275428056717 2.307774193584919 5.9471975266933441 2.4903204441070557 2.4090213999152175 3.2375572696328145 2.7670352384448051 2.3977550566196442 6.2013194859027863
leaf_count=30 22 30 13 38 34 23 21 39 21 24 25 20 32 26 22 24 27 19 19 23 21 26 20 25 21 20 33 29 19 54
internal_value=0 -0.0104714 -0.050996 -0.0648311 0.0161812 0.0245745 0.0431006 -0.0192484 0.01235 0.0295537 -0.0147419 0.0547309 0.023033 -0.0247354 -0.0163793 0.0218405 0.0156356 -0.0180501 -0.0320183 -0.0912058 -0.0736038 -0.0438668 -0.0790175 0.10024 -0.103647 -0.10922 -0.115965 -0.115317 -0.116585 -0.114783
internal_weight=0 114.607 45.4704 42.2935 69.1366 64.4845 45.3238 19.1607 14.4649 40.1377 14.5461 25.5917 15.0849 10.4287 9.89437 10.4806 10.4405 6.75276 5.54754 31.853 16.111 8.0968 5.3002 10.5068 8.01417 15.742 11.8479 5.52385 4.69573 9.43888
internal_count=800 770 366 353 404 370 242 128 86 212 89 123 78 65 54 64 68 43 41 285 140 67 46 45 73 145 107 52 42 87
shrinkage=0.1


Tree=8
num_leaves=31
num_cat=0
split_feature=8 1 1 7 5 7 7 9 7 3 0 0 1 12 12 5 12 0 12 0 0 12 5 8 7 1 1 4 0 8
split_gain=12.2392 13.9951 7.3938 9.38591 6.76181 5.37378 4.68437 3.97549 3.76509 4.39246 3.64686 4.0082 4.41058 3.44811 2.37157 2.00132 2.60253 1.92508 1.6833 1.17523 0.730323 1.10724 0.970829 0.566749 0.321846 0.207015 0.0159431 0.0105501 0.0102037 0.00272448
threshold=1.0081754850000004 47.500000000000007 67.500000000000014 164320.64665000004 42.500000000000007 272478.44330000004 282123.76090000005 139.50000000000003 194051.91495000003 1787.5000000000002 873.50000000000011 1638.5000000000002 57.500000000000007 147.50000000000003 173.00000000000003 27.500000000000004 205.50000000000003 1002.0000000000001 190.00000000000003 1044.5000000000002 700.50000000000011 106.50000000000001 42.500000000000007 0.93433713750000014 288454.47250000009 42.500000000000007 50.500000000000007 1.0000000180025095e-35 1346.5000000000002 0.84419140300000006
decision_type=2 2 2 2 2 2 2 2 2 2 2 2 2 2 2 2 2 2 2 2 2 2 2 2 2 2 2 2 2 2
left_child=2 -2 3 -1 7 8 13 -4 -5 20 15 12 14 17 -12 -7 24 -3 -13 -15 26 28 25 -6 -17 -23 -10 -27 -22 -28
right_child=1 6 4 5 23 10 -8 -9 9 -11 11 18 -14 19 -16 16 -18 -19 -20 -21 21 22 -24 -25 -26 27 29 -29 -30 -31
leaf_value=0.1513942787597545 0.23041610848397398 0.039464564589266442 0.024999665083296992 0.0013376435362585887 -0.01545788725402119 -0.12440031597848566 -0.063809595351541126 0.14450364246193251 -0.12170156810129383 0.035188789049005381 0.02067288107093547 -0.094541062169057791 -0.037453306206467779 -0.048258703129295893 0.12733893839992705 -0.0046080637801805303 -0.086024020786652777 0.11769687820637181 0.012581147326207368 0.030134350139278277 -0.04517286486066107 -0.080269328132643786 -0.037446012847775406 -0.075158652382127586 0.04427703297198729 -0.11183922241662379 -0.11141627858743529 -0.120157465730412 -0.036084248575764026 -0.11590791228110782
leaf_weight=2.6338494867086402 3.9195958673954037 6.060289412736898 5.5081270635128039 6.8147857189178458 3.3578592687845221 2.9170443192124358 4.6140186116099349 5.6280617192387581 3.0060761123895698 2.9687177166342726 3.3123673126101512 3.5386053174734107 4.1024547889828673 3.4431972578167906 5.6226451098918915 3.2376500964164716 4.5992230549454689 6.5395749062299728 2.5055824369192123 4.3013163730502129 2.5158105045557049 2.3288458362221709 2.4013777896761885 3.02048060297966 2.3060152381658554 7.8683017268776876 4.2679319009184837 1.8912070691585539 2.4268952533602715 1.9755241423845289
leaf_count=13 17 28 28 34 22 21 28 27 25 21 24 27 28 20 33 23 35 29 16 22 20 17 21 18 17 85 47 16 20 18
internal_value=0 0.0547485 -0.0199967 -0.0339546 0.0383713 -0.0408687 0.0271607 0.0853952 -0.0660869 -0.0806042 -0.0106888 0.0171781 0.0483842 0.0477924 0.0877959 -0.0514046 -0.0304114 0.0800687 -0.0501342 -0.00471906 -0.0925893 -0.0815803 -0.0955217 -0.0437294 0.0157268 -0.107059 -0.115718 -0.113451 -0.0407103 -0.112837
internal_weight=0 28.878 90.7554 73.2409 17.5145 70.6071 24.9584 11.1362 38.4655 31.6507 32.1416 19.0817 13.0375 20.3444 8.93501 13.0599 10.1429 12.5999 6.04419 7.74451 28.682 19.4324 14.4897 6.37834 5.54367 12.0884 9.24953 9.75951 4.94271 6.24346
internal_count=800 144 656 561 95 548 127 55 324 290 224 128 85 99 57 96 75 57 43 42 269 179 139 40 40 118 90 101 40 65
shrinkage=0.1


Tree=9
num_leaves=31
num_cat=0
split_feature=8 1 1 7 9 3 12 12 5 0 10 1 1 7 7 8 3 0 7 0 8 8 0 0 3 8 8 2 8 8
split_gain=10.1131 7.61762 10.4832 6.75688 6.31273 4.68456 5.21459 3.55634 3.4078 3.7485 4.12364 6.47567 6.59282 4.17371 3.93921 3.80812 3.7483 1.83456 1.75075 1.14769 1.17268 2.11168 1.76112 0.614482 0.377121 0.370909 0.0421864 0.00936968 0.00342496 0.00173595
threshold=0.83470541950000021 73.000000000000014 48.500000000000007 453643.46280000004 130.50000000000003 72.000000000000014 214.50000000000003 173.00000000000003 22.500000000000004 122.00000000000001 1.0000000180025095e-35 66.500000000000014 49.500000000000007 274978.08055000007 210603.85355000003 0.95047041800000021 562.00000000000011 1130.5000000000002 274431.40995000006 1019.5000000000001 0.72638216500000008 0.77451911200000012 1290.0000000000002 234.50000000000003 247.50000000000003 0.8271822860000001 0.93221013800000019 1.0000000180025095e-35 0.80949893300000009 0.80692942600000006
decision_type=2 2 2 2 2 2 2 2 2 2 2 2 2 2 2 2 2 2 2 2 2 2 2 2 2 2 2 2 2 2
left_child=1 2 7 4 -2 -6 8 -1 -7 -10 13 12 -12 16 -13 -16 -11 26 -8 23 -21 -22 -23 -4 -19 28 -14 29 -24 -25
right_child=3 -3 19 -5 5 6 18 -9 9 10 11 14 17 -15 15 -17 -18 24 -20 20 21 22 25 27 -26 -27 -28 -29 -30 -31
leaf_value=-0.030051137443848748 0.14620637787425253 0.10927864945993843 -0.066441181074868433 -0.098545219241006024 0.10351024336008169 0.10274614175165896 -0.10044771055129276 0.08251195094343397 0.11055987742598959 0.17257294261030692 0.056540797394347843 -0.050076832219295313 -0.11828320625235354 -0.024122794389586533 0.0045079693072677595 0.13021876277343766 0.032286412076554208 -0.025379154252189978 -0.0019086429382651115 -0.11792833346567191 0.034218652664672569 -0.012596351918458468 -0.11688118163247707 -0.1130976605816577 -0.075363169498889174 -0.061505994902136374 -0.13505027920714915 -0.11785577401602994 -0.11150061026540986 -0.10998521356870035
leaf_weight=5.1512077748775464 4.289756938815116 3.2009300142526618 3.6762324124574688 4.4396019876003256 6.202631063759326 4.9376901164650908 4.9063121974468222 6.1671894565224648 3.7826631069183341 3.7119669988751394 3.9902838021516862 3.6460340768098822 2.4207936748862249 4.1409160941839218 4.4972944483160955 5.1912546157836914 3.9116442948579788 2.8550785109400749 2.8506495654582977 3.0974982455372801 2.443379968404769 3.5591240674257261 2.6449273005127907 3.8373396322131139 3.2026539370417595 1.8266219869256017 3.9475311413407326 3.6644696965813637 2.1404205337166786 3.3619650900363922
leaf_count=37 18 13 34 35 34 26 39 35 19 19 22 22 23 23 23 21 21 20 16 29 19 30 24 40 20 18 22 33 24 41
internal_value=0 -0.0393709 -0.050817 0.0210081 0.0287582 0.0209099 0.0120754 0.0312824 0.0238586 0.0152595 0.00657625 -0.0132423 -0.0552902 0.0566948 0.0385232 0.0718655 0.100592 -0.0912016 -0.064235 -0.0815334 -0.0627963 -0.0492586 -0.0693122 -0.101781 -0.0518051 -0.0998414 -0.128677 -0.113739 -0.114475 -0.111644
internal_weight=0 44.7713 41.5704 72.9248 68.4852 64.1954 57.9928 11.3184 50.2358 45.2981 41.5155 29.7509 16.4163 11.7645 13.3346 9.68855 7.62361 12.4261 7.75696 30.252 15.712 12.6145 10.1711 14.54 6.05773 6.61197 6.36832 10.8638 4.78535 7.1993
internal_count=800 377 364 423 388 370 336 72 281 255 236 173 107 63 66 44 40 85 55 292 144 115 96 148 40 66 45 114 48 81
shrinkage=0.1


Tree=10
num_leaves=31
num_cat=0
split_feature=9 8 1 1 0 0 12 3 1 7 12 1 10 3 1 9 0 3 8 0 0 8 9 12 8 9 3 9 3 7
split_gain=8.73435 8.23324 7.11421 7.06424 5.11856 5.10284 3.53338 3.35221 3.29512 6.67125 6.61485 5.50527 2.93403 4.29104 3.1382 2.54945 2.33728 1.6362 1.42263 1.03066 1.52644 1.00649 0.290535 0.259376 0.0403527 0.00543618 0.00357508 0.00161264 0.00158006 0.000720198
threshold=130.50000000000003 0.83470541950000021 73.000000000000014 48.500000000000007 1873.5000000000002 1728.5000000000002 10.500000000000002 72.000000000000014 64.000000000000014 194051.91495000003 205.50000000000003 58.500000000000007 1.0000000180025095e-35 579.50000000000011 50.500000000000007 135.50000000000003 1493.0000000000002 579.50000000000011 0.77888510650000009 1019.5000000000001 1154.0000000000002 0.7695505720000001 138.50000000000003 82.500000000000014 0.94840649600000015 136.50000000000003 954.00000000000011 136.50000000000003 209.50000000000003 267698.45265000005
decision_type=2 2 2 2 2 2 2 2 2 2 2 2 2 2 2 2 2 2 2 2 2 2 2 2 2 2 2 2 2 2
left_child=-1 2 3 16 5 6 -3 -8 9 -9 15 12 -11 -14 -15 -10 18 -17 -2 23 -21 -22 25 -5 -13 28 27 29 -23 -25
right_child=1 4 -4 19 -6 -7 7 8 10 11 -12 24 13 14 -16 17 -18 -19 -20 20 21 22 -24 26 -26 -27 -28 -29 -30 -31
leaf_value=0.10653745029369849 0.021884163442671196 0.10997681142660698 0.098661789307232003 -0.075462705419950829 -0.10471364063882034 0.12315013321366981 0.076459225162819236 0.079493780326325494 -0.0015340916254210414 0.037757396456198189 -0.069222186798608185 -0.11382691621954269 -0.12367723319357667 0.062485133770557477 -0.070284125255026128 0.1316258020690477 0.084703757433053917 0.053214873677171683 -0.06683569493542682 0.0082271622753561681 -0.039124543294004416 -0.10880968268730323 -0.069026448778147773 -0.10861195931124229 -0.12945538121402364 -0.11736832768095112 -0.11522278587177644 -0.11238486359742739 -0.11284674888665791 -0.1110822791825741
leaf_weight=6.9680440574884406 3.993445932865141 3.4131606221199027 3.1912103891372672 2.4707768931984928 3.5419034957885733 4.3653824701905242 5.9127351194620124 5.1207113116979626 4.6603764742612865 6.3406146019697269 5.2817820236086837 2.8713829517364493 4.4702250957488978 3.8556385040283203 3.3073937371373177 4.6638407558202726 3.158657893538475 6.1976867467164993 3.3017022833228111 2.3485586196184149 3.9634749442338926 2.0751950591802601 2.0709424316883087 3.2794461622834188 3.8907405212521553 1.7785015404224394 2.0903471261262885 3.1197401434183121 1.8195246458053587 1.8436448350548742
leaf_count=30 28 16 13 25 24 25 32 25 22 39 39 30 34 22 24 20 18 28 22 20 39 28 18 45 24 16 20 34 19 21
internal_value=0 -0.00896419 -0.0446448 -0.0569008 0.0123228 0.0187644 0.011168 0.00520667 -0.00310944 -0.0243982 0.0274435 -0.0459054 -0.0169689 -0.0467971 0.00118146 0.0603368 0.0128443 0.0868838 -0.0182694 -0.0840452 -0.0653495 -0.080109 -0.101085 -0.104569 -0.122819 -0.112788 -0.111529 -0.110592 -0.110696 -0.109501
internal_weight=0 108.399 40.5052 37.314 67.8936 64.3517 59.9863 56.5731 50.6604 29.8567 20.8037 24.736 17.9739 11.6333 7.16303 15.5219 10.4538 10.8615 7.29515 26.8602 14.0562 11.7076 7.74416 12.804 6.76212 5.67322 10.3332 8.24283 3.89472 5.12309
internal_count=800 770 366 353 404 380 355 339 307 198 109 173 119 80 46 70 68 48 50 285 140 120 81 145 54 63 120 100 47 66
shrinkage=0.1


Tree=11
num_leaves=31
num_cat=0
split_feature=8 1 3 1 1 7 6 7 8 7 1 12 1 8 7 7 1 4 9 12 12 5 0 7 7 7 12 8 8 7
split_gain=7.83014 9.97606 5.35952 6.12798 4.90407 4.5087 5.56816 4.44886 6.63156 3.18686 3.0758 5.57234 3.80654 2.69201 4.80768 2.19066 3.59421 4.19151 1.9534 1.7909 1.35308 0.983098 0.570134 1.34778 0.345595 0.0757294 0.0184728 0.0121121 0.0101026 0.00883817
threshold=1.0081754850000004 47.500000000000007 779.50000000000011 50.500000000000007 67.500000000000014 172555.41030000002 1.0000000180025095e-35 285470.64955000003 0.95633941550000012 282123.76090000005 73.000000000000014 43.500000000000007 56.500000000000007 1.9219998440000003 265610.64010000008 273030.48020000005 50.500000000000007 1.0000000180025095e-35 136.50000000000003 86.000000000000014 195.00000000000003 39.000000000000007 1380.5000000000002 263264.62085000006 269975.91855 257595.57280000005 109.50000000000001 0.86143247350000018 0.84627282100000023 266955.85360000009
decision_type=2 2 2 2 2 2 2 2 2 2 2 2 2 2 2 2 2 2 2 2 2 2 2 2 2 2 2 2 2 2
left_child=2 -2 5 -4 19 -1 10 8 18 13 11 12 -7 14 -3 22 17 -17 20 -5 -8 -20 24 -24 25 26 -13 -18 -27 -25
right_child=1 9 3 4 -6 6 7 -9 -10 -11 -12 15 -14 -15 -16 16 27 -19 21 -21 -22 -23 23 29 -26 28 -28 -29 -30 -31
leaf_value=0.073103106576033416 0.19468725211368412 -0.052434600580870495 0.14906787118475121 0.0073094251827504593 0.070361299702014782 -0.051658722394428341 -0.12461044609579086 0.095935450504447101 0.12162000836105907 -0.058679640365002339 0.029605561941488112 -0.13323686660098244 0.11342583659058009 0.090502263699341376 0.065907889082857468 0.064687530318577199 -0.1123717181541786 -0.077458780924948026 0.03289184705899955 -0.0885256627147646 -0.030634851043303837 -0.049201816026569256 -0.024678563386409131 -0.10869920601882646 -0.070331888634452472 -0.10901683801989928 -0.12080820240057924 -0.12259988028013649 -0.11816750820888469 -0.11796919836426507
leaf_weight=3.9847727715969077 3.784744709730151 6.3076768293976837 3.5608485937118557 3.3240422382950765 6.034519523382186 2.8940834179520598 3.8990414403378981 4.4349000155925742 2.7726372107863417 4.233022838830947 3.8000579103827468 2.3842382319271582 2.6996548995375633 6.3761775940656653 7.5320243835449219 4.0768009349703771 2.770659312605857 4.2235201895236969 2.9463042989373207 4.7170596271753311 2.5238636285066605 2.8892091885209084 2.958255171775817 2.6005704626441002 1.8069008514285076 5.9317695461213589 2.3992938846349716 1.988856717944145 1.5145566612482069 1.7013726085424421
leaf_count=21 17 36 19 24 30 24 31 22 13 28 18 17 17 29 34 30 30 31 22 39 18 26 23 36 15 81 23 17 14 15
internal_value=0 0.0436071 -0.0171901 0.0318726 0.0022246 -0.0300662 -0.0365693 0.00792398 -0.0180437 0.0202195 -0.0563657 -0.0645432 0.0280145 0.0367403 0.0119713 -0.0796129 -0.0473672 -0.00764194 -0.0496332 -0.0489092 -0.087683 -0.00775338 -0.0993867 -0.0766363 -0.111154 -0.117185 -0.127003 -0.116646 -0.110878 -0.112365
internal_weight=0 28.2336 84.8378 17.6365 14.0756 67.2013 63.2165 19.466 15.0311 24.4489 43.7506 39.9505 5.59374 20.2159 13.8397 34.3568 13.0598 8.30032 12.2584 8.0411 6.42291 5.83551 21.297 7.2602 14.0368 12.2299 4.78353 4.75952 7.44633 4.30194
internal_count=800 144 656 112 93 544 523 132 110 127 391 373 41 99 70 332 108 61 97 63 49 48 224 74 150 135 40 47 95 51
shrinkage=0.1


Tree=12
num_leaves=31
num_cat=0
split_feature=12 12 6 8 0 1 1 1 12 8 2 8 0 7 3 0 1 8 2 3 4 1 3 0 3 1 8 1 7 0
split_gain=6.82282 11.2792 6.33316 5.75562 5.71116 2.8579 4.14134 2.72259 5.25919 4.14441 3.56978 3.1445 3.55595 2.57463 2.30854 3.71752 3.12167 2.22209 2.06799 1.30263 1.14373 1.78377 0.903462 0.596854 0.455858 0.0910472 0.00857165 0.00418071 0.000376951 4.1969e-05
threshold=205.50000000000003 197.50000000000003 1.0000000180025095e-35 0.75928676400000017 873.50000000000011 59.500000000000007 57.500000000000007 67.500000000000014 55.000000000000007 1.9219998440000003 1.0000000180025095e-35 0.85759526000000008 1056.5000000000002 277124.01860000007 745.50000000000011 1320.5000000000002 56.500000000000007 0.87412997650000024 1.0000000180025095e-35 324.00000000000006 1.0000000180025095e-35 58.500000000000007 820.00000000000011 987.50000000000011 579.50000000000011 73.000000000000014 0.72095540600000019 61.500000000000007 265902.06780000002 1056.5000000000002
decision_type=2 2 2 2 2 2 2 2 2 2 2 2 2 2 2 2 2 2 2 2 2 2 2 2 2 2 2 2 2 2
left_child=1 3 5 19 -4 6 13 8 10 14 23 -9 -13 24 15 20 -16 -17 -15 26 21 -10 25 -5 -2 27 -1 28 29 -7
right_child=2 -3 4 7 -6 22 -8 11 9 -11 -12 12 -14 18 16 17 -18 -19 -20 -21 -22 -23 -24 -25 -26 -27 -28 -29 -30 -31
leaf_value=-0.12184530522609249 -0.12265116479125489 0.19662595142288083 -0.061565393907668291 0.070160579402222339 0.095918374623968461 -0.10693540150059598 0.07727254806521619 0.12087491898852501 -0.020287749415636741 0.08757743632170778 -0.002429443598736545 0.077971918678032423 -0.034797041602456801 0.047222285899791737 0.098277967578165246 0.058291466884539102 -0.033712433732864866 -0.045859656819962874 -0.064535770457524219 -0.032499671153682533 -0.12383176645145461 -0.10754126916993312 -0.049127882647690857 0.12440417359098699 -0.072608063670248232 -0.13280935233173172 -0.11233180429897736 -0.1139834545841531 -0.10923762199004144 -0.10760365200808322
leaf_weight=2.0365258306264873 3.6266422681510502 3.2937230914831153 3.8170817047357541 3.835369296371935 5.8045977875590324 1.8166447207331642 2.7773150466382495 4.7495896741747847 5.1845418959856087 3.3721901029348365 6.0787792578339568 5.818626329302786 5.3832907229661942 3.1549041345715523 2.9549242407083502 4.1531604640185815 4.5524044372141361 4.0422914624214172 3.4843828529119492 3.4371101520955563 3.9421226307749739 4.2749283611774445 2.7375729903578749 4.3057329580187798 3.6546332649886608 2.1631454899907112 1.7703754007816312 1.3880071528255937 1.3336730934679506 1.9472110494971273
leaf_count=20 30 14 29 21 34 30 24 24 39 16 38 26 24 23 18 31 33 27 26 28 36 33 23 24 29 16 20 15 19 30
internal_value=0 0.0157854 -0.0365763 0.00726311 0.0334419 -0.0605647 -0.0342225 0.0170213 0.00483711 -0.0173694 0.0555542 0.0526893 0.0237787 -0.0564671 -0.0295291 -0.046134 0.0182397 0.00692039 -0.0114298 -0.0771279 -0.0785783 -0.0597194 -0.0991955 0.0988494 -0.0975334 -0.115043 -0.117421 -0.109118 -0.107793 -0.107281
internal_weight=0 73.1857 37.7058 69.892 9.62168 28.0841 16.6979 62.648 46.6964 32.4766 14.2199 15.9515 11.2019 13.9206 29.1044 21.597 7.50733 8.19545 6.63929 7.24401 13.4016 9.45947 11.3863 8.1411 7.28128 8.64868 3.8069 6.48554 5.09753 3.76386
internal_count=800 472 328 458 63 265 132 390 316 233 83 74 50 108 217 166 51 58 49 68 108 72 133 45 59 110 40 94 79 60
shrinkage=0.1


Tree=13
num_leaves=31
num_cat=0
split_feature=8 1 3 1 7 6 1 7 8 2 2 12 7 8 12 8 0 1 5 12 2 11 3 9 12 1 8 8 0 1
split_gain=5.92082 7.71087 3.85123 4.36904 3.84035 4.27022 3.74897 3.61881 3.20948 2.6819 2.59508 2.45212 3.61725 3.12709 6.42296 5.54748 2.46432 2.38807 2.69234 1.90009 1.12187 0.923354 0.559686 0.0478492 0.0343579 0.021182 0.0118143 0.00559469 0.00170418 0.000935072
threshold=1.0081754850000004 49.500000000000007 779.50000000000011 50.500000000000007 172555.41030000002 1.0000000180025095e-35 66.500000000000014 270867.03990000003 0.88688689800000009 1.0000000180025095e-35 1.0000000180025095e-35 205.50000000000003 378130.83465000003 0.81831832150000017 173.00000000000003 0.86098049850000014 1376.0000000000002 66.500000000000014 32.500000000000007 86.000000000000014 1.0000000180025095e-35 1.0000000180025095e-35 251.50000000000003 135.50000000000003 32.500000000000007 49.500000000000007 0.74052076450000004 0.85947985250000014 1081.0000000000002 59.500000000000007
decision_type=2 2 2 2 2 2 2 2 2 2 2 2 2 2 2 2 2 2 2 2 2 2 2 2 2 2 2 2 2 2
left_child=2 -2 4 -4 -1 11 19 10 22 -8 -7 13 21 14 24 -15 -17 18 -3 -5 -20 23 -9 -13 -6 -25 -26 29 -28 -27
right_child=1 17 3 6 5 7 9 8 -10 -11 -12 12 -14 15 -16 16 -18 -19 20 -21 -22 -23 -24 25 26 27 28 -29 -30 -31
leaf_value=0.067679550865557311 0.13768197809196786 0.051650369832070997 0.12192372807219137 -0.0016318876030635171 -0.12986027495973951 -0.099816376233306359 0.10567904859815823 0.010542290077319732 0.082048490916181799 -0.010319819986808979 0.029481190406138575 -0.12907593260423908 0.025673651481609491 0.08130160365375011 0.057086158327605586 -0.011267409850561872 -0.12906142668107687 0.054480850679647502 -0.017010788998763956 -0.11616584436843497 -0.087052879405872932 -0.052495171444055869 -0.05362965400953016 -0.119982864269674 -0.12088625331711458 -0.10982332129803954 -0.10920232049044057 -0.11447435896831132 -0.11370812819590632 -0.10671532607799104
leaf_weight=4.0123656243085852 6.0541136413812664 4.2421010881662395 3.7299998700618771 2.7831588387489301 2.1839329116046446 4.3353723473846939 3.7690699249505997 2.8326061554253084 7.022107295691967 4.2299872860312462 2.4180749654769897 1.8516978360712553 2.679427057504653 5.2382648698985559 2.8277252465486526 5.2152043096721172 2.6932019516825676 7.7581641823053351 5.9544675424694997 3.0203774571418762 3.7125752866268158 3.0751920901238909 2.6127053685486317 2.2228567451238614 2.1136796437203884 1.2387760803103445 1.7636189311742785 1.38993763923645 1.601770222187042 4.4289399012923241
leaf_count=21 29 20 19 20 18 37 17 19 35 25 20 16 21 37 24 37 19 38 34 31 23 33 21 18 21 16 24 14 17 76
internal_value=0 0.0379071 -0.015611 0.0258962 -0.027025 -0.0333852 -5.41553e-05 0.00543386 0.0373692 0.0443376 -0.0535213 -0.0517973 -0.0809004 -0.0310057 -0.0717226 0.00148547 -0.0513821 0.0100288 -0.0147654 -0.0612396 -0.0439101 -0.101 -0.0202479 -0.114399 -0.119254 -0.11147 -0.115027 -0.108789 -0.111347 -0.107395
internal_weight=0 27.7214 81.2901 17.5326 63.7575 59.7451 13.8026 19.2209 12.4674 7.99906 6.75345 40.5242 16.8868 23.6374 10.4907 13.1467 7.90841 21.6673 13.9091 5.80354 9.66704 14.2074 5.44531 11.1322 7.663 9.28051 5.47907 7.05765 3.36539 5.66772
internal_count=800 144 656 112 544 523 93 132 75 42 57 391 194 197 104 93 56 115 77 51 57 173 40 140 80 124 62 106 41 92
shrinkage=0.1


Tree=14
num_leaves=31
num_cat=0
split_feature=9 8 9 3 7 1 1 5 8 0 7 8 12 3 3 8 3 12 12 7 12 1 3 12 12 11 3 9 5 5
split_gain=5.31696 4.91152 5.25123 5.42439 3.83454 3.02901 4.25453 2.92693 3.08494 5.16791 2.79599 2.55038 3.61438 3.09876 2.65719 3.03371 3.24527 2.70368 2.15942 2.48246 2.16692 1.50649 1.46172 1.02723 0.969586 0.945973 0.216049 0.0385758 0.00465927 0.00123556
threshold=130.50000000000003 0.83470541950000021 138.50000000000003 231.50000000000003 453643.46280000004 50.500000000000007 66.500000000000014 22.500000000000004 0.856203932 1371.5000000000002 372760.65150000009 0.88688689800000009 75.500000000000014 79.000000000000014 1787.5000000000002 0.92569358850000005 845.00000000000011 214.50000000000003 197.50000000000003 276684.08010000008 66.500000000000014 48.500000000000007 249.50000000000003 173.00000000000003 116.50000000000001 1.0000000180025095e-35 498.00000000000006 135.50000000000003 27.500000000000004 39.000000000000007
decision_type=2 2 2 2 2 2 2 2 2 2 2 2 2 2 2 2 2 2 2 2 2 2 2 2 2 2 2 2 2 2
left_child=-1 2 10 23 7 -5 -7 -3 9 -9 21 12 -10 -13 15 -15 17 18 19 20 -17 -2 -22 -4 25 -23 -14 -26 -29 -30
right_child=1 4 3 5 -6 6 -8 8 11 -11 -12 13 26 14 -16 16 -18 -19 -20 -21 22 24 -24 -25 27 -27 -28 28 29 -31
leaf_value=0.087335116974453897 -0.017683773969442484 0.082457940622343684 -0.11120787253858587 0.14152795462809847 -0.09054287842417702 -0.074279064326383606 0.1159504783349517 -0.019109587804778345 0.037559822633901438 0.15859056010020731 0.053024144036659893 0.095652255914477222 -0.085895053059735132 0.057924039540704457 0.076639620743825132 0.068990321646156233 -0.11105536672343597 -0.081942533663059272 0.065569385653973522 -0.076727335229032412 0.027382554695267722 -0.033165682985079534 -0.059955775164316244 -0.027200542036597237 -0.12412861622656234 -0.11289221702844106 -0.12927684447532464 -0.10619427985648684 -0.1129454410436795 -0.10934520443687482
leaf_weight=6.2722283452749243 3.275974400341517 5.7554970309138289 2.4309675917029363 3.1199615374207497 3.6787360832095137 2.5175529755651951 2.2058119475841522 3.1898799687623969 2.6413399577140799 3.3609447553753853 1.730623997747897 3.7161392495036116 2.1441490650177002 5.6643279120326033 4.0513650774955741 4.2523307651281481 3.5923077017068854 4.2736290618777266 4.6346088498830786 4.3246612176299086 3.5388242229819298 4.1341851875185993 4.1793692260980606 3.6276984252035618 1.9925304651260356 2.3253179490566254 2.4709408581256866 4.0576042234897614 1.8201708272099497 2.0013683699071407
leaf_count=30 19 30 29 17 34 28 13 28 16 19 16 18 19 36 19 19 24 31 25 24 18 39 23 31 23 28 21 75 20 28
internal_value=0 -0.00755929 -0.0376599 0.0101645 0.00864286 0.0650649 0.0145582 0.014548 0.00757274 0.0720607 -0.0688185 -0.000964351 -0.0557297 0.00844659 3.17286e-05 -0.00897483 -0.0221343 -0.00946018 0.00533991 -0.0117903 0.0116699 -0.079573 -0.0199108 -0.0609075 -0.0919877 -0.061866 -0.109122 -0.111698 -0.108554 -0.11106
internal_weight=0 100.709 35.2398 13.902 65.4691 7.84333 4.72336 61.7903 56.0348 6.55082 21.3378 49.484 7.25643 42.2276 38.5114 34.4601 28.7957 25.2034 20.9298 16.2952 11.9705 19.6072 7.71819 6.05867 16.3312 6.4595 4.61509 9.87167 7.87914 3.82154
internal_count=800 770 366 118 404 58 41 370 340 47 248 293 56 237 219 200 164 140 109 84 60 232 41 60 213 67 40 146 123 48
shrinkage=0.1


Tree=15
num_leaves=30
num_cat=0
split_feature=12 12 8 2 8 3 1 0 12 1 12 7 12 5 3 0 5 1 7 7 0 12 3 1 9 8 9 3 7
split_gain=4.42968 8.16879 4.73177 4.72756 4.14385 4.08445 3.33269 2.46867 2.37296 2.11516 3.55805 3.41624 3.36906 2.30863 2.04003 1.76634 1.43613 1.312 1.23996 3.4613 1.18968 1.20071 1.17926 0.321929 0.200608 0.00826951 0.00468634 0.000741936 2.03309e-05
threshold=205.50000000000003 197.50000000000003 0.89368750200000013 1.0000000180025095e-35 0.75928676400000017 383.00000000000006 48.500000000000007 1102.5000000000002 185.50000000000003 67.500000000000014 10.500000000000002 199134.53550000003 69.500000000000014 36.500000000000007 917.00000000000011 1205.5000000000002 27.500000000000004 57.500000000000007 277613.47635000007 264767.71940000006 1135.5000000000002 213.50000000000003 324.00000000000006 57.500000000000007 135.50000000000003 0.72095540600000019 136.50000000000003 82.500000000000014 265610.64010000008
decision_type=2 2 2 2 2 2 2 2 2 2 2 2 2 2 2 2 2 2 2 2 2 2 2 2 2 2 2 2 2
left_child=1 4 6 5 22 -4 -2 -5 9 10 -6 -12 -11 14 16 23 -13 -10 19 -18 24 27 25 -15 -8 -1 28 -22 -26
right_child=2 -3 3 7 8 -7 20 -9 17 12 11 13 -14 15 -16 -17 18 -19 -20 -21 21 -23 -24 -25 26 -27 -28 -29 -30
leaf_value=-0.11971931287849694 0.0053521951726898508 0.17078173846767392 0.00055459020281328438 -0.1227032602092016 0.092205574461198675 0.14188859384757202 -0.14840076004999272 -0.002341062265163047 -0.00092892373043099944 -0.002370013964715951 0.057722588056124881 -0.058255895095980892 0.095310116051173233 -0.0669437449211229 0.064095042080438799 -0.01495909819387993 0.075225940032319819 -0.089533764934411231 0.067185223850917186 -0.077262424632062662 -0.10578157485429814 -0.021546338041812361 -0.028695727554106716 -0.1187874190940397 -0.10544469597852871 -0.10946120249719711 -0.11135806383106071 -0.10898625221546542 -0.10598941817857939
leaf_weight=1.7304351963102811 5.003814414143565 3.1120244264602652 4.8056757934391481 2.8289012759923926 4.4719237312674514 3.5591055005788803 1.6169245168566684 4.2855611816048622 3.5109765604138365 6.2433400675654402 7.4557736515998831 5.0065051615238252 8.1276974603533727 1.9614267274737338 4.1985159665346137 5.0611581057310104 2.5042899362742883 3.1891432031989098 2.5755509808659554 3.6700433380901814 1.5009260922670367 3.7422193139791489 3.1539423801004887 3.0763347372412682 1.6953327879309656 1.4396738708019254 2.9396074302494526 1.3928460367023943 1.149945620447397
leaf_count=20 34 14 32 22 23 18 14 30 25 30 34 38 38 22 24 37 15 27 19 28 30 34 28 30 35 20 37 20 22
internal_value=0 0.0123828 -0.0313392 0.00972357 0.0050666 0.0606904 -0.0647198 -0.0502003 0.0130483 0.0199701 0.00814309 -0.00244337 0.0528741 -0.0184335 0.00308081 -0.0566838 -0.015541 -0.0431033 0.00889956 -0.0154136 -0.0896971 -0.0589516 -0.0719886 -0.0986023 -0.117262 -0.115061 -0.108558 -0.107324 -0.105665
internal_weight=0 70.4888 34.5209 15.4792 67.3767 8.36478 19.0416 7.11446 61.0527 54.3526 39.9815 35.5096 14.371 28.0538 17.9549 10.0989 13.7564 6.70012 8.74988 6.17433 14.0378 6.63599 6.32405 5.03776 7.40181 3.17011 5.78489 2.89377 2.84528
internal_count=800 472 328 102 458 50 226 52 390 338 270 247 68 213 124 89 100 52 62 43 192 84 68 52 108 40 94 50 57
shrinkage=0.1


Tree=16
num_leaves=31
num_cat=0
split_feature=9 8 9 3 0 0 8 0 8 12 5 7 1 1 3 0 10 3 9 7 7 6 3 0 8 8 12 1 0 7
split_gain=4.35054 3.55876 4.28084 4.54976 3.97701 3.30303 2.82248 2.96195 3.10946 3.60636 2.92315 2.46478 2.06561 3.29064 2.04267 2.1304 3.29344 2.79806 2.1479 1.86921 1.55287 1.44718 1.2509 1.17726 1.09645 0.721918 0.720593 1.03716 0.316969 0.0560267
threshold=130.50000000000003 0.83470541950000021 138.50000000000003 231.50000000000003 1873.5000000000002 1728.5000000000002 0.84518491600000012 1478.0000000000002 0.88688689800000009 73.000000000000014 22.500000000000004 372760.65150000009 50.500000000000007 66.500000000000014 113.50000000000001 102.50000000000001 1.0000000180025095e-35 579.50000000000011 139.50000000000003 278217.45510000008 237270.74895000001 1.0000000180025095e-35 251.50000000000003 823.00000000000011 0.7695505720000001 0.87412997650000024 177.00000000000003 57.500000000000007 1493.0000000000002 273968.62575000006
decision_type=2 2 2 2 2 2 2 2 2 2 2 2 2 2 2 2 2 2 2 2 2 2 2 2 2 2 2 2 2 2
left_child=-1 2 11 24 5 6 -3 8 9 -8 -10 21 -5 -14 -12 -16 23 18 -18 -9 -19 26 -23 -17 -4 -11 27 28 -2 -28
right_child=1 4 3 12 -6 -7 7 19 10 25 14 -13 13 -15 15 16 17 20 -20 -21 -22 22 -24 -25 -26 -27 29 -29 -30 -31
leaf_value=0.080914572797739309 -0.11745708467653276 0.095137991256535742 -0.0061607977786915088 0.12048467260113725 -0.1019487735932086 0.095601572740982188 0.04607898287462598 -0.098892487155929548 0.099595408189871393 -0.058143285294916518 0.064142936289280736 0.049201915710217065 -0.06851893020918591 0.1047285346177772 0.1053223721433318 0.077442211277273063 -0.12631943684860711 -0.060504543371391786 -0.016843563197729141 -9.1326696905625357e-05 0.031744261077251278 0.03597080085276861 -0.075908752829483797 0.0038993576354764137 -0.095428827367889699 -0.13024258163276967 -0.10776985553301495 -0.013675893863709732 -0.06000112602513822 -0.12922572895533721
leaf_weight=5.9695162475109091 2.6445917747914844 3.3306314833462229 2.3621171638369542 3.2558279857039452 3.20563069730997 4.4178787767887107 2.8888456895947439 4.4730799384415141 4.3435130789875975 2.9975562281906605 6.1634638532996169 1.755687654018401 2.2642680183053017 2.1254890970885754 1.7985325902700449 4.5242468565702492 4.2174296453595153 2.6066004112362844 3.1164900213479996 3.3481263220310211 6.0839723348617554 1.9236695319414128 2.0798663459718227 4.1948685236275196 3.2956424690783024 2.5875651091337204 5.5954416878521442 2.3690839819610119 1.507484797388315 1.5553249083459375
leaf_count=30 31 23 25 17 24 25 17 29 22 31 32 16 28 13 8 23 33 17 19 21 34 22 23 24 35 22 105 22 15 14
internal_value=0 -0.00704155 -0.0338819 0.00982307 0.00662292 0.0123198 0.00582792 0.000251716 0.0100188 -0.0446289 0.022518 -0.063804 0.0601303 0.0153663 0.0122816 0.000238662 -0.00739953 -0.034311 -0.0797985 -0.0565974 0.00407569 -0.0750288 -0.0221515 0.0420599 -0.0581594 -0.0915466 -0.0905128 -0.0664722 -0.0965967 -0.112437
internal_weight=0 97.0329 32.7345 13.3033 64.2984 61.0928 56.6749 53.3443 45.5231 8.47397 37.0491 19.4312 7.64559 4.38976 32.7056 26.5421 24.7436 16.0245 7.33392 7.82121 8.69057 17.6755 4.00354 8.71912 5.65776 5.58512 13.6719 6.52116 4.15208 7.15077
internal_count=800 770 366 118 404 380 355 332 282 70 212 248 58 41 190 158 150 103 52 50 51 232 45 47 60 53 187 68 46 119
shrinkage=0.1


Tree=17
num_leaves=31
num_cat=0
split_feature=7 9 7 1 7 1 12 8 1 7 1 2 12 3 7 9 8 3 0 2 0 0 1 8 8 9 8 3 0 0
split_gain=3.84648 4.77558 4.44934 4.43664 5.29081 3.9058 5.31103 3.76219 3.27857 3.13968 2.95227 2.94897 2.48494 2.36277 2.48542 2.16691 2.08306 3.51216 1.26688 1.08684 2.657 0.715964 0.411656 0.0907428 0.00827825 0.00219936 0.00142418 0.0010145 0.000353148 2.21424e-05
threshold=453643.46280000004 130.50000000000003 369685.45010000007 66.500000000000014 194051.91495000003 58.500000000000007 18.000000000000004 0.90727182400000006 57.500000000000007 183294.42015000005 48.500000000000007 1.0000000180025095e-35 177.00000000000003 779.50000000000011 277379.18245000002 136.50000000000003 0.80007284500000009 216.00000000000003 1511.5000000000002 1.0000000180025095e-35 1320.5000000000002 1734.0000000000002 76.500000000000014 0.89368750200000013 0.82517192650000015 136.50000000000003 0.83697015200000013 745.50000000000011 1029.0000000000002 1056.5000000000002
decision_type=2 2 2 2 2 2 2 2 2 2 2 2 2 2 2 2 2 2 2 2 2 2 2 2 2 2 2 2 2 2
left_child=1 -1 3 4 8 7 -7 10 -3 -5 16 12 -9 14 15 -11 17 -6 -2 24 -21 23 -15 25 27 26 29 28 -12 -8
right_child=18 2 -4 9 5 6 21 11 -10 13 19 -13 -14 22 -16 -17 -18 -19 -20 20 -22 -23 -24 -25 -26 -27 -28 -29 -30 -31
leaf_value=0.094196049359707448 -0.12292679835908504 -0.0046882027213878156 0.077971664462740439 -0.086177952671050606 -0.045809063352381781 0.082556054497881379 -0.10439802053757558 -0.0071971101676362326 0.10877086569463304 -0.054526188086015906 -0.10539186339027061 -0.042976454487013531 0.098950967389660582 0.055968622336012436 0.079419966154317179 0.031235524829517688 -0.066210372636088768 0.1232668063681117 -0.02388963447906392 -0.1097964133286409 0.053507182108422452 -0.035308599390586247 0.10039605600947575 -0.12562239999949507 -0.11516599097276176 -0.10940001104018929 -0.10918048172439872 -0.11014867889632503 -0.10766706992914954 -0.10493509578706106
leaf_weight=5.3844807744026175 3.2819469794630995 6.6783948093652707 6.3491928763687602 2.3228623941540745 2.518044441938402 1.6938499435782421 1.7525656484067424 3.8735056854784471 4.1168742552399635 5.7368991971015948 1.2172015979886044 4.9322612248361102 5.1212654896080494 4.0896721854805929 4.1595700532197943 6.0563451088964939 3.2796274870634079 2.3992292433977127 2.1298399940133095 2.502300601452589 1.6554718166589735 1.271044760942458 4.256069004535675 4.4385786503553391 2.3928806073963642 2.5394301600754261 0.88401726633310307 1.1993992887437341 1.552120830863714 1.365916736423969
leaf_count=28 31 36 38 17 27 9 44 22 19 38 26 31 26 21 19 38 23 13 20 35 16 20 20 33 27 37 13 16 25 32
internal_value=0 0.00270645 -0.00274567 -0.00884635 -0.0244992 -0.0391157 -0.0834149 -0.0201908 0.0385804 0.0248943 -0.0494756 0.0191645 0.0532394 0.0355124 0.0129579 -0.0104838 -0.00448331 0.0366862 -0.0839502 -0.0845345 -0.0447749 -0.106361 0.0786252 -0.114586 -0.11052 -0.107098 -0.105638 -0.107719 -0.106667 -0.104633
internal_weight=0 95.7391 90.3546 84.0054 57.384 46.5887 13.9454 32.6433 10.7953 26.6214 18.7163 13.927 8.99477 24.2986 15.9528 11.7932 8.1969 4.91727 5.41179 10.5194 4.15777 12.2516 8.34574 10.9805 6.3616 6.54193 4.0025 3.96872 2.76932 3.11848
internal_count=800 749 721 683 530 475 188 287 55 153 208 79 48 136 95 76 63 40 51 145 51 179 41 159 94 126 89 67 51 76
shrinkage=0.1


Tree=18
num_leaves=31
num_cat=0
split_feature=0 9 1 11 8 3 12 12 5 12 9 7 1 7 6 3 8 7 7 7 7 0 12 12 0 8 5 8 8 1
split_gain=3.84075 3.2384 3.46429 3.62483 4.54001 3.51887 3.22648 2.95776 2.94947 2.85103 2.95293 2.73154 4.04156 2.73441 3.90624 2.73117 2.83428 1.97742 1.52527 1.56396 1.33872 1.29361 2.33266 1.23698 0.505656 0.312622 0.308104 0.076846 0.0374326 0.00903107
threshold=30.000000000000004 130.50000000000003 66.500000000000014 1.0000000180025095e-35 1.9219998440000003 2427.5000000000005 11.500000000000002 205.50000000000003 22.500000000000004 87.500000000000014 136.50000000000003 164320.64665000004 57.500000000000007 273271.82670000003 1.0000000180025095e-35 116.50000000000001 0.82864240200000017 273030.48020000005 190238.61625000005 372760.65150000009 271024.20755000005 1212.0000000000002 132.00000000000003 173.00000000000003 1135.5000000000002 0.87923066000000005 32.500000000000007 0.89368750200000013 0.96836258900000016 49.500000000000007
decision_type=2 2 2 2 2 2 2 2 2 2 2 2 2 2 2 2 2 2 2 2 2 2 2 2 2 2 2 2 2 2
left_child=-1 -2 3 4 5 6 -3 9 -5 10 -4 -8 13 14 23 -15 -17 -11 -10 28 -9 27 -23 25 -25 -13 -18 -14 29 -20
right_child=1 2 7 8 -6 -7 11 20 18 17 -12 12 21 15 -16 16 26 -19 19 -21 -22 22 -24 24 -26 -27 -28 -29 -30 -31
leaf_value=0.15652358960461232 0.069025953993865005 0.085520144096351225 -0.058739252383519583 0.048084617802862786 0.087107020762574927 0.096649322512000646 0.082845442878947517 -0.085447116248270782 -0.0070364505057333706 0.035111889999185852 0.050704716143984564 -0.091133091977193076 -0.10571966751523194 0.088883661331754918 0.055335014456602744 0.060002459089178228 -0.074712942075010835 0.11621980002721731 -0.11765336808832561 -0.012522056236639396 0.01024381192631924 0.03095675857522729 -0.1102909491364627 -0.0073048424201762711 -0.075569923879371975 -0.13992092411764998 -0.029502194900426427 -0.12709278207881955 -0.12608389600985864 -0.10905940453845234
leaf_weight=1.5065922625362862 5.6621078699827185 2.4736140295863143 4.842889025807386 2.0072371214628211 4.502342425286769 2.5112579986453047 1.9591424614191044 3.2602867893874636 2.2386257797479621 7.1780732832849008 5.0215514376759529 3.1950267069041747 3.6215276606380922 3.6675190031528464 2.7626168951392165 3.4240523763000947 3.2592616267502308 5.1715177223086357 1.6012452840805034 1.7946177273988713 2.6505928561091423 2.1050809845328331 2.6298776119947433 2.2921494767069817 2.0604678839445114 2.2301611974835396 2.8042762652039528 3.1414740681648254 2.2077994123101234 5.1736375130712986
leaf_count=9 30 15 27 14 20 16 10 34 14 37 25 37 80 25 22 25 22 24 16 16 18 14 47 22 20 15 23 23 15 85
internal_value=0 -0.00437101 -0.00889863 -0.0218113 -0.00855006 -0.0183078 -0.025243 0.0203303 -0.0647467 0.0370584 -0.00302616 -0.0322409 -0.038303 -0.0162522 -0.0496636 0.015598 -0.0127313 0.0690767 -0.0821469 -0.0977486 -0.0425368 -0.0875817 -0.0474947 -0.0793299 -0.0396206 -0.111189 -0.0538038 -0.115648 -0.114776 -0.111091
internal_weight=0 97.45 91.7879 63.663 48.6398 44.1375 41.6262 28.1249 15.0232 22.214 9.86444 39.1526 37.1935 25.6955 12.5404 13.1551 9.48759 12.3496 13.0159 10.7773 5.91088 11.498 4.73496 9.77781 4.35262 5.42519 6.06354 6.763 8.98268 6.77488
internal_count=800 791 761 596 436 416 400 165 160 113 52 385 375 211 116 95 70 61 146 132 52 164 61 94 42 52 45 103 116 101
shrinkage=0.1


Tree=19
num_leaves=31
num_cat=0
split_feature=7 9 8 5 12 7 5 9 7 7 1 8 11 0 8 3 8 8 8 0 7 0 8 3 7 0 7 9 8 8
split_gain=3.36103 3.47861 3.27836 3.6997 3.12547 2.82326 2.35003 3.58136 4.91161 4.29415 2.90309 3.89649 3.37486 3.50748 2.38489 2.23479 3.1152 2.05818 4.92008 1.82316 1.68857 1.61054 1.20597 0.903643 0.164078 0.153537 0.0205119 0.000663242 0.000560368 1.1249e-05
threshold=453643.46280000004 130.50000000000003 0.75928676400000017 32.500000000000007 245.50000000000003 369685.45010000007 22.500000000000004 136.50000000000003 258864.13115000003 285789.25850000005 67.500000000000014 0.85759526000000008 1.0000000180025095e-35 355.50000000000006 0.98696633050000016 216.00000000000003 0.94001755300000012 0.99421454000000009 0.85127858700000014 1320.5000000000002 263493.64135000005 1560.5000000000002 0.96269485050000014 311.50000000000006 266909.88215000002 762.00000000000011 280272.08945000003 136.50000000000003 0.8341710455000001 0.82434836750000018
decision_type=2 2 2 2 2 2 2 2 2 2 2 2 2 2 2 2 2 2 2 2 2 2 2 2 2 2 2 2 2 2
left_child=1 -1 3 -3 5 6 -4 8 14 15 12 -12 13 -9 -8 24 25 18 19 -15 -13 -2 -6 -14 28 -17 27 -5 29 -10
right_child=21 2 4 26 22 -7 7 10 9 -11 11 20 23 17 -16 16 -18 -19 -20 -21 -22 -23 -24 -25 -26 -27 -28 -29 -30 -31
leaf_value=0.082809575439368593 -0.1224163563265158 0.042655041254369308 0.063264033877591719 -0.10637971224614705 -0.11414435709166604 0.076960679761932549 0.07511618569086087 -0.068187409908092897 -0.10409343954396946 0.080692022586752177 0.14086093172509315 -0.034940124250639491 -0.12165986571416616 0.0075501471662066961 -0.02129070154911096 -0.076961486747696622 0.033776285081782251 0.089431006153011555 -0.067502528609244036 0.1140748213887296 0.05804076003334762 -0.0049486414381765473 -0.016561600072369471 -0.028267813489564992 -0.13551741307356852 -0.11745347825855718 -0.12261157770246534 -0.10917086573148985 -0.10690708959862133 -0.10361420783578926
leaf_weight=5.0919909700751296 3.3004516698420039 2.2044032365083686 5.9734081700444213 1.269501864910126 2.9059192687273017 5.6382645443081847 4.7573727890849131 4.0231373906135621 0.78985502198338409 1.7838740162551392 3.872421056032179 3.3881030566990376 2.4799787495285264 2.8405963107943553 5.5705477297306061 1.5301408991217615 2.9765710309147835 5.0055535323917857 4.5627567693591118 3.698623713105917 4.6115297973155975 1.8057559281587598 2.2447649203240871 1.7794127687811849 4.2878557872027159 2.413394371047616 1.3407270498573778 2.5846153479069471 0.80256544053554524 1.28937741369009
leaf_count=28 33 21 35 26 39 32 30 30 22 10 20 23 25 31 31 16 16 26 36 26 21 18 16 18 34 31 12 39 16 39
internal_value=0 0.00248365 -0.00223806 -0.065895 0.00370713 0.00894458 0.00334099 -0.00238945 -0.0305586 -0.065482 0.0179644 0.0585197 -0.00177615 0.0153345 0.0231174 -0.0839888 -0.0434511 0.0361955 0.0121932 0.0678012 0.0186604 -0.0808752 -0.071616 -0.0826442 -0.123116 -0.101742 -0.111958 -0.108251 -0.104663 -0.103796
internal_weight=0 91.7173 86.6253 7.39925 79.226 74.0753 68.4371 62.4637 26.2016 15.8736 36.2621 11.8721 24.3901 20.1307 10.3279 14.0898 6.92011 16.1075 11.102 6.53922 7.99963 5.10621 5.15068 4.25939 7.16965 3.94354 5.19484 3.85412 2.8818 2.07923
internal_count=800 749 721 98 623 568 536 501 245 184 256 64 192 149 61 174 63 119 93 57 44 51 55 43 111 47 77 65 77 61
shrinkage=0.1


Tree=20
num_leaves=31
num_cat=0
split_feature=7 8 7 9 0 0 9 3 5 12 8 5 7 11 1 7 0 3 0 5 8 12 0 1 12 12 1 0 12 3
split_gain=2.88744 3.23984 3.65273 2.93889 2.94528 3.0939 2.90955 4.3258 2.47117 2.30209 2.6799 2.83159 2.54265 1.61621 1.86342 1.54669 1.51398 1.50473 1.50181 2.03895 1.44471 1.15743 1.15425 0.705442 0.52315 0.0662597 0.0227188 0.0115002 0.00946364 0.000360463
threshold=453643.46280000004 0.81831832150000017 369685.45010000007 130.50000000000003 1873.5000000000002 1707.0000000000002 139.50000000000003 265.00000000000006 22.500000000000004 75.500000000000014 0.89368750200000013 47.500000000000007 258210.15320000003 1.0000000180025095e-35 48.500000000000007 278022.67645000009 1560.5000000000002 72.000000000000014 803.50000000000011 42.500000000000007 0.99764031850000012 116.50000000000001 1114.5000000000002 58.500000000000007 120.50000000000001 187.50000000000003 49.500000000000007 1114.5000000000002 213.50000000000003 579.50000000000011
decision_type=2 2 2 2 2 2 2 2 2 2 2 2 2 2 2 2 2 2 2 2 2 2 2 2 2 2 2 2 2 2
left_child=1 6 3 -3 5 8 13 17 -5 12 11 24 -10 14 -1 18 -2 -8 20 23 -12 -16 -14 -20 -11 -26 -15 -23 -27 -28
right_child=16 2 -4 4 -6 -7 7 -9 9 10 15 -13 22 26 21 -17 -18 -19 19 -21 -22 27 -24 -25 25 28 29 -29 -30 -31
leaf_value=0.026184465868470293 -0.12022102265755 0.10121240752302817 0.092583180209972998 0.063439683220142401 -0.10089766794897136 0.080856893344383729 0.017228113472755515 0.092975083512232756 0.067588538902535369 -0.052439792118465736 0.063862352975578254 0.03529306516689424 0.023021197249085509 -0.12300431093114168 -0.028586554500062606 0.039861536934379251 -0.0044709370009732947 -0.099846988506325104 0.013384786682544357 -0.12068648983245352 -0.024742328625449256 -0.10724904406495282 -0.054587409948558929 -0.050734009648415013 -0.13276429837394066 -0.10395795240265032 -0.10603880325268566 -0.11981774218475655 -0.11417760469367602 -0.10840244275608474
leaf_weight=3.0961905643343943 3.0381064265966407 3.0927417650818816 5.304776929318904 5.3100173957645884 2.695880562067031 5.0420062970370045 1.8752921894192676 3.8436403665691614 7.0350429564714414 1.7980403490364567 3.2100172378122869 2.0122047830373049 3.8444013372063637 1.4378908313810814 3.3881840836256742 5.688361130654811 1.7991876713931558 2.6479638628661633 3.5258143469691259 2.6782441437244415 4.3123760521411896 1.3064138256013396 3.8211672678589821 3.3426501639187336 1.4858436435461042 2.3578575756400828 1.1581297498196366 1.6442113090306518 1.4716886803507803 1.4568065423518417
leaf_count=19 33 19 28 29 22 36 22 34 33 18 21 18 23 14 34 32 18 29 24 23 24 27 22 22 12 70 26 23 20 25
internal_value=0 0.00214296 0.0129038 0.00616509 0.00123554 0.0060715 -0.0313533 0.0149732 -0.00119466 -0.00856225 -0.0236572 -0.0694407 0.0241761 -0.060091 -0.0374035 -0.00529821 -0.0771688 -0.0513089 -0.0203479 -0.046678 0.0130678 -0.068463 -0.0156655 -0.0178197 -0.0990672 -0.11484 -0.112908 -0.114253 -0.107885 -0.107356
internal_weight=0 89.8839 68.0291 62.7244 59.6316 56.9357 21.8547 8.3669 51.8937 46.5837 31.8831 9.12564 14.7006 13.4878 9.435 22.7575 4.83729 4.52326 17.0691 9.54671 7.52239 6.33881 7.66557 6.86846 7.11343 5.31539 4.05283 2.95063 3.82955 2.61494
internal_count=800 749 496 468 449 427 253 85 391 362 284 138 78 168 103 146 51 51 114 69 45 84 45 46 120 102 65 50 90 51
shrinkage=0.1


Tree=21
num_leaves=31
num_cat=0
split_feature=7 12 8 7 11 5 3 9 7 8 3 8 5 8 8 12 0 3 8 7 0 3 9 9 12 8 0 1 12 8
split_gain=2.48055 2.71144 2.72884 2.97268 2.60901 2.61283 3.0166 2.37388 1.82137 4.2079 2.79219 2.61406 4.66879 2.95256 2.59942 2.46899 1.80948 1.64231 1.53782 1.48288 1.42441 0.91465 1.14495 0.605616 0.323059 0.27973 0.0285335 0.0164525 0.00981078 0.000183983
threshold=453643.46280000004 256.50000000000006 0.81831832150000017 369685.45010000007 1.0000000180025095e-35 32.500000000000007 691.00000000000011 130.50000000000003 251532.61570000002 0.91631650750000015 201.50000000000003 0.92569358850000005 32.500000000000007 1.3947674940000001 0.82591858950000019 197.50000000000003 1583.5000000000002 72.000000000000014 0.76023186000000009 277379.18245000002 1560.5000000000002 145.50000000000003 138.50000000000003 139.50000000000003 107.50000000000001 0.82958074600000009 280.50000000000006 49.500000000000007 196.50000000000003 0.73728280400000001
decision_type=2 2 2 2 2 2 2 2 2 2 2 2 2 2 2 2 2 2 2 2 2 2 2 2 2 2 2 2 2 2
left_child=1 2 4 7 5 18 21 -4 11 14 -11 24 -13 -14 -10 19 17 -16 -1 -12 -2 22 -7 27 -9 -19 -27 -6 -28 -29
right_child=20 -3 3 -5 23 6 -8 8 9 10 15 12 13 -15 16 -17 -18 25 -20 -21 -22 -23 -24 -25 -26 26 28 29 -30 -31
leaf_value=0.11946746411267184 -0.11824784678555199 -0.095527711036306126 0.096474240032656713 0.08706712745674268 -0.12061185677635385 0.02350569252529389 0.045230057323846731 0.097532595101383554 0.049375236795729915 -0.036746052646305982 0.045999453860776814 0.091566036534670353 -0.091533603186082141 0.026369420028626009 0.0072268467757052304 0.10615426383090253 -0.0095244612383021069 -0.064813947726416909 0.0051812511680766511 -0.02898574738118849 -0.0040378711130552849 -0.1103514439672465 -0.084760374818248066 -0.03982105612249312 0.055600058862693397 -0.13137505907408062 -0.11752536882151772 -0.10736149397897471 -0.10836643266076795 -0.10551467596059189
leaf_weight=2.0980175174772766 2.7925116904079905 2.7701328434050074 2.9287696778774253 5.262251876294612 1.3255367018282407 1.7071419507265075 3.299501895904541 3.5587292090058353 2.2730304822325698 6.3275490216910866 6.8669338114559633 3.9037373065948477 4.8786987103521806 3.7616228312253952 1.4325775355100612 4.3330344408750525 3.8926086556166402 1.1860710829496381 2.6831372790038586 4.2816787585616112 1.7932660393416879 3.1771956365555525 2.283189631998539 1.7559489607810972 3.7982678767293692 1.2270710729062555 3.4611663613468409 1.102456880733371 1.7664082664996383 1.0562219489365814
leaf_count=14 33 29 19 27 14 20 29 17 35 38 36 18 37 19 12 24 36 23 30 24 18 35 30 23 24 13 38 23 38 24
internal_value=0 0.00184482 0.00499488 0.0150066 -0.0268362 -0.00591684 -0.0338939 0.0086737 0.00415831 -0.0089489 0.0192224 0.0285589 0.000803304 -0.0402037 -0.0492663 0.0420974 -0.0665589 -0.0910278 0.0553312 0.017201 -0.0735861 -0.0703178 -0.038442 -0.0877086 0.0758837 -0.10945 -0.117652 -0.111843 -0.114431 -0.106458
internal_weight=0 88.3987 85.6286 65.1402 20.4883 15.2482 10.467 59.878 56.9492 37.0481 21.8092 19.9011 12.5441 8.64032 15.2389 15.4816 12.9659 9.07329 4.78115 11.1486 4.58578 7.16753 3.99033 5.24016 7.357 7.64072 6.45465 3.48422 5.22757 2.15868
internal_count=800 749 720 478 242 158 114 451 432 317 122 115 74 56 195 84 160 124 44 60 51 85 50 84 41 112 89 61 76 47
shrinkage=0.1


Tree=22
num_leaves=31
num_cat=0
split_feature=7 12 7 8 7 1 6 3 0 1 6 3 1 7 7 9 12 0 5 1 7 7 12 5 0 1 0 12 7 7
split_gain=2.12987 2.33491 2.32482 2.90392 3.39944 4.36559 2.33999 2.23008 2.83274 2.14487 4.8897 1.93903 1.81317 2.43627 2.04393 1.36723 1.35576 1.3408 1.31167 1.25502 1.23459 1.40516 1.1793 1.15545 0.799714 0.678744 0.18148 0.163414 0.0475636 0.00484674
threshold=453643.46280000004 256.50000000000006 164320.64665000004 0.95047041800000021 369685.45010000007 73.000000000000014 1.0000000180025095e-35 249.50000000000003 1130.5000000000002 57.500000000000007 1.0000000180025095e-35 82.500000000000014 50.500000000000007 272478.44330000004 201987.39380000005 137.50000000000003 173.00000000000003 1560.5000000000002 32.500000000000007 66.500000000000014 266041.00630000007 271263.33525000006 41.500000000000007 32.500000000000007 955.00000000000011 59.500000000000007 1002.0000000000001 214.50000000000003 257595.57280000005 282367.78050000005
decision_type=2 2 2 2 2 2 2 2 2 2 2 2 2 2 2 2 2 2 2 2 2 2 2 2 2 2 2 2 2 2
left_child=1 2 -1 4 5 7 11 8 22 10 -10 -5 13 16 -14 18 -9 -2 -13 -8 26 -22 -4 -11 -20 -23 -16 28 -24 -30
right_child=17 -3 3 6 -6 -7 19 12 9 23 -12 15 14 -15 20 -17 -18 -19 24 -21 21 25 27 -25 -26 -27 -28 -29 29 -31
leaf_value=0.091356862820337031 -0.11647246061741573 -0.091592607760838607 -0.014750366255680533 0.084407535938206157 0.060924413067541816 0.058811611437675194 0.034871722667119069 -0.086674486275479426 -0.060577165100429459 -0.0084803846335431299 0.14175918561729786 0.021989636170664021 0.041466511006431526 0.072843050422916486 -0.079435558229382419 0.030437951792296171 0.021068194314778469 -0.0036455385980263635 -0.013635375982272661 0.10828320603535142 0.02947499160276262 -0.11538628171667431 -0.12738846294377845 -0.11878181826653632 -0.077071955716292453 -0.023202466373888061 -0.12129205525423144 -0.15523460693253208 -0.10575925367198838 -0.1138916383028703
leaf_weight=2.9707660898566237 2.5633108876645556 2.6087006125599137 1.2561611197888867 2.8297821879386929 5.4354155734181395 5.7039690017700186 5.3920739963650721 2.2292801346629876 2.955056155100463 1.52922479622066 2.0045422427356243 3.9870780855417278 2.5347890555858603 4.4944030698388815 2.0385589953511936 7.1178938038647166 2.4530366454273462 1.7879282981157301 3.6471974216401559 4.0990694984793663 2.3832455482333899 1.6937423888593914 1.7132878229022024 2.5060465689748526 4.3663961365818977 1.5115117598325012 2.1059904061257839 1.1068225372582672 3.2310818191617727 0.94782552123069752
leaf_count=17 33 29 13 14 31 30 33 22 37 34 14 21 15 29 33 39 21 18 20 20 25 25 16 28 30 18 26 15 83 11
internal_value=0 0.00158263 0.00446789 0.00129186 -0.013722 -0.0228605 0.02509 -0.0348998 -0.0616667 -0.022845 0.021202 0.00714978 -0.0133684 0.0202518 -0.0385173 -0.00428532 -0.0302288 -0.0701118 -0.0248805 0.0665769 -0.0593476 -0.0286766 -0.103967 -0.0769815 -0.0482003 -0.0719149 -0.100704 -0.119979 -0.113357 -0.107604
internal_weight=0 86.8529 84.2442 81.2735 49.834 44.3986 31.4395 38.6946 17.25 8.99487 4.9596 21.9483 21.4446 9.17672 12.2678 19.1186 4.68232 4.35124 12.0007 9.49114 9.73305 5.5885 8.25518 4.03527 8.01359 3.20525 4.14455 6.99902 5.8922 4.17891
internal_count=800 749 720 703 526 495 177 465 251 113 51 124 214 72 142 110 43 51 71 53 127 68 138 62 50 43 59 125 110 94
shrinkage=0.1


Tree=23
num_leaves=29
num_cat=0
split_feature=3 9 1 7 1 12 3 3 0 0 7 0 0 12 1 10 12 9 7 0 7 7 1 8 3 12 3 1
split_gain=1.9409 1.74516 2.17016 2.75114 3.68528 3.353 2.12446 2.80431 2.26876 3.69901 2.16314 2.0957 2.35578 1.91904 1.8424 2.49629 1.57805 1.86677 1.33341 1.30787 1.19893 0.988025 0.570255 0.0423942 0.00659675 0.00134 0.00012328 2.12936e-06
threshold=4923.0000000000009 130.50000000000003 66.500000000000014 181155.34770000001 58.500000000000007 14.500000000000002 82.500000000000014 67.000000000000014 1629.5000000000002 1320.5000000000002 273030.48020000005 205.00000000000003 491.00000000000006 205.50000000000003 48.500000000000007 1.0000000180025095e-35 87.500000000000014 136.50000000000003 273030.48020000005 1669.5000000000002 271024.20755000005 286997.90940000006 56.500000000000007 0.85871995400000001 116.50000000000001 187.50000000000003 251.50000000000003 60.500000000000007
decision_type=2 2 2 2 2 2 2 2 2 2 2 2 2 2 2 2 2 2 2 2 2 2 2 2 2 2 2 2
left_child=1 -1 3 -3 6 -6 7 -5 9 11 -11 -8 -13 16 -14 -16 17 -4 -18 23 -15 -10 -17 25 -25 -7 27 -27
right_child=-2 2 13 4 5 19 8 -9 21 10 -12 12 14 20 15 22 18 -19 -20 -21 -22 -23 -24 24 -26 26 -28 -29
leaf_value=0.054416140554107179 0.07854076818274211 0.041548697102775825 -0.048220067309752229 -0.044953257535830765 0.070429931422608033 -0.10715508349770973 0.036225332315075416 0.097711941573839001 -0.044132736012470662 -0.013094103611440439 0.10678620708295138 -0.1249497739958681 0.020623101001427824 -0.080361766927280281 0.03048670157523152 -0.12300622820412602 0.027492719856310091 0.043086764962647378 0.097593555820747246 -0.012539754824430524 0.013943171161900449 -0.12374932007124195 -0.057445537856435719 -0.12370654632787614 -0.11615358866839065 -0.10280239905450737 -0.10442148720705491 -0.10256941752584746
leaf_weight=4.7498547881841651 2.9084155745804301 6.6191630288958541 4.3539500273764187 2.2284142971038809 1.3507781848311413 1.3618774525821193 3.8014704529196086 3.6096013728529215 4.0730530172586432 2.5338398907333604 3.7076544016599655 3.0787082314491263 4.8900271244347078 2.9182534981518975 2.2539384588599258 3.080289430916304 6.9645447693765146 4.610008992254734 4.4453431852161884 1.5312669351696957 2.5055765993893147 2.5249567702412605 2.3305229190737009 1.8995663058012722 2.9555991534143686 0.90465974994003795 0.56369231268763531 0.69264191947877407
leaf_count=30 16 36 27 32 8 26 33 30 39 23 24 35 34 36 22 39 37 25 23 29 18 22 25 17 34 35 16 29
internal_value=0 -0.00451153 -0.00793371 -0.0189904 -0.0271066 -0.0773704 -0.0122565 0.0432556 -0.0222979 -0.00885779 0.0581188 -0.0303672 -0.0465599 0.016064 -0.027337 -0.0579351 0.0301364 -0.00126254 0.0548043 -0.0975177 -0.0367969 -0.0746008 -0.0947682 -0.113049 -0.119109 -0.104698 -0.10315 -0.102701
internal_weight=0 86.5393 81.7894 55.9917 49.3726 11.2601 38.1125 5.83802 32.2745 25.6765 6.24149 19.435 15.6335 25.7977 12.5548 7.66475 20.3738 8.96396 11.4099 9.9093 5.42383 6.59801 5.41081 8.37804 4.85517 3.52287 2.16099 1.5973
internal_count=800 784 754 588 552 194 358 62 296 235 47 188 155 166 120 86 112 52 60 186 54 61 64 157 51 106 80 64
shrinkage=0.1


Tree=24
num_leaves=31
num_cat=0
split_feature=8 0 11 0 4 5 9 12 8 8 6 9 0 0 1 0 12 0 7 9 12 8 12 8 9 1 3 7 7 8
split_gain=1.79397 3.06142 2.7358 2.58893 2.3573 3.52422 2.83174 2.07665 2.51405 2.24537 2.74966 1.98834 2.67591 1.71441 1.54418 2.2024 1.94605 1.47137 2.58952 3.33026 1.2781 1.18067 0.909682 0.691632 0.683886 0.634706 0.496168 0.400315 0.0307035 0.0161496
threshold=0.81831832150000017 1873.5000000000002 1.0000000180025095e-35 1770.5000000000002 1.0000000180025095e-35 39.000000000000007 136.50000000000003 64.500000000000014 0.85382457550000013 2.2422321510000005 1.0000000180025095e-35 137.50000000000003 560.00000000000011 673.00000000000011 76.500000000000014 205.00000000000003 82.500000000000014 1008.5000000000001 273030.48020000005 138.50000000000003 107.50000000000001 0.77451911200000012 105.00000000000001 0.97347750850000014 139.50000000000003 50.500000000000007 134.00000000000003 277879.41665000009 184424.05880000003 0.88971606599999997
decision_type=2 2 2 2 2 2 2 2 2 2 2 2 2 2 2 2 2 2 2 2 2 2 2 2 2 2 2 2 2 2
left_child=2 3 4 7 5 6 -1 8 -2 10 14 12 -12 -10 15 -9 -17 20 19 26 -18 -6 -7 -15 -4 -22 -19 -14 -27 -30
right_child=1 -3 24 -5 21 22 -8 9 13 -11 11 -13 27 23 -16 16 17 18 -20 -21 25 -23 -24 -25 -26 28 -28 -29 29 -31
leaf_value=0.0013150253219948573 0.11703728609860629 -0.087400576068050059 -0.11196279530955851 0.10201503679080291 -0.011340830591983096 -0.11759013165214766 0.14056643905726643 0.038632166294129661 0.063001575536884749 0.075923270496428386 -0.039066669217820545 -0.039996048313033161 0.053038867461487921 -0.04538612357032594 0.024181483405425832 -0.13095208010398754 0.0040902114976187082 -0.050247614582104111 0.049534735146948367 0.061204751063768562 -0.042284410414607253 -0.098398172979209025 -0.011768361715363294 0.015912595885616772 -0.034074663832165328 -0.13208017495152341 -0.12221838685872047 0.097896838682080461 -0.10361688702586946 -0.11890204698564824
leaf_weight=2.8350532259792107 3.2036778405308715 3.3216429576277724 3.783489976078271 2.9837693832814685 3.221070919185876 1.3873337656259539 3.0116391517221928 3.1304678637534442 4.9774553440511209 3.2406108453869811 2.7080589421093446 3.5064621511846772 3.8853307217359543 3.4757804982364178 4.5853132717311373 2.6751906033605364 1.6145329251885439 1.3803813699632863 3.8669410664588213 1.7842839360237119 1.527240829542279 3.0168986432254314 1.9600146673619745 3.9126728549599648 1.6057393401861189 1.1283662319183352 3.1296865399926901 4.0768803041428328 1.1771582085639241 1.6745057068765161
leaf_count=31 17 32 73 20 33 15 24 30 26 18 21 26 24 24 31 23 13 31 28 12 14 35 32 21 23 7 34 22 44 16
internal_value=0 0.00619124 -0.0274168 0.0110758 -0.00599574 0.0261975 0.0730436 0.00660275 0.03809 -0.00426947 -0.010479 0.0253336 0.0468022 0.0176369 -0.0288249 -0.0393517 -0.0515835 -0.0392983 -0.0148713 -0.0544392 -0.0741505 -0.0534448 -0.055627 -0.0129244 -0.0887558 -0.0970878 -0.100191 0.0760074 -0.118117 -0.112592
internal_weight=0 66.9664 20.8212 63.6448 15.432 9.19404 5.84669 60.661 15.5696 45.0914 41.8508 14.1767 10.6703 12.3659 27.6741 23.0888 19.9583 17.2831 10.1613 6.29435 7.1218 6.23797 3.34735 7.38845 5.38923 5.50727 4.51007 7.96221 3.98003 2.85166
internal_count=800 534 266 502 170 102 55 482 88 394 376 93 67 71 283 252 222 199 105 77 94 68 47 45 96 81 65 46 67 60
shrinkage=0.1


Tree=25
num_leaves=31
num_cat=0
split_feature=7 12 8 9 5 3 8 8 7 7 9 8 8 3 5 0 8 7 10 9 12 3 11 1 3 1 7 12 3 7
split_gain=1.64441 1.92602 1.82474 2.30538 3.15217 2.649 2.18048 3.19912 1.76968 3.28216 1.75659 1.64348 2.46795 2.79777 2.44884 1.48822 1.49434 2.90929 1.78772 2.66517 1.48666 1.41746 1.25135 1.35444 1.38605 1.07667 1.04194 1.02013 0.565841 0.482699
threshold=453643.46280000004 256.50000000000006 0.81831832150000017 139.50000000000003 32.500000000000007 779.50000000000011 0.82747087400000019 0.83697015200000013 268172.51735000004 262176.53695000004 133.50000000000003 0.856203932 0.88688689800000009 579.50000000000011 22.500000000000004 1297.0000000000002 0.92569358850000005 195752.78585000001 1.0000000180025095e-35 136.50000000000003 107.50000000000001 197.00000000000003 1.0000000180025095e-35 48.500000000000007 82.500000000000014 60.500000000000007 257595.57280000005 90.500000000000014 691.00000000000011 271467.20605000004
decision_type=2 2 2 2 2 2 2 2 2 2 2 2 2 2 2 2 2 2 2 2 2 2 2 2 2 2 2 2 2 2
left_child=1 2 3 22 -5 29 8 25 9 -4 26 27 13 -13 -14 16 -16 -18 -19 -20 -17 -2 23 -1 -25 -8 -9 -12 -26 -6
right_child=21 -3 6 4 5 -7 7 10 -10 -11 11 12 14 -15 15 20 17 18 19 -21 -22 -23 -24 24 28 -27 -28 -29 -30 -31
leaf_value=0.022208281371020332 0.0077089147991373898 -0.088166785662341082 0.15823252852398739 0.11322817556480394 -0.034408022068463995 0.072613163760743851 -0.1316142677084422 0.025356893624257977 0.1378434899986663 -0.10883455084134407 0.11141801434040524 0.0018085763922075098 0.085739284175952057 -0.13045424490363555 0.066777797538448549 -0.066287589585381557 -0.066952907640810036 0.076104019065815806 -0.069326057525701743 0.050229516920270993 0.0061455061874579478 -0.11443273442385615 -0.1102713468575407 0.024810891067330639 -0.11879221134981571 -0.0154762338368729 0.11172685465080985 0.018034853386169461 -0.041323272278413786 -0.11244478418896012
leaf_weight=2.9100234843790549 1.5992101393640035 2.3390481900423756 0.81878257542848487 2.4249685294926158 1.3766673766076567 1.7746982388198373 2.0903874356299634 2.9694348163902751 2.4051882103085518 1.0506639163941143 2.2602718621492377 3.6544187590479842 3.8960035741329184 2.8439472243189812 4.7674514390528229 5.2654899470508081 4.3566156961023834 4.7635844498872766 3.3149256333708736 4.2618147693574429 6.1352555528283119 2.3409286830574274 2.7870615012943736 1.3729319106787441 2.6498663928359747 1.2913694605231283 2.6372402459383011 2.4247792642563581 1.463605163618922 1.8684318289160726
leaf_count=19 19 29 5 18 22 17 36 20 14 35 12 32 20 27 32 34 26 27 21 25 39 32 61 20 43 24 21 28 17 25
internal_value=0 0.0012749 0.00389538 -0.0235089 0.0196081 -0.025618 0.0122357 0.00706395 0.0811178 0.00813583 0.0130208 0.00682738 0.000734414 -0.056075 0.0107768 0.00189032 0.017399 0.00329989 0.0281019 -0.00207765 -0.0273081 -0.0648583 -0.0522115 -0.0329395 -0.0621902 -0.0872654 0.0659832 0.0630869 -0.0912282 -0.0793393
internal_weight=0 82.1749 79.8359 18.6283 7.44477 5.0198 61.2076 56.933 4.27463 1.86945 53.5512 47.9446 43.2595 6.49837 36.7611 32.8651 21.4644 16.6969 12.3403 7.57674 11.4007 3.94014 11.1835 8.39643 5.4864 3.38176 5.60668 4.68505 4.11347 3.2451
internal_count=800 749 720 242 82 64 478 424 54 40 364 323 283 59 224 204 131 99 73 46 73 51 160 99 80 60 41 40 60 47
shrinkage=0.1


Tree=26
num_leaves=31
num_cat=0
split_feature=3 3 9 8 8 3 0 0 8 3 12 12 7 5 12 5 9 1 12 11 3 4 8 7 5 12 3 1 5 7
split_gain=1.5867 3.24662 1.94258 2.34491 2.48266 2.20285 1.92359 2.73195 2.0428 1.51712 1.44138 1.84121 1.53659 1.07152 0.919503 1.90101 1.18927 1.05547 2.86548 2.67403 3.55979 1.47279 1.30576 1.02837 0.890283 0.781211 0.48051 0.267848 0.0221576 0.00820534
threshold=59.500000000000007 72.000000000000014 130.50000000000003 0.75928676400000017 0.77724873250000015 85.000000000000014 1873.5000000000002 1770.5000000000002 0.81189526500000009 3379.0000000000005 214.50000000000003 212.50000000000003 271024.20755000005 39.000000000000007 64.500000000000014 32.500000000000007 136.50000000000003 66.500000000000014 177.00000000000003 1.0000000180025095e-35 498.00000000000006 1.0000000180025095e-35 1.4303355640000002 261090.92040000003 32.500000000000007 205.50000000000003 245.50000000000003 60.500000000000007 32.500000000000007 280272.08945000003
decision_type=2 2 2 2 2 2 2 2 2 2 2 2 2 2 2 2 2 2 2 2 2 2 2 2 2 2 2 2 2 2
left_child=-1 13 -3 24 -5 27 7 8 25 10 11 14 -12 -2 15 -10 -17 18 21 20 -19 22 26 -20 -4 -7 -16 28 -6 -26
right_child=1 2 3 4 5 6 -8 -9 9 -11 12 -13 -14 -15 17 16 -18 19 23 -21 -22 -23 -24 -25 29 -27 -28 -29 -30 -31
leaf_value=-0.078496792645802005 0.097240308666374578 0.064171843457224639 -0.01343310551235511 0.087330105387951912 -0.10285294977479045 -0.034744997027440737 -0.078596424994102396 0.099711113260724238 0.07489243446963581 0.072708417391627797 -0.11320944613695233 0.078193780268526095 -0.0061256686773460264 0.019333928305475562 -0.033382234203396081 -0.050934689246217607 0.028257430197873409 0.063098940322870931 0.072194300803273798 0.088258143802575961 -0.07408678925590588 -0.13037844347145799 0.017068437902875818 -0.010765991848628935 -0.10555337195799466 -0.11720445001001188 -0.10002285377292519 -0.0470974477791819 -0.12381275402710362 -0.11666454925511144
leaf_weight=2.6087634246796361 4.2137818671762934 3.7996404021978369 1.4219201300293196 2.8204685086384407 0.95920438412576903 2.9203782510012379 3.3114240486174813 2.611619295552372 4.1598021388053876 2.7874690517783156 2.3203155975788823 3.0304522309452286 3.1717444453388453 3.0384890288114548 1.8183156158775107 3.5968651622533798 4.011044230312109 3.1072052493691427 2.5342701934278002 3.1674457378685474 4.8344679772853851 2.4854521229863167 2.505781389772892 3.6408569421619177 2.1293642213568096 1.894061744213104 2.6719288285821676 0.85437877103686322 1.0636626686900852 0.96619681455194939
leaf_count=37 25 27 16 31 41 38 33 17 22 14 31 25 25 23 20 23 24 18 18 18 35 23 15 35 53 28 31 31 11 12
internal_value=0 0.000724699 -0.0054853 -0.00922382 -0.00447244 -0.0085527 -0.0044923 -0.000207466 -0.0049817 0.00102666 -0.00321958 0.0031424 -0.051367 0.0645998 -0.00276 0.0205371 -0.009183 -0.0130027 -0.02973 0.0105719 -0.0204124 -0.0642551 -0.0407637 0.0232809 -0.0789341 -0.0671856 -0.0730369 -0.0940452 -0.113874 -0.109021
internal_weight=0 81.848 74.5957 70.7961 66.2786 63.4581 60.5809 57.2695 54.6579 49.8434 47.0559 41.5639 5.49206 7.25227 38.5334 11.7677 7.60791 26.7657 15.6566 11.1091 7.94167 9.48148 6.99603 6.17513 4.51748 4.81444 4.49024 2.87725 2.02287 3.09556
internal_count=800 763 715 688 607 576 493 460 443 377 363 307 56 48 282 69 47 213 142 71 53 89 66 53 81 66 51 83 52 65
shrinkage=0.1


Tree=27
num_leaves=31
num_cat=0
split_feature=7 12 7 8 1 7 0 9 0 3 5 1 1 9 12 0 1 8 7 7 0 4 7 3 7 9 7 8 1 3
split_gain=1.417 1.55387 1.65808 1.922 2.57682 2.41888 1.85564 2.60902 2.38115 1.90186 1.59033 1.58308 1.46881 1.40843 1.4076 1.39195 2.41125 2.98997 2.42509 1.83116 1.53299 1.15138 0.93457 0.753308 0.681837 0.206533 0.0267274 0.0223917 0.0105752 0.00150541
threshold=453643.46280000004 256.50000000000006 164320.64665000004 0.94840649600000015 73.000000000000014 369685.45010000007 1081.0000000000002 140.50000000000003 1146.0000000000002 317.50000000000006 42.500000000000007 49.500000000000007 50.500000000000007 134.50000000000003 185.50000000000003 1478.0000000000002 49.500000000000007 1.0701988575000001 210603.85355000003 268608.78815000009 1675.0000000000002 1.0000000180025095e-35 269078.94500000001 562.00000000000011 261317.73030000002 133.50000000000003 194051.91495000003 0.85871995400000001 51.500000000000007 99.000000000000014
decision_type=2 2 2 2 2 2 2 2 2 2 2 2 2 2 2 2 2 2 2 2 2 2 2 2 2 2 2 2 2 2
left_child=1 2 -1 4 5 6 7 9 -8 25 14 -11 -2 -13 21 16 -5 18 -18 23 -17 24 28 -19 -10 -4 -27 -15 -16 -28
right_child=12 -3 3 15 -6 -7 8 -9 10 11 -12 13 -14 27 22 20 17 19 -20 -21 -22 -23 -24 -25 -26 26 29 -29 -30 -31
leaf_value=0.077930315057138447 0.01360381278862708 -0.083461472368421163 -0.16269826513622709 0.11096845031817629 0.052230625505545518 0.04212569458111487 0.07873349910072662 0.045906257261405958 -0.0065321923065878836 0.033282775334580697 -0.097006936839762359 -0.0076027365738311706 -0.11411213581111766 -0.10692793653789485 -0.11871122420304794 -0.070333877262866148 -0.016005865459496001 0.04374193977327348 0.096466042306443581 -0.073703689903522371 0.022756630143417503 -0.041369204647240011 -0.018143260655865755 -0.021109669546397942 0.064608405758478246 -0.12691389530250405 -0.10412861400733975 -0.12455271857776734 -0.10328335595015475 -0.1079097421225832
leaf_weight=2.8789844326674929 1.5222702436149114 2.1124623781070104 0.84341214783489515 3.3041969686746659 5.3493723645806304 5.1248591244220725 2.5840883869677809 2.0980680622160426 2.1278126519173366 2.0920268427580595 2.5575208086520425 2.1253519374877214 2.2045711856335402 1.8111380254849794 0.7172674173489203 3.1806845776736727 2.7815354242920893 3.7680008783936483 6.1685095578432083 3.6970470920205116 3.9857631325721741 2.619238093495369 2.8112063854932785 3.4140314310789108 3.6725343652069569 0.72394077479839314 2.001533099450171 1.1974204350262878 1.167464220896363 2.2217994099482894
leaf_count=17 18 29 7 21 30 30 21 19 18 17 38 21 33 43 11 22 20 21 34 21 24 24 26 20 35 5 74 14 43 44
internal_value=0 0.00115176 0.00347234 0.00058124 -0.0128028 -0.0218397 -0.0316627 -0.057579 -0.0102071 -0.0742592 -0.0248712 -0.0400409 -0.0619451 -0.0699197 -0.0108048 0.019949 0.0318786 0.0186995 0.0615115 -0.0165212 -0.0185597 0.0136612 -0.054671 0.0129143 0.038511 -0.116959 -0.109161 -0.113943 -0.109155 -0.106118
internal_weight=0 79.1373 77.0248 74.1458 43.8461 38.4967 33.3718 15.1147 18.2571 13.0166 15.673 7.22594 3.72684 5.13391 13.1155 30.2998 23.1333 19.8291 8.95004 10.8791 7.16645 8.41959 4.69594 7.18203 5.80035 5.79069 4.94727 3.00856 1.88473 4.22333
internal_count=800 749 720 703 520 490 460 244 216 225 195 95 51 78 157 183 137 116 54 62 46 77 80 41 53 130 123 57 54 118
shrinkage=0.1


Tree=28
num_leaves=31
num_cat=0
split_feature=3 8 8 8 3 3 12 1 7 1 3 11 8 8 0 7 12 0 0 6 4 3 0 5 5 8 8 0 12 3
split_gain=1.28577 1.21949 1.43653 1.70319 1.50058 1.84861 1.36157 1.92335 1.6639 2.57971 2.12007 1.29054 1.29928 2.04185 1.2478 3.53638 1.10478 3.03951 2.967 1.17493 2.70818 0.533513 0.975392 0.243876 0.0407182 0.034054 0.00438741 0.00333758 0.00172795 0.00015846
threshold=4923.0000000000009 1.9219998440000003 1.5341759695000003 1.3947674940000001 59.500000000000007 72.000000000000014 10.500000000000002 66.500000000000014 169878.67010000002 57.500000000000007 954.00000000000011 1.0000000180025095e-35 0.85759526000000008 0.9494726535000001 1380.5000000000002 263264.62085000006 173.00000000000003 205.00000000000003 700.50000000000011 1.0000000180025095e-35 1.0000000180025095e-35 251.50000000000003 1371.5000000000002 36.500000000000007 27.500000000000004 0.89585631950000011 0.85759526000000008 355.50000000000006 187.50000000000003 201.50000000000003
decision_type=2 2 2 2 2 2 2 2 2 2 2 2 2 2 2 2 2 2 2 2 2 2 2 2 2 2 2 2 2 2
left_child=1 2 3 4 -1 -6 -7 8 -8 10 16 12 -9 -14 25 -16 17 -10 27 20 -20 22 -19 -5 -23 28 29 -18 -11 -17
right_child=-2 -3 -4 23 5 6 7 11 9 14 -12 -13 13 -15 15 26 18 21 19 -21 -22 24 -24 -25 -26 -27 -28 -29 -30 -31
leaf_value=-0.090406863968122531 0.064940214254378612 0.03987880623142312 -0.065934616433430376 0.025489761860952406 0.051019087947804825 0.059644742932273613 0.038132447181288325 0.039837691283518495 0.070468616391376845 -0.10726716000603638 0.056083441376501578 0.056077140380703341 -0.080827801137489774 0.01454401382166607 0.13375576018543184 -0.10269774811037324 -0.11553284484200427 -0.11210228381376273 0.049729669282694303 0.067874970070321269 -0.087261489666241657 -0.12343753459055117 -0.00016072834561799555 0.064626017251984233 -0.10247119155844153 -0.1207423987152898 -0.11389539781840217 -0.10779441685260766 -0.10250043312649776 -0.1050012002875518
leaf_weight=2.1952825207263222 2.8001265600323668 5.8571078777313224 3.9837610572576514 3.1792937815189353 5.1563124675303689 2.5580521076917639 3.3236645385622969 4.4404349476099041 1.4898195490241137 1.5081073055043801 3.2342756483703843 4.7254265807569018 3.9082744456827623 5.2742415256798267 0.89709588512778315 0.58958354592323281 1.3131139120087021 1.5723621482029559 3.3125253934413177 2.8975007217377424 2.5570627972483635 1.8323594070971014 1.5414998754858968 3.1897060759365559 1.8732205443084238 2.4289663378149271 0.68663546070456494 0.96837148815393437 1.5340455872938035 0.60521464794874191
leaf_count=36 16 34 23 22 37 17 19 34 14 35 25 33 28 35 8 26 21 24 31 20 28 19 18 19 30 25 10 21 76 16
internal_value=0 -0.00401868 -0.0075516 -0.00417065 -0.00919665 -0.00623658 -0.0115974 -0.0150677 -0.0290925 -0.0363371 -0.0188605 0.0110471 -0.00457257 -0.0260483 -0.0841975 -0.0296236 -0.031382 -0.0589295 -0.0106645 0.015771 -0.00994999 -0.0871987 -0.0566862 0.0450899 -0.112839 -0.111913 -0.107525 -0.112248 -0.104863 -0.103865
internal_weight=0 78.6333 72.7762 68.7924 62.4234 60.2282 55.0719 52.5138 34.1654 30.8418 22.5921 18.3484 13.623 9.18252 8.24965 2.77853 19.3578 8.30926 11.0486 8.76709 5.86959 6.81944 3.11386 6.369 3.70558 5.47112 1.88143 2.28149 3.04215 1.1948
internal_count=800 784 750 727 686 650 613 596 466 447 251 130 97 63 196 60 226 105 121 79 59 91 42 41 49 136 52 42 111 42
shrinkage=0.1


Tree=29
num_leaves=31
num_cat=0
split_feature=12 12 0 6 7 8 5 0 8 0 12 8 0 0 8 3 9 12 6 7 7 8 12 1 8 7 0 6 12 7
split_gain=1.1518 3.29886 2.56028 3.24083 2.38004 1.81545 1.5106 1.41338 2.08135 1.2332 0.961621 1.20105 2.69575 2.10362 1.84993 1.57695 1.87111 1.32458 1.55253 2.00068 4.32002 0.954475 0.879465 0.808972 0.445022 0.405927 0.358591 0.136858 0.0612626 0.0185952
threshold=207.50000000000003 197.50000000000003 869.00000000000011 1.0000000180025095e-35 164320.64665000004 0.75928676400000017 42.500000000000007 1560.5000000000002 0.95633941550000012 1793.5000000000002 185.50000000000003 0.85759526000000008 1449.5000000000002 1478.0000000000002 0.95153378500000019 745.50000000000011 136.50000000000003 120.50000000000001 1.0000000180025095e-35 272120.97350000002 184424.05880000003 0.7516927885000001 173.00000000000003 57.500000000000007 0.77888510650000009 268691.63035000005 431.00000000000006 1.0000000180025095e-35 244.50000000000003 273968.62575000006
decision_type=2 2 2 2 2 2 2 2 2 2 2 2 2 2 2 2 2 2 2 2 2 2 2 2 2 2 2 2 2 2
left_child=1 4 6 7 -1 22 21 8 24 -9 11 13 17 15 -14 16 -7 18 19 20 -13 -2 -6 -12 -4 -15 -22 28 -23 -26
right_child=2 -3 3 -5 5 10 -8 9 -10 -11 23 12 14 25 -16 -17 -18 -19 -20 -21 26 27 -24 -25 29 -27 -28 -29 -30 -31
leaf_value=0.11922769529468476 0.0050126812154884081 0.10873431914371279 -0.043056692451488771 0.070970627403982425 -0.11061752298242399 -0.11927888726873973 -0.0036047573754679056 0.060773317850020762 0.011179277070368625 -0.054936130681913324 -0.0040150913423707153 -0.085532830443615523 -0.12338598994158007 0.10490158527447296 -0.019661323766159911 0.055906886427565007 0.0098604124518218029 -0.044956840468093458 0.070106848941389521 -0.058175865635652114 0.098680808237133114 -0.11168506727074315 -0.0085656895386774963 -0.083679699332549207 -0.10998247427576327 0.049844746271123536 0.051879910234927322 -0.14377370220386987 -0.080779521220161007 -0.1255872534503201
leaf_weight=1.635444089770316 0.78966307826340454 2.9718213127925983 1.0440109614282826 4.8840356934815636 2.2271660715341564 1.7442882638424615 2.5930973179638386 2.6291425954550505 2.8866071216762066 1.4177717063575981 2.9149193428456774 2.454941190779218 2.646309368312358 2.9391440469771624 4.9093226194381714 2.9976482950150967 3.1447578137740493 3.3094599125906816 5.1934753470122805 3.5883727353066197 2.4868717966601253 2.5756321065127854 1.3601873163133857 2.2652881108224392 1.3854781137779357 2.4599420633167028 4.7915249690413475 1.1560926306992767 0.85407455824315537 1.7013965323567388
leaf_count=8 11 25 11 33 52 25 31 38 25 25 25 13 24 21 32 25 38 24 35 32 15 61 15 27 38 19 28 13 17 14
internal_value=0 0.00620724 -0.0200055 0.00312158 0.000465811 -0.00331048 -0.0662926 -0.0268283 -0.0539699 0.0202364 0.00183388 0.00677369 -0.00450882 0.0317239 -0.0559902 -0.00119936 -0.0362132 0.0133139 0.0237294 0.0056491 0.0291793 -0.0965329 -0.0719234 -0.0388522 -0.0994953 0.0798165 0.0678708 -0.114019 -0.103989 -0.118583
internal_weight=0 56.0409 23.917 15.9484 53.0691 51.4336 7.96856 11.0644 7.01749 4.04691 47.8463 42.6661 29.3803 13.2858 7.55563 7.88669 4.88905 21.8246 18.5152 13.3217 9.73334 5.37546 3.58735 5.18021 4.13089 5.39909 7.2784 4.5858 3.42971 3.08687
internal_count=800 483 317 184 458 450 133 151 88 63 383 331 203 128 56 88 63 147 123 88 56 102 67 52 63 40 43 91 78 52
shrinkage=0.1


Tree=30
num_leaves=31
num_cat=0
split_feature=1 8 8 0 7 8 5 1 11 12 5 7 12 12 8 9 5 7 8 6 8 8 9 3 5 10 12 8 7 0
split_gain=1.04563 3.1652 2.68329 2.5521 2.25221 2.14565 1.78472 1.6746 2.3279 1.58826 2.60401 1.24373 2.04354 1.77695 1.47138 1.30085 1.14822 1.97583 1.69625 1.28211 1.00746 0.646732 0.644772 0.59367 0.592981 0.535968 0.1868 0.0701225 0.00687058 0.00567157
