tree
version=v3
num_class=1
num_tree_per_iteration=1
label_index=0
max_feature_idx=24
objective=binary sigmoid:1
feature_names=id age creatinine_phosphokinase ejection_fraction platelets serum_creatinine serum_sodium time anaemia_0 anaemia_1 diabetes_0 diabetes_1 high_blood_pressure_0 high_blood_pressure_1 sex_0 sex_1 smoking_0 smoking_1 EF_normal EF_abnormal EF_pseudonormal EF_restrictive platelets_high platelets_normal platelets_low
feature_infos=[0:1998] [39:83] [23:7861] [14:70] [138173.13449999999:824131.91669999994] [0.62917836399999993:8.9945972540000003] [116:146] [4:285] [0:1] [0:1] [0:1] [0:1] [0:1] [0:1] [0:1] [0:1] [0:1] [0:1] [0:1] [0:1] [0:1] [0:1] none none none
tree_sizes=2744 2900 3322 3329 3129 3326 3313 3126 3322 3229 3316 3334 3328 3235 3318 3337 3316 3324 3315 3346 3336 3339 3324 3335 3325 3325 3337 3335 3338 3331 3346 3322 3335 3330 3328 3350 3349 3340 3342 3312 3349

Tree=0
num_leaves=26
num_cat=0
split_feature=5 1 1 1 9 3 7 5 4 5 1 7 7 4 5 4 5 0 20 0 3 1 12 2 0
split_gain=80.9194 29.7527 21.5974 17.8682 17.5826 12.9772 12.7814 14.8033 10.0662 9.06776 9.09794 11.1315 7.51684 11.3129 7.14301 3.5002 3.0582 1.86074 1.76993 2.53824 1.50708 1.48017 0.460211 0.685036 7.10543e-15
threshold=0.99323693550000014 76.500000000000014 48.500000000000007 64.000000000000014 1.0000000180025095e-35 32.500000000000007 55.000000000000007 0.81857452900000005 266491.23550000007 0.89701988300000013 48.500000000000007 173.00000000000003 177.00000000000003 263416.18975000008 0.80780240000000014 189415.28400000001 1.3947674940000001 1032.5000000000002 1.0000000180025095e-35 306.50000000000006 32.500000000000007 57.500000000000007 1.0000000180025095e-35 265.00000000000006 1717.0000000000002
decision_type=2 2 2 2 2 2 2 2 2 2 2 2 2 2 2 2 2 2 2 2 2 2 2 2 2
left_child=1 6 -2 5 -5 -4 7 -1 -9 10 11 -8 21 -14 -13 -12 -7 -18 22 -20 -21 -11 23 -17 -24
right_child=2 -3 3 4 -6 16 9 8 -10 12 15 14 13 -15 -16 18 17 -19 19 20 -22 -23 24 -25 -26
leaf_value=-1.4979985923742549 -1.0051532835166701 -1.1948272160574516 -1.1941287181471911 -0.99563889531478578 -1.3096137059769539 -1.4666011113080382 -1.5019586350312553 -1.1478691065449278 -1.3667000351882574 -1.5189302464183996 -1.3933403221535323 -1.2049554357562313 -1.4666011113080382 -1.2418936487753098 -1.4097216166228628 -1.4561352842859658 -1.404757587995793 -1.2991478789548818 -1.3933403221535323 -1.4435762918594792 -1.5189302464183996 -1.4247378032197491 -1.5189302464183996 -1.5189302464183996 -1.5189302464183996
leaf_weight=4.7774532437324515 3.5034657120704678 4.9367016851901999 4.6182048022747066 3.821962594985961 3.3442172706127167 3.8219625949859601 5.8921923339366895 3.5034657120704633 5.2551985681056976 3.5034657120704642 3.1849688291549674 3.1849688291549683 3.8219625949859601 5.414447009563446 3.6627141535282135 3.1849688291549674 3.5034657120704651 3.1849688291549683 3.1849688291549674 3.9812110364437086 7.9624220728874207 3.1849688291549683 25.47975063323975 3.8219625949859619 3.6627141535282126
leaf_count=30 22 31 29 24 21 24 37 22 33 22 20 20 24 34 23 20 22 20 20 25 50 20 160 24 23
internal_value=-1.39413 -1.43428 -1.23597 -1.27224 -1.14216 -1.33385 -1.44651 -1.3564 -1.27917 -1.46119 -1.47727 -1.40119 -1.39334 -1.33488 -1.31448 -1.49506 -1.39524 -1.35447 -1.50138 -1.47266 -1.49381 -1.47408 -1.5134 -1.49039 -1.51893
internal_weight=0 101.601 25.7982 22.2948 7.16618 15.1286 96.6638 13.5361 8.75866 83.1277 67.2028 12.7399 15.9248 9.23641 6.84768 54.463 10.5104 6.68843 51.278 15.1286 11.9436 6.68843 36.1494 7.00693 29.1425
internal_count=800 638 162 140 45 95 607 85 55 522 422 80 100 58 43 342 66 42 322 95 75 42 227 44 183
shrinkage=1


Tree=1
num_leaves=27
num_cat=0
split_feature=5 1 7 5 4 1 1 4 7 0 0 5 0 11 7 2 7 4 4 4 20 5 0 0 7 13
split_gain=60.6025 22.6229 12.4714 10.8516 10.4369 9.30887 8.17219 11.1212 6.24954 6.23612 6.16198 4.94478 4.38636 4.13041 3.89613 3.80271 3.73153 2.95878 2.85661 2.71568 1.57195 1.70011 0.304991 0.211631 0.00120599 0.000188411
threshold=0.99323693550000014 76.500000000000014 207.50000000000003 0.89701988300000013 282332.44830000005 49.500000000000007 48.500000000000007 191230.75090000001 173.00000000000003 462.50000000000006 1042.0000000000002 0.80780240000000014 1118.0000000000002 1.0000000180025095e-35 76.500000000000014 245.50000000000003 28.500000000000004 270486.70250000007 265927.00550000003 370319.91430000006 1.0000000180025095e-35 0.81923798050000007 1779.5000000000002 1032.5000000000002 75.500000000000014 1.0000000180025095e-35
decision_type=2 2 2 2 2 2 2 2 2 2 2 2 2 2 2 2 2 2 2 2 2 2 2 2 2 2
left_child=1 3 4 6 12 -5 8 -8 17 -7 -4 -10 14 15 -2 -11 -9 -1 -14 20 22 23 24 -22 -18 -26
right_child=2 -3 10 5 -6 9 7 16 11 13 -12 -13 18 -15 -16 -17 19 -19 -20 -21 21 -23 -24 -25 25 -27
leaf_value=-0.12271221276958183 0.22386588489685166 0.15905305286485838 -0.073859964808102294 -0.10295557905159546 0.011575029264011327 0.18129973865390797 0.065899622947710207 -0.001568875680791191 0.15184523798025498 -0.096314583754408337 0.10746443318261903 -0.014177182059092963 0.18632392052333857 0.10609978932138849 0.093183799367872217 0.052528677081061736 -0.12413973109826511 0.0089330416724815367 0.30663108728549193 -0.021766249527547951 -0.12319131434903033 -0.038600629337332555 -0.08874686521419918 -0.089238115268676754 -0.1218946012088909 -0.12255724790884262
leaf_weight=3.9068793803453428 4.2289519608020871 5.5300427675247184 3.6980324983596793 4.6768358945846584 3.5182873457670203 3.2534108757972708 4.694139599800109 4.0264627337455741 3.5484173893928528 3.4969617128372175 3.8000093847513199 3.6283174157142639 3.4814272075891477 3.8533491194248199 4.9538750797510147 3.3711956739425659 2.9486697465181377 3.0324041843414307 4.5570816248655319 3.9497210234403601 4.7274654954671842 5.8643636554479599 2.97952677309513 3.0011880397796631 23.429616406559948 5.2528180032968512
leaf_count=26 24 31 22 30 20 20 29 25 20 22 22 23 20 23 29 21 19 20 25 26 31 38 20 20 159 35
internal_value=0 -0.0374869 0.128563 -0.0490936 0.168522 0.0191645 -0.066071 -0.0819677 0.00248213 0.0600331 0.0180353 0.0679098 0.200586 0.0232351 0.153367 -0.0232557 -0.0943229 -0.0651844 0.254527 -0.101484 -0.108016 -0.0792003 -0.119333 -0.110007 -0.122214 -0.122016
internal_weight=0 99.1718 28.2377 93.6417 20.7396 18.6518 74.99 60.874 14.116 13.9749 7.49804 7.17673 17.2213 10.7215 9.18283 6.86816 56.1798 6.93928 8.03851 52.1534 48.2036 13.593 34.6106 7.72865 31.6311 28.6824
internal_count=800 638 162 607 118 116 491 402 89 86 44 43 98 66 53 43 373 46 45 348 322 89 233 51 213 194
shrinkage=0.1


Tree=2
num_leaves=31
num_cat=0
split_feature=5 1 1 7 6 1 4 3 4 4 1 2 1 12 5 5 0 7 1 1 2 4 4 1 5 5 5 20 7 0
split_gain=46.7812 18.7794 15.7368 13.583 12.043 9.50003 9.60015 10.3844 8.22473 10.0925 8.46148 7.32278 6.14152 4.91019 8.4582 2.81493 2.74205 2.04449 2.92609 1.96408 3.13092 1.07955 2.52332 0.804945 0.00507209 0.00159404 0.00123269 0.000457852 0.000113522 6.01705e-05
threshold=0.99323693550000014 67.500000000000014 47.500000000000007 207.50000000000003 136.50000000000003 64.000000000000014 279573.11070000002 32.500000000000007 191230.75090000001 268172.51735000004 57.500000000000007 1688.5000000000002 68.500000000000014 1.0000000180025095e-35 0.88813445550000003 1.7939532655000001 1112.0000000000002 34.000000000000007 50.500000000000007 45.000000000000007 238.00000000000003 263209.55485000007 260755.84050000002 59.500000000000007 0.88073899550000012 0.82738251150000008 0.83923854800000008 1.0000000180025095e-35 212.50000000000003 779.50000000000011
decision_type=2 2 2 2 2 2 2 2 2 2 2 2 2 2 2 2 2 2 2 2 2 2 2 2 2 2 2 2 2 2
left_child=1 8 -2 4 -3 6 7 -4 10 21 -1 13 -7 14 16 -9 -11 -15 19 -19 -21 22 23 25 27 29 28 -20 -23 -10
right_child=2 3 5 -5 -6 12 -8 15 9 11 -12 -13 -14 17 -16 -17 -18 18 24 20 -22 26 -24 -25 -26 -27 -28 -29 -30 -31
leaf_value=-0.051145888140412502 0.30496708379738408 -0.012278631102543488 0.20389728924561454 -0.080186946255023608 0.22024252451022047 0.24469400295472174 -0.10265206064369597 -0.024723156927522749 -0.11974107420689642 -0.1211753658553853 0.16261466399831395 0.098417978099015369 0.077925824878919747 -0.00217867565903086 0.1187465470008726 0.087236126688811852 0.0094573415031719444 -0.10288261806341931 -0.11981340639246066 -0.079407223463145049 0.040809821943634111 -0.12007209026386963 -0.010504774529455609 -0.064572480428199769 -0.12558670076295203 -0.12279483817228994 -0.12183444145894547 -0.12157351122433024 -0.11942922692283953 -0.12039112961951347
leaf_weight=4.0224936455488196 3.5677776038646725 3.460516080260275 4.4192355722189012 4.0724402070045462 6.2511936724185944 4.6676850467920286 3.7687506824731818 5.8418790549039823 2.8891756683588046 3.4456070810556394 3.4315124303102493 4.0331261754035941 4.1909859776496887 4.1246528923511532 4.4653867483139038 3.6480125486850739 3.0109938234090805 4.409543156623843 3.1712290644645673 4.4523807615041715 4.2195014655590057 3.6146996617317209 3.5995671451091757 3.4847884476184836 3.1716097444295883 3.4109763652086258 2.9019881933927527 2.7678125649690628 11.441710755228996 2.8076393455266953
leaf_count=25 17 21 23 24 35 23 22 35 21 24 20 26 22 27 27 20 20 28 23 29 27 26 25 24 20 23 20 19 84 20
internal_value=0 -0.0349712 0.107785 0.073108 0.13739 0.0812747 0.0389192 0.0772787 -0.0529471 -0.0628506 0.0472605 -0.0295754 0.165797 -0.0434377 0.0129283 0.0183152 -0.0602557 -0.0668307 -0.0788471 -0.0485436 -0.0209129 -0.103065 -0.0843404 -0.105446 -0.122358 -0.121085 -0.119947 -0.120634 -0.119584 -0.120061
internal_weight=0 96.6605 30.1043 13.7841 9.71171 26.5365 17.6779 13.9091 82.8764 75.4224 7.45401 41.2718 8.85867 37.2387 10.922 9.48989 6.4566 26.3167 22.1921 13.0814 8.67188 34.1505 16.1921 12.5926 9.11065 9.10779 17.9584 5.93904 15.0564 5.69682
internal_count=800 638 162 80 56 145 100 78 558 513 45 270 45 244 71 55 44 173 146 84 56 243 113 88 62 64 130 42 110 41
shrinkage=0.1


Tree=3
num_leaves=31
num_cat=0
split_feature=5 1 4 7 1 4 5 1 1 3 0 1 3 7 7 4 7 7 0 4 20 1 0 7 5 8 5 7 2 4
split_gain=38.0109 19.0757 13.4551 8.39264 7.66111 7.00544 6.42894 8.99406 8.65288 8.23541 5.77547 5.60304 7.98219 5.11127 4.58728 3.36848 2.94846 2.46125 1.61289 1.46566 0.894222 0.960035 0.224531 0.00240583 0.000907562 0.000421744 0.000132446 0.000127656 3.90941e-06 7.507e-07
threshold=0.89701988300000013 73.000000000000014 455961.24060000008 245.50000000000003 48.500000000000007 191230.75090000001 1.0048029465000001 49.500000000000007 48.500000000000007 47.500000000000007 1081.0000000000002 64.000000000000014 32.500000000000007 173.00000000000003 214.50000000000003 370319.91430000006 111.50000000000001 28.500000000000004 1792.0000000000002 268827.65565000003 1.0000000180025095e-35 50.500000000000007 584.50000000000011 102.00000000000001 0.79057303500000009 1.0000000180025095e-35 0.80630048150000022 190.00000000000003 216.00000000000003 264913.53140000004
decision_type=2 2 2 2 2 2 2 2 2 2 2 2 2 2 2 2 2 2 2 2 2 2 2 2 2 2 2 2 2 2
left_child=1 4 3 6 13 -6 7 -2 -8 10 -9 12 -10 16 -15 17 -1 -7 20 -14 23 -22 -23 24 -19 27 -27 -25 29 -28
right_child=2 -3 -4 -5 5 15 8 9 11 -11 -12 -13 19 14 -16 -17 -18 18 -20 -21 21 22 -24 25 -26 26 28 -29 -30 -31
leaf_value=0.017522346308006011 -0.095755039018756732 0.16708930410431963 -0.12749182741953866 -0.057522919884495871 0.038739653289081494 -0.017240339868636274 0.25515674483075074 0.18972807789789276 0.16627314267715268 -0.051278387745744371 0.052957081462752714 0.16506069648596325 0.036842336064422464 0.14224263775871834 -0.016752467807915169 -0.0016087806252418372 -0.1187966102357821 -0.11865404915235252 -0.039524534001701243 -0.045383285186565023 -0.045115319725397909 -0.083875729511520988 -0.12007597437323073 -0.11887225960843602 -0.12098571211501885 -0.11803201283808884 -0.11726034269986418 -0.11792826478109533 -0.11734042638540446 -0.11719646342745332
leaf_weight=2.8487508744001371 3.6298238933086422 3.8930412828922263 3.4590090960264197 4.2667141556739798 4.7737398743629447 3.6771655380725852 4.1211097836494472 5.8705200254917163 4.5355965644121197 3.754296362400054 6.5125411450862885 7.6742980331182471 5.3590469211339933 3.6887261271476746 3.5716751515865326 4.1421355158090583 3.5813277959823608 3.3003858625888851 3.7114323377609244 3.6403571367263794 3.9612919613718969 2.7653307244181633 4.5040614530444145 2.7766215354204187 3.377871073782444 2.5828810036182412 2.5103714019060117 2.9592816084623337 3.2735816016793242 6.8860879316926003
leaf_count=19 25 19 21 26 28 23 18 32 22 21 38 36 30 22 21 28 27 25 27 22 28 20 33 21 24 20 20 23 26 55
internal_value=0 -0.0482677 0.0631691 0.0765289 -0.0604372 -0.0770442 0.0892116 0.0464709 0.122565 0.0784623 0.117797 0.0968019 0.0580995 0.00652475 0.0640267 -0.0880047 -0.0584025 -0.0957362 -0.10251 0.00358118 -0.10852 -0.0847222 -0.106305 -0.11818 -0.119833 -0.117654 -0.117379 -0.118385 -0.117246 -0.117214
internal_weight=0 72.7858 52.8233 49.3643 68.8927 55.2022 45.0976 19.7672 25.3304 16.1374 12.3831 21.2093 13.535 13.6905 7.2604 50.4285 6.43008 46.2864 42.6092 8.9994 38.8978 11.2307 7.26939 27.6671 6.67826 20.9888 15.2529 5.7359 12.67 9.39646
internal_count=800 509 291 270 490 401 244 116 128 91 70 110 74 89 43 373 46 345 322 52 295 81 53 214 49 165 121 44 101 75
shrinkage=0.1


Tree=4
num_leaves=29
num_cat=0
split_feature=6 5 1 4 7 5 3 1 7 17 5 20 1 7 7 7 2 16 9 0 20 2 7 1 7 0 2 0
split_gain=32.1844 25.3108 16.5232 8.61615 7.24407 7.19336 6.69562 7.13722 9.16241 6.19519 6.02564 4.879 3.75638 3.91245 2.04761 1.94338 4.01105 7.79944 1.88838 1.2839 0.00735513 0.00150394 0.00135141 0.000645376 0.000482355 0.000137898 3.3336e-05 1.28512e-07
threshold=130.50000000000003 0.89701988300000013 73.000000000000014 380568.64135000005 43.500000000000007 0.81857452900000005 22.500000000000004 66.500000000000014 207.50000000000003 1.0000000180025095e-35 1.3723581175000001 1.0000000180025095e-35 48.500000000000007 173.00000000000003 87.500000000000014 182.50000000000003 275.00000000000006 1.0000000180025095e-35 1.0000000180025095e-35 186.50000000000003 1.0000000180025095e-35 1031.5000000000002 213.50000000000003 51.500000000000007 212.50000000000003 1661.5000000000002 96.500000000000014 836.50000000000011
decision_type=2 2 2 2 2 2 2 2 2 2 2 2 2 2 2 2 2 2 2 2 2 2 2 2 2 2 2 2
left_child=-1 2 4 6 5 -2 -3 9 14 10 18 -12 13 -6 -9 16 17 -14 -8 -17 23 -18 -22 -21 -25 26 27 -26
right_child=1 3 -4 -5 12 -7 7 8 -10 -11 11 -13 15 -15 -16 19 21 -19 -20 20 22 -23 -24 24 25 -27 -28 -29
leaf_value=0.22795202186185365 -0.094452133383875869 0.16984915522907185 0.14051113070778487 -0.10159221479818147 -0.097823194456268581 0.077620354483536477 0.021630145014889798 0.092556767996674838 -0.034522756891942077 -0.080612834586693896 0.018487253279949014 0.1637871966719853 -0.11831425012862973 0.019872970573237208 0.17596119223715018 -0.045404593542359484 -0.11800037316691787 0.084525581090805949 -0.063015152931230153 -0.11756891091387445 -0.11824244552762297 -0.12102729803352077 -0.12103367152789707 -0.11703309415408142 -0.11529094904306295 -0.11627220754642686 -0.11574335429489038 -0.11531871344407003
leaf_weight=5.8202790319919577 3.9451426267623884 4.4231795072555533 4.150846764445304 3.9185918122529975 4.8867360204458219 6.3235646486282349 5.8878821134567314 5.4268383532762545 4.1708418577909461 6.0405022799968711 4.445772632956503 4.8127816021442413 3.6977552324533463 6.6923818141222 6.4325965940952301 2.765642665326598 4.4389590919017792 3.8896752223372442 4.7715474292635918 2.733988404273993 2.8337621837854376 2.6045675352215767 4.4719557389616966 2.9483454078435889 3.2210813462734205 2.3996648639440528 2.3484978377819061 3.45563093572855
leaf_count=30 29 22 19 25 38 38 35 26 24 36 23 24 29 39 30 22 35 28 31 22 22 19 32 24 28 20 20 30
internal_value=0 -0.0129243 -0.0528021 0.0408015 -0.0654073 0.0115117 0.0528239 0.0404962 0.0929609 0.00809739 0.0350004 0.0940171 -0.0802018 -0.0297984 0.137796 -0.094161 -0.0647765 -0.014329 -0.0162602 -0.109979 -0.117295 -0.11912 -0.119951 -0.116161 -0.115893 -0.115598 -0.115419 -0.115305
internal_weight=0 118.139 67.8082 50.3305 63.6574 10.2687 46.4119 41.9888 16.0303 25.9585 19.918 9.25855 53.3886 11.5791 11.8594 41.8095 14.631 7.58743 10.6594 27.1786 24.4129 7.04353 7.30572 17.1072 14.3732 11.4249 9.02521 6.67671
internal_count=800 770 494 276 475 67 251 229 80 149 113 47 408 77 56 331 111 57 66 220 198 54 54 144 122 98 78 58
shrinkage=0.1


Tree=5
num_leaves=31
num_cat=0
split_feature=5 2 6 4 6 12 7 1 7 3 4 7 5 4 16 4 1 1 7 4 7 5 11 5 12 4 1 0 4 0
split_gain=25.7129 13.4561 13.4151 7.10388 6.62798 5.96913 6.1406 5.53995 5.81862 4.05692 3.6368 3.71532 3.88612 5.61384 3.68789 3.22741 4.57379 2.94414 2.90356 2.19075 1.94891 1.32513 1.87939 1.78777 0.629179 0.00930149 0.00419098 0.000459457 8.54908e-05 1.23643e-05
threshold=0.89701988300000013 728.50000000000011 130.50000000000003 380568.64135000005 139.50000000000003 1.0000000180025095e-35 244.50000000000003 66.500000000000014 190.00000000000003 32.500000000000007 283142.08400000009 182.50000000000003 0.83672922950000006 263898.80740000011 1.0000000180025095e-35 210603.85355000003 66.500000000000014 56.500000000000007 116.50000000000001 257380.60930000004 207.50000000000003 0.75939409200000019 1.0000000180025095e-35 0.80175232500000015 1.0000000180025095e-35 263209.55485000007 51.500000000000007 779.50000000000011 266632.58810000005 602.50000000000011
decision_type=2 2 2 2 2 2 2 2 2 2 2 2 2 2 2 2 2 2 2 2 2 2 2 2 2 2 2 2 2 2
left_child=1 10 -2 5 17 7 9 8 -4 19 11 12 21 -14 -12 -11 18 -3 -17 -7 -16 27 23 -23 -13 -26 -27 -1 29 -28
right_child=2 4 3 -5 -6 6 -8 -9 -10 15 14 24 13 -15 20 16 -18 -19 -20 -21 -22 22 -24 -25 25 26 28 -29 -30 -31
leaf_value=-0.11766950231597471 0.23579515030115294 0.066262776215188585 -0.027129613321807567 -0.097491974818044558 0.13797445655273993 0.14121111991064422 -0.098179763430094616 0.17204320890395827 0.1433670459852639 -0.04904860140334423 -0.084358394822260069 -0.073957284007303795 0.10371546734341286 -0.088225530689903797 0.073573686755848619 -0.064178788907572101 0.10302816377888324 -0.059627374496167923 0.057021875435104633 0.041801273565508112 -0.025496517559972856 0.028918056828774703 -0.12007370710301926 -0.08328051119578439 -0.12059452278453092 -0.11833152638462095 -0.11403903259541899 -0.11579629518671186 -0.114515513509651 -0.1137631983978928
leaf_weight=2.4582582265138653 3.6057266741991034 3.1069464981555921 4.63893875479698 3.6871367841958991 5.0880469530820847 4.7443336099386233 3.7029623985290518 6.1641318649053565 3.5208660811185837 5.8249831572175053 5.1515734866261482 4.4745879098773029 3.4233237206935874 2.7461587265133858 3.9905898720025998 4.4911689162254316 6.2970254570245734 4.6201695129275322 3.5303619354963303 4.1612081378698349 3.9522592946887016 3.239521458745001 2.803816944360733 2.5287129282951355 3.5324083343148258 2.7579613327980033 2.1570731922984105 2.8017911612987518 2.3074261099100104 6.5891837701201439
leaf_count=20 15 21 27 25 31 22 24 29 19 32 36 36 22 19 26 28 30 33 19 21 25 23 22 19 27 22 20 24 21 62
internal_value=0 -0.0429198 0.0494151 0.0361764 0.0493483 0.0466458 0.023097 0.100491 0.0464378 0.0385565 -0.0644519 -0.078852 -0.0477215 0.0182787 -0.0184617 0.0137083 0.0392387 -0.00900901 -0.0108371 0.0947608 0.0242776 -0.0771593 -0.0529134 -0.0202682 -0.10739 -0.116015 -0.114844 -0.116672 -0.113974 -0.113831
internal_weight=0 67.7298 54.3688 50.7631 12.8152 47.076 32.752 14.3239 8.1598 29.0491 54.9146 41.8202 20.0016 6.16948 13.0944 20.1435 14.3186 7.72712 8.02153 8.90554 7.94285 13.8321 8.57205 5.76823 21.8186 17.3441 13.8116 5.26005 11.0537 8.74626
internal_count=800 509 291 276 85 251 176 75 46 152 424 337 149 41 87 109 77 54 47 43 51 108 64 42 188 152 125 44 103 82
shrinkage=0.1


Tree=6
num_leaves=31
num_cat=0
split_feature=5 2 6 5 4 5 6 7 8 2 1 0 1 7 16 4 4 7 1 6 5 1 7 1 4 0 4 0 1 3
split_gain=21.1482 11.3989 10.6275 6.1383 5.8846 5.0285 6.33145 4.61659 3.74462 4.21066 4.10318 3.63688 4.54114 3.40487 6.56616 2.45339 2.38992 2.31832 2.26986 2.23143 1.8199 1.33812 1.03116 2.56721 0.848728 0.32632 0.0132823 0.00331256 0.00138606 0.000742973
threshold=0.89701988300000013 728.50000000000011 130.50000000000003 0.85369397400000013 380568.64135000005 0.81857452900000005 139.50000000000003 244.50000000000003 1.0000000180025095e-35 579.50000000000011 66.500000000000014 1081.0000000000002 49.500000000000007 185.50000000000003 1.0000000180025095e-35 370319.91430000006 273114.32370000001 190.00000000000003 49.500000000000007 137.50000000000003 1.0102380425000002 64.000000000000014 94.500000000000014 57.500000000000007 235360.66710000005 1349.5000000000002 282332.44830000005 150.50000000000003 59.500000000000007 27.500000000000004
decision_type=2 2 2 2 2 2 2 2 2 2 2 2 2 2 2 2 2 2 2 2 2 2 2 2 2 2 2 2 2 2
left_child=1 11 -2 5 7 6 -3 8 9 20 18 15 19 14 -14 21 -12 -11 -10 -13 -4 24 -20 -24 -1 -15 27 -26 -29 -27
right_child=2 3 4 -5 -6 -7 -8 -9 10 17 16 12 13 25 -16 -17 -18 -19 22 -21 -22 -23 23 -25 26 29 -28 28 -30 -31
leaf_value=-0.060095332189384093 0.20840522093912575 -0.067299769745399363 0.011073861868425652 -0.089821462519686021 -0.093594538851234588 0.1746570412705471 0.1256996747388231 -0.056610692929783352 0.1127636670461715 -0.092663414235198971 0.077609613655877041 0.090007804253763327 -0.11782220891728792 -0.069632366588522329 0.062714736840895166 -0.0045962258703669788 0.17349645498209976 0.016344022183832012 0.060736967710156145 -0.025215029795555528 0.10799141127077479 -0.047783753738728209 0.062222915980428464 -0.047682092596764016 -0.11769139357405636 -0.11259365643860045 -0.12161296593379656 -0.11452425243782322 -0.11224493360991789 -0.11476584595719604
leaf_weight=3.2608206346631148 3.6672901660203925 3.4429795965552312 3.5472240895032865 2.7435157597064963 3.4680510610342017 3.5615834146738052 3.3571952804923058 4.3708184063434592 3.694130063056952 4.0233616456389427 5.5092646777629835 3.6574058383703258 3.4873207584023476 2.2208364903926832 4.7702043056488055 3.3371358513832083 4.9212822467088699 3.7878227159380913 4.9222742170095435 3.1099386364221573 4.2695246040821075 4.7121074348688117 3.9628088027238828 4.5835877507925034 2.5374653711915043 2.5742929726839066 3.1377983316779128 7.3919414132833463 4.1746447011828423 4.0549068078398705
leaf_count=25 15 25 22 19 25 22 19 29 19 22 25 23 29 21 32 22 21 20 25 23 21 31 21 26 21 26 23 68 43 37
internal_value=0 -0.0402355 0.0439751 0.0431823 0.0321653 0.0783981 0.0279826 0.0413294 0.0512338 0.0121221 0.0733853 -0.0610877 -0.0322849 -0.059715 -0.0135297 -0.0851724 0.12285 -0.0398032 0.0433234 0.0370571 0.0640104 -0.0958365 0.0242776 0.00327886 -0.10688 -0.102808 -0.115729 -0.114419 -0.113702 -0.113922
internal_weight=0 65.5321 54.7274 13.1053 51.0602 10.3618 6.80017 47.5921 43.2213 15.6279 27.5933 52.4268 23.8749 17.1076 8.25753 28.5519 10.4305 7.81118 17.1628 6.76734 7.81675 25.2148 13.4687 8.5464 20.5027 8.85004 17.2418 14.1041 11.5666 6.6292
internal_count=800 509 291 85 276 66 44 251 222 85 137 424 191 145 61 233 46 42 91 46 43 211 72 47 180 84 155 132 111 63
shrinkage=0.1


Tree=7
num_leaves=29
num_cat=0
split_feature=6 5 1 7 5 4 12 7 4 1 2 1 3 4 7 1 7 2 16 0 2 6 20 1 5 5 0 5
split_gain=18.4252 15.1142 11.4963 5.9231 5.69155 4.29761 3.87125 4.54036 3.64872 3.64133 4.27607 3.58928 3.33674 3.72298 3.22696 2.6584 1.80869 3.92283 5.78468 1.3372 0.0105854 0.00325926 0.00279298 0.00062603 0.000112857 4.72176e-05 9.36781e-06 3.01569e-06
threshold=130.50000000000003 0.89701988300000013 73.000000000000014 43.500000000000007 0.81857452900000005 373497.39535000006 1.0000000180025095e-35 238.50000000000003 279573.11070000002 66.500000000000014 317.50000000000006 48.500000000000007 32.500000000000007 246051.82240000003 173.00000000000003 59.500000000000007 182.50000000000003 275.00000000000006 1.0000000180025095e-35 186.50000000000003 745.50000000000011 137.50000000000003 1.0000000180025095e-35 58.500000000000007 0.81162353400000009 0.80630048150000022 775.50000000000011 0.83023702700000002
decision_type=2 2 2 2 2 2 2 2 2 2 2 2 2 2 2 2 2 2 2 2 2 2 2 2 2 2 2 2
left_child=-1 2 3 4 -2 6 9 8 12 10 -3 14 -8 -14 -5 -15 17 18 -13 -18 22 -19 23 -21 -25 -24 -26 -28
right_child=1 5 -4 11 -6 -7 7 -9 -10 -11 -12 16 13 15 -16 -17 19 21 -20 20 -22 -23 25 24 26 -27 27 -29
leaf_value=0.16528003958161375 -0.089563836815186607 -0.047027365061737533 0.11102155962938427 -0.090816113455077188 0.067846489877521843 -0.07176034128455612 0.10254435352565988 -0.077968348326088038 -0.059536666053785187 0.13507302966171605 0.10010751468267109 -0.11378848568821426 -0.034555650406461878 0.0050208031131458667 0.022055509374729148 0.10659101889725722 -0.035431880474851955 -0.1146162273003158 0.068628725489176645 -0.11278690323632451 -0.11886281323644926 -0.11933727707646347 -0.11495054760168991 -0.11191480084750871 -0.11086496162135473 -0.11430420448682287 -0.11105264664670909 -0.11121960446607784
leaf_weight=6.2388972118496886 3.5455548539757711 3.5594701617956144 4.3827528953552237 4.1183101385831815 6.5229747593402863 3.9296118393540374 7.4077186957001748 4.2856373190879813 3.7450155541300765 6.5757029354572296 4.4378606677055359 2.9911082684993744 6.9082669764757183 4.7452111169695836 6.5797584801912308 5.6390873938798904 2.4679124876856831 3.8673170506954193 4.1507561579346639 3.7270018309354844 3.0881414785981169 2.3514498397707939 2.1624882891774169 1.8873169496655444 2.1215316206216812 2.3678577542304993 2.6865423992276192 1.8112482652068136
leaf_count=30 29 21 19 38 38 29 33 29 21 29 23 29 38 27 39 26 22 36 28 38 24 18 20 20 24 22 30 20
internal_value=0 -0.0112901 -0.044994 -0.0571075 0.0124157 0.0287267 0.0370743 0.0179858 0.0324424 0.079947 0.0346204 -0.0722006 0.0463882 0.0223322 -0.0213954 0.0601775 -0.0874334 -0.058333 -0.00777004 -0.104853 -0.113483 -0.116401 -0.112492 -0.111706 -0.111233 -0.114613 -0.111038 -0.11112
internal_weight=0 112.064 60.83 56.4473 10.0685 51.2336 47.304 32.7309 28.4453 14.573 7.99733 46.3787 24.7003 17.2926 10.6981 10.3843 35.6807 13.3606 7.14186 22.32 19.8521 6.21877 16.764 12.2336 8.50664 4.53035 6.61932 4.49779
internal_count=800 770 494 475 67 276 247 174 145 73 44 408 124 91 77 53 331 111 57 220 198 54 174 132 94 42 74 50
shrinkage=0.1


Tree=8
num_leaves=31
num_cat=0
split_feature=5 2 20 1 1 1 12 2 1 4 3 6 7 6 5 0 0 5 7 0 7 9 4 5 4 4 4 15 0 0
split_gain=15.333 7.97649 6.92816 6.04053 5.21838 4.8845 4.38082 8.67853 5.6498 4.24052 3.46978 3.4084 3.3141 3.1085 4.64737 2.60468 2.51654 2.3594 2.25849 2.02126 1.36685 1.12301 2.03016 0.0977931 0.0134671 0.00211347 0.00172155 0.00133561 0.000118242 3.50055e-05
threshold=0.99485273600000013 1688.5000000000002 1.0000000180025095e-35 47.500000000000007 64.000000000000014 58.500000000000007 1.0000000180025095e-35 158.50000000000003 57.500000000000007 282789.77960000007 32.500000000000007 138.50000000000003 159.00000000000003 139.50000000000003 0.85517325200000005 1042.0000000000002 1172.5000000000002 0.90727182400000006 89.000000000000014 674.00000000000011 94.500000000000014 1.0000000180025095e-35 272824.68985000002 0.90607770300000012 287434.82140000007 261195.80190000005 269378.97715000005 1.0000000180025095e-35 429.50000000000006 1087.0000000000002
decision_type=2 2 2 2 2 2 2 2 2 2 2 2 2 2 2 2 2 2 2 2 2 2 2 2 2 2 2 2 2 2
left_child=1 4 -3 -2 5 6 7 -1 10 12 11 16 18 14 -6 -14 -8 -9 -5 -15 -7 22 -12 27 25 -23 -27 -22 -29 -30
right_child=3 2 -4 9 13 20 8 17 -10 -11 21 -13 15 19 -16 -17 -18 -19 -20 -21 23 24 -24 -25 -26 26 -28 28 29 -31
leaf_value=0.13555040849222599 0.17197064565755327 -0.012407046460085662 0.15525432217156102 0.049386032749829584 -0.12235842935020352 -0.046677792877001932 -0.12045954560664594 -0.11358372756788204 0.082518657912551072 -0.050857264369663049 -0.11623925244195528 0.053288949744972662 -0.053596085113426131 0.10944391403465636 0.022827024943476344 0.055713151776469627 0.0016167270986467638 0.015091800848178636 0.12776503358199898 0.010821412959091375 -0.11324740626193469 -0.11729469653822702 -0.011508180513147273 -0.13503954718356029 -0.12309439140983269 -0.11126086469819613 -0.11538773616182565 -0.11092736713144352 -0.10974571604838504 -0.11021433473652809
leaf_weight=4.1508083865046483 3.9934300929307964 5.7871142700314504 4.2929055914282799 7.8366219550371223 3.3805188611149806 3.9138447046279898 3.6395283862948471 3.0925011336803436 2.855992078781127 4.3001318722963324 3.7861327230930337 3.92020383477211 3.8123976513743383 3.7935672253370267 6.3390562236309052 5.0908709913492203 3.1503325924277306 2.6427001729607582 6.9251087605953217 4.5955810323357582 1.7455803230404807 2.231680266559124 3.6210783571004868 1.9865896478295315 2.8636372536420822 1.893370099365711 2.1685964018106461 1.7591073885560051 2.9125551134347916 3.5211469456553459
leaf_count=27 17 37 24 36 27 29 29 31 21 27 34 27 23 20 32 25 24 15 31 27 18 19 30 11 20 21 20 20 36 42
internal_value=0 -0.024454 0.058997 0.0569226 -0.035827 -0.0509511 -0.0323465 0.0254166 -0.0512989 0.0404937 -0.0653113 -0.020954 0.057093 0.0108224 -0.0276692 0.00890672 -0.0638191 -0.0542919 0.0861556 0.0554184 -0.0979552 -0.0939913 -0.0650406 -0.114785 -0.117409 -0.114822 -0.113464 -0.110736 -0.110201 -0.110002
internal_weight=0 84.0441 10.08 31.9586 73.9641 55.8554 40.0166 9.88601 30.1306 27.9651 27.2746 10.7101 23.665 18.1087 9.71958 8.90327 6.78986 5.7352 14.7617 8.38915 15.8388 16.5645 7.40721 11.925 9.15728 6.29365 4.06197 9.93839 8.19281 6.4337
internal_count=800 641 61 159 580 474 318 73 245 142 224 80 115 106 59 48 53 46 67 47 156 144 64 127 80 60 41 116 98 78
shrinkage=0.1


Tree=9
num_leaves=30
num_cat=0
split_feature=6 5 1 7 2 2 4 7 1 7 5 5 13 5 5 7 0 0 4 1 0 2 6 1 3 5 0 0 5
split_gain=13.4371 10.6795 8.68615 5.16489 4.87488 4.51666 3.97645 4.67441 3.38988 2.75743 2.60406 4.42112 3.43694 3.52852 7.39347 1.76439 2.81529 1.74332 1.02942 0.455015 0.37709 0.00973422 0.00265137 0.00238202 0.000689134 0.000676504 8.13131e-05 1.74103e-05 2.50872e-06
threshold=130.50000000000003 0.89701988300000013 73.000000000000014 43.500000000000007 193.00000000000003 82.500000000000014 350829.07080000004 238.50000000000003 48.500000000000007 173.00000000000003 0.92509231850000007 0.97424059750000003 1.0000000180025095e-35 1.0147257255000002 1.4993012460000004 187.50000000000003 1559.0000000000002 236.00000000000003 268172.51735000004 64.000000000000014 1306.5000000000002 1379.5000000000002 137.50000000000003 58.500000000000007 39.000000000000007 0.80175232500000015 408.00000000000006 1087.0000000000002 0.82486464250000013
decision_type=2 2 2 2 2 2 2 2 2 2 2 2 2 2 2 2 2 2 2 2 2 2 2 2 2 2 2 2 2
left_child=-1 2 3 4 -2 -3 7 10 9 -5 -7 18 13 -13 -15 16 17 -10 -12 21 22 23 25 24 -17 -19 -25 -28 -29
right_child=1 5 -4 8 -6 6 -8 -9 15 -11 11 12 -14 14 -16 19 -18 20 -20 -21 -22 -23 -24 26 -26 -27 27 28 -30
leaf_value=0.13996047401278136 -0.071883934809424052 0.12022057915015741 0.093207271268903144 -0.086373037642689665 0.07092690796989598 0.10613356948706548 -0.078395653376885713 -0.077833717276971845 -0.012110262001557045 0.021904599616774156 -0.081778256429260343 -0.063579482600072013 0.10249357641953745 0.11396423716211337 -0.023438663028088003 -0.11278566875445591 0.019780420696826572 -0.11084726725344028 -0.0063798936188166205 -0.056687237168601648 -0.06439020723617507 -0.11832598017264802 -0.11614197228160267 -0.10976385906686728 -0.11059851645590089 -0.11341298317986435 -0.10876164462003193 -0.10920511805664559 -0.10902802547625985
leaf_weight=6.29299622029066 4.015667684376238 4.3488603234291068 4.4865669459104529 3.6680579707026464 5.9051581099629402 4.406946934759616 4.2631300911307326 4.1562198624014846 2.738262057304385 6.5549762025475502 3.6976183801889411 3.9009785279631677 7.1598910093307486 7.550234228372573 8.1361434161663038 3.3272114321589488 3.5254475846886626 1.9106360822916011 3.5486416667699814 1.7020774707198132 1.9666775166988371 1.7246388122439373 2.9751098230481148 1.6052375584840772 2.5406533181667328 2.2237557992339134 2.5171683356165886 1.538830950856209 1.6659300178289411
leaf_count=30 31 22 19 38 36 24 32 29 22 39 21 22 33 35 39 34 28 22 19 16 19 14 27 20 30 23 34 20 22
internal_value=0 -0.0103705 -0.0403048 -0.0518009 0.0131211 0.0227365 0.0136817 0.0229055 -0.067069 -0.0169458 0.0338089 0.0244327 0.0432036 0.0215309 0.0426967 -0.0831011 -0.0586437 -0.0820456 -0.0448541 -0.105672 -0.103145 -0.111261 -0.113865 -0.110337 -0.111839 -0.112227 -0.109135 -0.108958 -0.109113
internal_weight=0 107.761 56.5921 52.1055 9.92083 51.1687 46.8198 42.5567 42.1847 10.223 38.4005 33.9935 26.7472 19.5874 15.6864 31.9616 15.3399 11.8144 7.24626 16.6217 9.07618 14.9197 7.1095 13.195 5.86786 4.13439 7.32717 5.72193 3.20476
internal_count=800 770 494 475 67 276 254 222 408 77 193 169 129 96 74 331 141 113 40 190 91 174 72 160 64 45 96 76 42
shrinkage=0.1


Tree=10
num_leaves=31
num_cat=0
split_feature=6 5 1 7 5 2 7 4 1 4 7 1 2 4 2 0 3 7 0 0 1 0 2 6 1 5 3 0 0 5
split_gain=10.8587 8.96201 7.21783 4.55292 4.3906 4.08148 3.41634 4.146 3.14371 3.02127 2.39305 2.34921 2.19351 4.94519 3.7546 5.3178 3.75953 1.76636 2.51458 1.65889 0.469347 0.385052 0.00698314 0.00190521 0.00171724 0.000494038 0.000493547 5.877e-05 1.25808e-05 1.80717e-06
threshold=130.50000000000003 0.89701988300000013 73.000000000000014 43.500000000000007 0.81857452900000005 72.000000000000014 214.50000000000003 282332.44830000005 48.500000000000007 272824.68985000002 173.00000000000003 60.500000000000007 193.00000000000003 273042.58560000005 498.00000000000006 1158.0000000000002 36.500000000000007 187.50000000000003 1559.0000000000002 236.00000000000003 64.000000000000014 1306.5000000000002 1379.5000000000002 137.50000000000003 58.500000000000007 0.80175232500000015 39.000000000000007 408.00000000000006 1087.0000000000002 0.82486464250000013
decision_type=2 2 2 2 2 2 2 2 2 2 2 2 2 2 2 2 2 2 2 2 2 2 2 2 2 2 2 2 2 2
left_child=-1 2 3 4 -2 -3 7 12 10 -8 -5 -9 -7 14 -14 16 -16 18 19 -10 22 23 24 25 26 -21 -19 -26 -29 -30
right_child=1 5 -4 8 -6 6 9 11 17 -11 -12 -13 13 -15 15 -17 -18 20 -20 21 -22 -23 -24 -25 27 -27 -28 28 29 -31
leaf_value=0.12507474377228142 -0.084856070983010984 0.1185329358527899 0.082692419380338611 -0.08339890616561707 0.057343689781504385 -0.011874672222721577 -0.10076957642625782 -0.096782463251263107 -0.010991160136720695 0.030111847061080554 0.01947016938032213 0.017729177368195275 0.097783102426227203 0.12505905616961507 0.11087114542179939 -0.081509417714964227 -0.022268878189498596 -0.11143017812719035 0.017562763611489236 -0.10971278431760567 -0.053334507776584383 -0.060965271443707808 -0.11631916570305645 -0.11441339079366862 -0.10875069068172155 -0.11200544043224631 -0.1094944016672246 -0.10785877485857301 -0.10825334984169921 -0.1080959874959995
leaf_weight=6.3350562751293173 3.2002809792757017 3.9122455120086661 4.5477478653192511 3.431330665946005 6.753359280526638 6.6989408731460562 4.5472414046525946 3.9347959756851187 2.7165574133396175 2.8813074827194214 6.6327372193336487 3.2890281900763512 5.2606826275587144 6.8649769872426978 4.4243733510375005 5.1782461553812018 4.0736324265599251 3.0453278198838216 3.5709841623902312 1.7457754611968979 1.6319114193320263 1.8743464425206182 1.5860537588596333 2.7305704206228256 1.465317830443382 2.0361257195472717 2.320871613919735 2.2957179173827171 1.4040070474147799 1.5197277143597601
leaf_count=30 29 19 19 38 38 35 33 30 22 17 39 17 27 30 20 27 21 34 28 22 16 19 14 27 20 23 30 34 20 22
internal_value=0 -0.00971841 -0.0379188 -0.0488975 0.0116238 0.0203834 0.0122401 0.0238799 -0.0639549 -0.0500047 -0.0156029 -0.044645 0.0391107 0.052348 0.0259889 -0.00162733 0.0470487 -0.0802062 -0.0554312 -0.0789069 -0.104017 -0.100905 -0.110082 -0.1124 -0.109261 -0.110947 -0.110593 -0.108191 -0.108034 -0.108172
internal_weight=0 105.574 54.5088 49.961 9.95364 51.0655 47.1532 39.7247 40.0074 7.42855 10.0641 7.22382 32.5009 25.8019 18.9369 13.6763 8.49801 29.9433 14.6744 11.1034 15.2689 8.38682 13.637 6.51247 12.051 3.7819 5.3662 6.68477 5.21945 2.92373
internal_count=800 770 494 475 67 276 257 207 408 50 77 47 160 125 95 68 41 331 141 113 190 91 174 72 160 45 64 96 76 42
shrinkage=0.1


Tree=11
num_leaves=31
num_cat=0
split_feature=6 5 7 5 6 1 17 0 8 1 12 1 4 4 6 3 4 5 7 2 5 4 1 0 1 0 3 0 5 0
split_gain=8.82919 7.527 6.25014 8.07186 6.14262 4.76368 7.7126 6.12981 3.16843 3.36303 3.03519 2.82479 2.7141 2.86125 2.65839 2.49793 2.36188 1.63928 2.43524 0.461169 0.432574 0.325195 0.052145 0.00377939 0.00119653 0.00038236 0.000367365 4.15489e-05 1.01252e-05 2.97451e-06
threshold=130.50000000000003 0.89701988300000013 205.50000000000003 0.76805797500000017 134.50000000000003 73.000000000000014 1.0000000180025095e-35 1332.0000000000002 1.0000000180025095e-35 66.500000000000014 1.0000000180025095e-35 48.500000000000007 279573.11070000002 269130.18945000006 139.50000000000003 36.500000000000007 189415.28400000001 0.99485273600000013 159.00000000000003 1379.5000000000002 0.75721010850000003 277431.59295000002 66.500000000000014 1463.0000000000002 58.500000000000007 700.00000000000011 39.000000000000007 408.00000000000006 0.82306149250000005 1087.0000000000002
decision_type=2 2 2 2 2 2 2 2 2 2 2 2 2 2 2 2 2 2 2 2 2 2 2 2 2 2 2 2 2 2
left_child=-1 2 3 20 -5 6 7 15 14 12 -11 -4 13 16 17 -6 -10 -3 -19 22 23 -8 24 25 26 -2 -13 -26 -29 -30
right_child=1 8 11 4 5 -7 21 -9 9 10 -12 19 -14 -15 -16 -17 -18 18 -20 -21 -22 -23 -24 -25 27 -27 -28 28 29 -31
leaf_value=0.11245056448288977 -0.11214609945489376 -0.086557963635630938 -0.020311251549565316 -0.099762781615038945 0.050373263887955225 0.14589666649045305 -0.1171005608775551 0.1365988385154191 0.05847037186087084 0.13909032259938672 0.03520303606210165 -0.11025327950365103 -0.058785848681379607 0.082162649301158949 0.037970593177117526 -0.061421145197855458 -0.042790593019371652 0.044983696726275092 -0.068195720564117102 -0.054354090442904068 -0.05722618312110949 -0.062056642154153831 -0.12669357726205974 -0.11651858456336968 -0.10785045135345959 -0.11012785053484107 -0.10843627864353125 -0.10744077430488991 -0.10701877211794748 -0.10721117214583126
leaf_weight=6.3410243242979041 1.8783880285918706 4.8457023948431033 5.5924839973449734 3.7688724249601391 4.4336161613464409 3.4721586406230918 2.7313660867512217 5.536063350737094 3.791503146290788 5.0372496545314789 6.3669847697019559 2.7047977112233621 4.1587428450584403 6.6556173563003531 6.4568123146891585 3.6392172090709209 5.8689190894365311 3.7668603658676147 3.838240422308445 1.6278137490153302 1.8329164721071718 1.7680939137935636 1.8028326481580723 2.0007058903574944 1.3363752327859399 1.8763752728700636 1.8904266916215418 1.4126704260706899 1.5320783220231535 1.6897893622517584
leaf_count=30 21 36 34 29 31 14 27 36 20 22 28 33 27 32 34 36 35 19 23 15 22 17 15 19 20 24 27 22 25 27
internal_value=0 -0.00911637 -0.0356573 -0.00905519 0.0180299 0.0386015 0.0180284 0.0555541 0.018334 0.03757 0.08109 -0.0803865 0.0133298 0.0317111 -0.0140985 -2.34331e-05 -0.00304789 -0.0411008 -0.0121372 -0.10439 -0.0995344 -0.0954707 -0.110975 -0.113008 -0.108293 -0.111138 -0.109506 -0.107359 -0.107218 -0.10712
internal_weight=0 103.314 52.527 32.9378 25.3494 21.5805 18.1084 13.6089 50.7866 31.879 11.4042 19.5893 20.4748 16.316 18.9076 8.07283 9.66042 12.4508 7.6051 13.9968 7.58839 4.49946 12.369 5.75547 10.5661 3.75476 4.59522 5.97091 4.63454 3.22187
internal_count=800 770 494 276 190 161 147 103 276 164 50 218 114 87 112 67 55 78 42 184 86 44 169 64 154 45 60 94 74 52
shrinkage=0.1


Tree=12
num_leaves=31
num_cat=0
split_feature=5 2 20 1 5 12 7 4 1 0 4 4 6 6 1 1 7 1 1 4 6 2 7 2 6 5 1 7 6 2
split_gain=7.68121 5.88973 4.88034 4.11068 3.68941 3.19364 4.90602 3.69177 3.61247 2.93106 3.76653 2.76292 2.74566 2.28633 2.03803 2.83079 1.5948 1.45007 1.41322 1.19229 1.10368 1.07694 0.907743 0.551515 0.536362 0.0398717 0.0346327 0.00559491 0.00384412 0.00227492
threshold=0.99485273600000013 1688.5000000000002 1.0000000180025095e-35 48.500000000000007 0.81542027100000014 1.0000000180025095e-35 30.000000000000004 263586.4298000001 57.500000000000007 1006.5000000000001 272223.38620000001 273114.32370000001 135.50000000000003 135.50000000000003 48.500000000000007 45.000000000000007 119.50000000000001 50.500000000000007 67.500000000000014 348283.94975000009 139.50000000000003 82.500000000000014 197.50000000000003 265.00000000000006 138.50000000000003 0.88556583850000015 66.500000000000014 185.50000000000003 134.50000000000003 193.00000000000003
decision_type=2 2 2 2 2 2 2 2 2 2 2 2 2 2 2 2 2 2 2 2 2 2 2 2 2 2 2 2 2 2
left_child=1 4 -3 -2 14 11 -7 8 -8 10 13 -6 -11 -5 15 -1 -10 19 25 -9 21 -16 -13 -22 -14 27 28 -19 -23 -30
right_child=3 2 -4 9 5 6 7 17 16 12 -12 22 24 -15 20 -17 -18 18 -20 -21 23 26 -24 -25 -26 -27 -28 -29 29 -31
leaf_value=-0.084364582616999376 0.12752881964009516 -0.0097944854840750079 0.13244498726905055 0.078595620018006254 -0.023389627961024867 0.076479255953360581 -0.08742460161078118 -0.082204359230044807 0.093901440355452073 0.004215385939429459 -0.087807816094515545 0.03234564717915242 0.066077814912634064 -0.027562911156370797 -0.040215750013629786 0.052521246383210429 -0.0016443707813683294 -0.11464194519110614 -0.022073295913636493 0.010418219791244486 -0.073758340008295384 -0.11555051821858001 0.10172257337545099 8.0207591345301285e-05 0.1165972705695628 -0.12291141114659648 -0.12688055582003102 -0.10696409681662361 -0.11219610763315167 -0.10824759077152242
leaf_weight=2.9519848786294487 4.5361230298876789 5.4505271911621076 4.327247217297554 4.3054833486676234 6.0566963665187341 3.7162544354796436 3.1661691367626208 2.6217850446701076 3.1620375066995621 6.1448326706886283 4.2232329472899428 3.7435684241354465 4.0733342170715314 3.8365319967269897 2.5188475809991351 3.0943364277482033 3.9036314748227596 1.1529505215585212 2.1300955079495898 2.9575564935803413 2.0647015683352938 1.535141259431837 3.8007112368941307 1.9831717014312742 4.3414240628480911 2.627965897321701 1.704511299729347 5.3681272119283676 2.5523237437009811 3.4067610576748848
leaf_count=31 22 37 24 21 39 20 29 23 17 31 24 24 20 21 26 20 27 12 12 21 23 17 19 17 20 20 14 90 29 50
internal_value=0 -0.0192922 0.0531549 0.0394634 -0.0299896 -0.013447 -0.0312658 -0.0460463 0.00133894 0.0246268 -0.0111754 0.026913 0.055033 0.0285735 -0.0636694 -0.0143103 0.0411144 -0.0748056 -0.0954327 -0.033106 -0.0825994 -0.0981506 0.0672969 -0.0375827 0.0921423 -0.112512 -0.114015 -0.108322 -0.111088 -0.109939
internal_weight=0 75.9971 9.77777 31.461 66.2193 44.4075 30.8066 27.0903 10.2318 26.9248 12.3652 13.601 14.5596 8.14202 21.8118 6.04632 7.06567 16.8585 11.2791 5.57934 15.7655 11.7176 7.54428 4.04787 8.41476 9.14904 9.19874 6.52108 7.49423 5.95908
internal_count=800 641 61 159 580 353 271 251 73 137 66 82 71 42 227 51 44 178 134 44 176 136 43 40 40 122 110 102 96 79
shrinkage=0.1


Tree=13
num_leaves=30
num_cat=0
split_feature=6 5 7 12 4 1 7 4 6 2 15 7 4 7 5 7 15 6 2 2 4 2 0 5 4 2 2 4 4
split_gain=6.94881 5.73537 4.59465 5.37128 5.25389 8.69198 5.50689 4.96361 4.25713 5.25361 4.16789 2.92736 2.67632 2.55142 3.98089 1.94194 2.09008 1.07019 0.848512 0.809417 1.10123 0.315004 0.216521 0.103157 0.00779795 0.00466451 0.00393721 2.18454e-05 3.70278e-07
threshold=130.50000000000003 0.81857452900000005 207.50000000000003 1.0000000180025095e-35 191230.75090000001 66.500000000000014 11.500000000000002 360432.43300000002 139.50000000000003 265.00000000000006 1.0000000180025095e-35 34.000000000000007 275674.41570000007 74.500000000000014 1.3947674940000001 211.00000000000003 1.0000000180025095e-35 137.50000000000003 82.500000000000014 265.00000000000006 262616.47645000007 96.500000000000014 1021.0000000000001 0.90835147100000013 273877.83450000006 728.50000000000011 123.50000000000001 264943.85260000004 265610.64010000008
decision_type=2 2 2 2 2 2 2 2 2 2 2 2 2 2 2 2 2 2 2 2 2 2 2 2 2 2 2 2 2
left_child=-1 8 4 -4 -3 6 -6 13 19 18 -7 -12 15 -8 17 -5 -17 22 -10 20 -2 -22 -15 26 25 -21 27 -18 -29
right_child=1 2 3 12 5 10 7 -9 9 -11 11 -13 -14 14 -16 16 23 -19 -20 24 21 -23 -24 -25 -26 -27 -28 28 -30
leaf_value=0.10094974173033539 -0.018194709132554311 0.1027295741559433 0.049747299288665593 0.0063711723913436246 0.1113385437166419 -0.015288240030576919 -0.11809063531108972 0.056629019375169502 -0.02798267689188157 0.075938224158723533 0.033548435311497447 0.13319143105413278 0.0052432994808617184 -0.081206610711858251 0.031047404649531176 -0.013429454652959145 -0.10629764203686312 -0.029728994371690572 -0.11498977598877963 -0.10751377408650234 -0.11480663187848511 -0.061211568719281233 -0.11999837882148195 -0.12916347138661344 -0.11754777838864479 -0.11470655698583786 -0.11174356401194888 -0.10580175110762301 -0.10572231676161073
leaf_weight=6.1665974259376517 3.0574735328555125 6.9856924042105666 6.3631162457168129 2.2356504052877453 2.6147573962807682 4.7200493849813947 5.833258889615542 4.243752632290124 2.0496955625712854 4.6339941956102848 4.7782409638166428 7.6989216357469559 5.1578786075115195 2.4342663399875146 5.0970077663660041 2.4625486992299601 1.1456209830939701 2.8624833077192307 2.4734074957668781 2.2861006110906605 2.9989122897386551 1.7288594990968702 3.5187593288719654 4.0067552626132965 2.5038870982825756 1.4887181892991064 1.7511129714548586 1.2932055704295637 1.0743433497846124
leaf_count=30 36 33 36 15 14 25 35 30 22 32 22 34 39 24 24 22 21 21 27 37 35 19 30 27 27 15 22 25 21
internal_value=0 -0.00844335 0.00480359 -0.0298396 0.0221911 0.00934642 -0.0264688 -0.0414892 -0.0519574 0.00110567 0.064753 0.0950323 -0.0563162 -0.0625768 -0.0393009 -0.0790459 -0.0953208 -0.0799753 -0.0755615 -0.086507 -0.0649628 -0.0952079 -0.104136 -0.117073 -0.113221 -0.11035 -0.10787 -0.105939 -0.105766
internal_weight=0 99.4985 76.2774 25.4902 50.7872 43.8015 26.6043 23.9895 23.221 9.1571 17.1972 12.4772 19.1271 19.7458 13.9125 13.9692 11.7336 8.81551 4.5231 14.064 7.78525 4.72777 5.95303 9.27104 6.27871 3.77482 5.26428 3.51317 2.36755
internal_count=800 770 520 228 292 259 178 164 250 81 81 56 192 134 99 153 138 75 49 169 90 54 54 116 79 52 89 67 46
shrinkage=0.1


Tree=14
num_leaves=31
num_cat=0
split_feature=6 5 7 12 7 1 4 1 16 6 7 1 4 5 5 0 2 1 2 3 7 0 7 0 5 5 4 2 4 6
split_gain=5.70001 5.27289 5.47191 6.01112 5.49883 5.14871 4.87592 5.10887 4.34247 4.1513 3.5268 3.51273 2.11833 2.49535 2.65037 1.77152 1.72433 1.56078 2.74614 1.43965 1.18648 0.880469 0.52874 0.243608 0.0726531 0.0258813 0.0083692 0.00476896 0.000823388 0.000684254
threshold=130.50000000000003 0.75939409200000019 207.50000000000003 1.0000000180025095e-35 197.50000000000003 57.500000000000007 191230.75090000001 66.500000000000014 1.0000000180025095e-35 138.50000000000003 11.500000000000002 58.500000000000007 360432.43300000002 0.80175232500000015 0.9850391045000001 1743.5000000000002 265.00000000000006 58.500000000000007 130.00000000000003 32.500000000000007 214.50000000000003 1394.0000000000002 245.50000000000003 831.50000000000011 0.89129372100000004 0.98958259950000016 280272.08945000003 102.50000000000001 270673.87605000002 137.50000000000003
decision_type=2 2 2 2 2 2 2 2 2 2 2 2 2 2 2 2 2 2 2 2 2 2 2 2 2 2 2 2 2 2
left_child=-1 19 4 5 6 -4 -3 10 -9 -10 -8 12 13 16 23 17 -12 18 -5 -2 -20 25 24 -15 27 -13 29 -19 -22 -21
right_child=1 2 3 15 -6 -7 7 8 9 -11 11 21 -14 14 -16 -17 -18 22 20 26 28 -23 -24 -25 -26 -27 -28 -29 -30 -31
leaf_value=0.091526696068859936 -0.0097949303919026426 0.083493884869512133 0.11715701090491973 0.034219362547801245 0.12783401901028202 -0.054357591790945715 0.07515052249380913 0.12875935805298144 -0.041425314942108896 0.070109557315955959 -0.022379146028405832 -0.1143599421161412 0.042678705311942317 -0.076390507345265424 -0.011130583095454628 0.007500360997255583 0.11407812089353223 -0.10525574455127118 -0.031448876310568287 -0.10733794091403047 -0.11471725167479399 -0.045353731964434402 -0.051437903045052746 -0.11734684356388472 -0.12721612527852563 -0.12874085651381811 -0.11786035968002416 -0.112959398366031 -0.1175822474178328 -0.10989630822074825
leaf_weight=6.1235487461090079 1.8409741520881642 7.4101808071136466 4.0416571125388172 2.9314245358109527 4.0981390960514537 3.0870975740253925 3.024201542139056 4.176080323755742 6.9739054553210735 6.3990181386470795 2.1147045940160853 3.068075329065322 4.56740628927946 2.3125989735126478 6.6030509024858475 3.0735942497849456 1.6474605575203893 3.2167294695973379 2.8090899065136909 1.6346883140504358 2.2367386110126972 2.2537872716784477 1.5510674081742761 3.9038188569247723 3.1315939053893089 2.1135528683662415 1.3830978237092493 1.07117448374629 1.8188392780721185 2.9001151397824287
leaf_count=30 20 36 25 21 21 19 17 21 37 31 26 33 33 23 33 30 15 68 24 27 23 16 16 38 20 13 14 14 17 39
internal_value=0 -0.0079399 -0.00109419 -0.0368492 0.0159794 0.0428828 0.00787594 -0.00352294 0.0397427 0.0119447 -0.0275439 -0.0384088 -0.0176231 -0.0342333 -0.0552486 -0.0628741 0.0373758 -0.0743999 -0.046803 -0.0870256 -0.0814021 -0.097531 -0.104536 -0.10211 -0.115637 -0.120226 -0.111051 -0.10718 -0.116002 -0.108974
internal_weight=0 97.3939 89.635 28.969 60.666 7.12875 56.5678 49.1577 17.549 13.3729 31.6087 28.5845 21.149 16.5816 12.8195 21.8403 3.76217 18.7667 9.79609 7.75888 6.86467 7.43542 8.97057 6.21642 7.4195 5.18163 5.9179 4.2879 4.05558 4.5348
internal_count=800 770 670 277 393 44 372 336 89 68 247 230 168 135 94 233 41 203 85 100 64 62 118 61 102 46 80 82 40 66
shrinkage=0.1


Tree=15
num_leaves=31
num_cat=0
split_feature=5 6 1 2 1 4 4 1 4 1 5 7 7 5 4 7 1 5 5 8 7 0 5 6 3 10 2 7 6 7
split_gain=5.33297 5.36609 5.08478 5.76577 3.94391 3.27797 3.84827 3.55477 6.62322 4.90065 3.15962 3.42495 2.64316 2.45277 2.62676 2.9123 2.13649 1.86614 1.69003 0.656455 1.18686 0.591512 0.0722588 0.0135729 0.00806647 0.00685103 0.00539735 0.00485696 0.000946964 0.000171231
threshold=0.81857452900000005 130.50000000000003 48.500000000000007 251.50000000000003 76.500000000000014 455961.24060000008 370319.91430000006 64.000000000000014 191230.75090000001 58.500000000000007 0.90224688900000005 197.50000000000003 32.500000000000007 0.85809725400000014 273042.58560000005 132.00000000000003 54.000000000000007 0.84438938150000009 0.76331305300000007 1.0000000180025095e-35 185.50000000000003 1727.5000000000002 0.90607770300000012 134.50000000000003 32.500000000000007 1.0000000180025095e-35 728.50000000000011 140.50000000000003 138.50000000000003 116.50000000000001
decision_type=2 2 2 2 2 2 2 2 2 2 2 2 2 2 2 2 2 2 2 2 2 2 2 2 2 2 2 2 2 2
left_child=2 -2 3 18 19 6 7 8 -3 10 17 16 -11 -9 15 -15 -12 -10 -1 20 -4 22 27 -21 -19 -22 28 -14 29 -25
right_child=1 5 4 -5 -6 -7 -8 13 9 12 11 -13 21 14 -16 -17 -18 24 -20 23 25 -23 -24 26 -26 -27 -28 -29 -30 -31
leaf_value=0.014617049171909377 0.12395095178690263 0.072861304185396658 -0.027037494408579152 0.13446629385073933 0.050424107973692414 -0.090751841817276163 0.093344008265609041 0.11142736550305446 -0.001577555550297883 0.025477144322954972 -0.067748984109615384 0.074069362793670671 -0.11246523229346661 0.036665771314448571 0.069451160463449721 -0.054398141073769224 0.027267170700752331 -0.11972471934004288 -0.11547556005155098 -0.11991277640190912 -0.11683074820760571 -0.046154383776226743 -0.12571924946960017 -0.10810336880303105 -0.11012398986720728 -0.10765272514040754 -0.11514384182747571 -0.10523085414821186 -0.1104138734736942 -0.10668687620787105
leaf_weight=2.0132221952080758 3.9637305438518515 7.0171786546707144 3.3243598192930239 2.9475413300096989 2.2294841557741156 3.4432985484600058 5.042938567698001 3.4034186564385918 2.488563563674691 1.8030073046684254 4.7798101454973203 6.3843734152615061 1.3031581118702869 7.6854751557111758 7.1399901062250128 6.4670495763421059 4.6871073842048645 1.7197023630142214 1.981410104781389 1.6537804268300531 1.4827384948730469 1.4132892675697792 4.0331654027104378 1.4607305936515333 1.7819450534880159 1.8014411628246307 1.4214834645390508 3.223885752260685 1.3240449279546735 2.0525691099464893
leaf_count=19 20 38 34 18 10 29 29 22 23 9 32 38 15 35 33 38 23 16 21 19 18 17 27 22 25 30 15 71 17 37
internal_value=0 0.0106016 -0.0435881 0.0283727 -0.0734117 0.00451513 0.0091764 0.00267947 -0.0155053 -0.0339503 -0.00591481 0.0174663 -0.0859468 0.032601 0.0200013 -0.00494623 -0.0207061 -0.0677859 -0.0499112 -0.0924246 -0.0691593 -0.10609 -0.115985 -0.111856 -0.114839 -0.111796 -0.109727 -0.107313 -0.108135 -0.107276
internal_weight=0 77.7811 23.6928 6.94217 16.7506 73.8174 70.3741 65.3311 40.6352 33.618 21.8415 15.8513 11.7765 24.6959 21.2925 14.1525 9.46692 5.99021 3.99463 14.5211 6.60854 9.9735 8.56021 7.91261 3.50165 3.28418 6.25883 4.52704 4.83734 3.5133
internal_count=800 540 260 58 202 520 491 462 334 296 157 93 139 128 106 73 55 64 40 192 82 130 113 110 41 48 91 86 76 59
shrinkage=0.1


Tree=16
num_leaves=31
num_cat=0
split_feature=4 6 5 7 5 4 7 4 4 6 0 5 5 3 0 3 2 4 7 4 1 3 4 6 1 1 2 2 1 7
split_gain=4.6653 4.85181 4.21772 4.67126 5.35893 7.55795 3.91031 3.90952 4.14334 5.39124 4.99921 3.78952 3.54243 3.19631 2.16704 2.07572 3.65482 1.82738 1.73533 1.38525 1.2584 2.45257 0.625587 0.226673 0.0535179 0.0489803 0.0135432 0.00100945 0.000679097 0.000312419
threshold=455961.24060000008 130.50000000000003 0.75939409200000019 207.50000000000003 0.89701988300000013 269130.18945000006 197.50000000000003 370319.91430000006 258483.61990000002 137.50000000000003 1707.5000000000002 0.97002889500000011 1.1711814215000003 42.500000000000007 1112.0000000000002 36.500000000000007 231.50000000000003 200835.32125000004 213.50000000000003 268457.4346000001 67.500000000000014 36.500000000000007 263898.80740000011 135.50000000000003 58.500000000000007 48.500000000000007 779.50000000000011 579.50000000000011 54.000000000000007 120.50000000000001
decision_type=2 2 2 2 2 2 2 2 2 2 2 2 2 2 2 2 2 2 2 2 2 2 2 2 2 2 2 2 2 2
left_child=1 -1 18 6 13 14 7 8 15 11 20 19 -13 22 -6 16 -4 -17 27 -10 21 -11 -5 -2 -21 -24 28 29 -27 -3
right_child=23 2 3 4 5 -7 -8 -9 9 10 -12 12 -14 -15 -16 17 -18 -19 -20 24 -22 -23 25 -25 -26 26 -28 -29 -30 -31
leaf_value=0.094369385044180881 -0.12117405629328833 -0.10822682221403963 0.15652618058745896 -0.041616672902783675 -0.10022976798333737 0.094928736724264329 0.11423781660257278 0.1161765470692367 -0.047155668341229959 0.026239907266534093 0.15477377554394517 0.072195729993092608 -0.063507011998506432 0.042036285121023899 0.006196194348156478 0.048355734905441233 0.029015786194504168 -0.042540893121038682 0.015158189967367855 -0.11434546813641389 0.04980272185173764 -0.092012704873038961 -0.12370788113780347 -0.077360574528252665 -0.13324088249783211 -0.1076137181605587 -0.11714218405153881 -0.11028458776622763 -0.10465022131152664 -0.10627524075011191
leaf_weight=5.451642006635665 2.3374298401176921 1.7357410937547677 3.4477680251002329 1.4250540882349039 4.4500788524746877 5.9798182025551796 4.0275124870240679 3.3743669539690009 3.6834515370428615 4.1517875194549543 2.6006527766585341 3.5222967602312556 4.2383351847529411 1.7870757021009911 3.3562066853046417 4.8473601043224317 6.4591412283480167 4.0677427388727665 1.4708009138703344 2.6892360001802444 3.4437014013528824 3.0366993397474289 2.8995764851570112 2.3863545767962933 3.3865839950740337 0.98574546352028836 1.221422668546438 1.7364149093627927 3.5871498808264732 1.5552855394780634
leaf_count=28 21 26 18 19 34 31 21 18 37 33 15 20 21 20 21 23 37 27 18 32 16 30 20 21 25 16 12 24 87 29
internal_value=0 0.00278911 -0.00281007 0.00328759 -0.0321117 0.0103308 0.01925 0.0120249 0.00493564 -0.0176814 0.0304958 -0.0540698 -0.00191598 -0.0812564 -0.0544734 0.041889 0.0733915 0.00688183 -0.0803828 -0.0955429 9.71862e-05 -0.0237146 -0.103031 -0.0990404 -0.124878 -0.113097 -0.107788 -0.108334 -0.105289 -0.107305
internal_weight=0 94.6186 89.167 82.6688 25.6921 13.7861 56.9766 52.9491 49.5748 30.7527 13.2328 17.5199 7.76063 11.906 7.80629 18.822 9.90691 8.9151 6.49824 9.75927 10.6322 7.18849 10.1189 4.72378 6.07582 8.69389 5.79432 5.02744 4.5729 3.29103
internal_count=800 758 730 633 260 86 373 352 334 229 94 135 41 174 55 105 55 50 97 94 79 63 154 42 57 135 115 79 103 55
shrinkage=0.1


Tree=17
num_leaves=31
num_cat=0
split_feature=5 2 20 1 5 2 4 4 0 15 1 0 4 0 4 3 8 7 0 6 4 12 4 1 0 2 5 1 5 12
split_gain=4.09479 3.98466 5.03057 3.83655 2.43241 3.10783 7.86083 5.93062 2.90068 2.44033 2.35003 2.22954 3.05867 2.0433 2.84271 1.92667 2.92137 1.90015 1.89789 1.7832 3.50913 1.17471 0.931452 0.902512 0.537061 0.393292 0.212094 0.130912 0.0381266 0.0203673
threshold=1.0078483035000003 728.50000000000011 1.0000000180025095e-35 48.500000000000007 0.81857452900000005 265.00000000000006 360432.43300000002 263586.4298000001 1252.0000000000002 1.0000000180025095e-35 49.500000000000007 1006.5000000000001 272223.38620000001 1217.5000000000002 268172.51735000004 32.500000000000007 1.0000000180025095e-35 89.000000000000014 623.50000000000011 138.50000000000003 272376.51080000011 1.0000000180025095e-35 281560.22155000007 66.500000000000014 1322.5000000000002 67.000000000000014 0.90835147100000013 66.500000000000014 0.80261486650000013 1.0000000180025095e-35
decision_type=2 2 2 2 2 2 2 2 2 2 2 2 2 2 2 2 2 2 2 2 2 2 2 2 2 2 2 2 2 2
left_child=1 4 17 -2 15 6 7 8 -6 -9 26 12 -5 14 -12 16 -1 -3 -4 20 -13 24 27 -19 -17 -23 -7 29 -27 -11
right_child=3 2 18 11 5 10 -8 9 -10 22 13 19 -14 -15 -16 21 -18 23 -20 -21 -22 25 -24 -25 -26 28 -28 -29 -30 -31
leaf_value=0.072558735968205237 0.12525917512154244 0.028088744372420451 0.14224105620802524 0.023177579560997356 -0.0013586331291720018 -0.12611651076277128 0.14176062095066827 0.010009023345749414 0.12346991794725187 -0.12191126361936913 -0.05312300819148208 -0.037519396726953577 -0.087986060218653878 -0.09081066862411713 0.077535400708525049 -0.066782566612549485 -0.079206851972437653 -0.11530405920324725 0.045368825212507194 0.098220142052905898 0.088536951850904169 -0.060195049751420752 -0.041505287913714668 -0.026900376787586291 0.016384530645425856 -0.11183526308180919 -0.084644493988101518 -0.14716832641888331 -0.13075235192206874 -0.10564723986297418
leaf_weight=2.337808188050988 3.7116494029760387 3.2123265415430078 3.0850242599844933 6.6538622789084929 4.5464041344821515 2.5582065097987643 3.7327249832451335 3.0893623419106016 3.1522214524447918 1.0087979547679431 3.483829624950884 4.9645516797900182 3.9413227513432503 2.9332520179450512 3.1897967420518398 1.915190100669862 2.7725966237485409 2.359980896115303 5.8716729804873466 4.096855401992797 3.9777850955724716 1.5856677778065176 2.2797313444316387 2.261379100382328 1.305909991264343 4.9551734589040279 2.3807965926826 1.1774030141532419 1.3572381548583505 3.2524321377277339
leaf_count=20 20 21 18 37 32 20 23 17 19 8 25 26 24 32 23 26 39 27 35 19 21 25 17 15 16 74 20 7 16 78
internal_value=0 -0.0149091 0.027545 0.0307418 -0.0283549 -0.014127 0.00938038 -0.0173207 0.0497527 -0.0650988 -0.0500673 0.0158983 -0.0181744 -0.0212473 0.00932786 -0.0606029 -0.00978009 -0.0309838 0.0787353 0.0435846 0.0185538 -0.0839612 -0.0951616 -0.0720453 -0.0330647 -0.104718 -0.106125 -0.117653 -0.115903 -0.109498
internal_weight=0 69.8049 16.7904 27.346 53.0145 36.785 22.2391 18.5064 7.69863 10.8077 14.5459 23.6344 10.5952 9.60688 6.67363 16.2296 5.1104 7.83369 8.9567 13.0392 8.94234 11.1192 7.71836 4.62136 3.2211 7.89808 4.939 5.43863 6.31241 4.26123
internal_count=800 653 116 147 537 321 201 178 51 127 120 127 61 80 48 216 59 63 53 66 47 157 110 42 42 115 40 93 90 86
shrinkage=0.1


Tree=18
num_leaves=31
num_cat=0
split_feature=4 6 5 7 5 4 7 3 4 4 6 3 0 0 5 5 3 2 7 4 8 5 3 2 3 1 1 0 4 2
split_gain=4.02547 3.83879 3.37373 3.48534 4.39947 5.79383 2.98655 2.91493 2.64718 3.13761 4.20337 3.55012 3.35492 2.44455 2.00719 7.44961 1.72391 2.61264 1.69535 1.6354 1.49498 0.785503 1.18814 0.667985 0.231446 0.039502 0.0360217 0.0253046 0.00372562 0.00102192
threshold=455961.24060000008 130.50000000000003 0.75939409200000019 207.50000000000003 0.89701988300000013 269130.18945000006 197.50000000000003 42.500000000000007 370319.91430000006 258483.61990000002 137.50000000000003 22.500000000000004 1654.0000000000002 1376.0000000000002 1.4490758965000003 0.99323693550000014 36.500000000000007 231.50000000000003 213.50000000000003 268457.4346000001 1.0000000180025095e-35 0.86014518600000001 36.500000000000007 897.50000000000011 32.500000000000007 58.500000000000007 48.500000000000007 729.50000000000011 273877.83450000006 579.50000000000011
decision_type=2 2 2 2 2 2 2 2 2 2 2 2 2 2 2 2 2 2 2 2 2 2 2 2 2 2 2 2 2 2
left_child=1 -1 18 6 7 13 8 23 9 16 11 -11 21 27 15 19 17 -4 29 -13 -18 22 -12 26 -2 -21 -5 -6 -28 -3
right_child=24 2 3 4 5 -7 -8 -9 -10 10 12 14 -14 -15 -16 -17 20 -19 -20 25 -22 -23 -24 -25 -26 -27 28 -29 -30 -31
leaf_value=0.085933973232405161 -0.11989472436312316 -0.10615094203655234 0.13418494746983678 -0.12021971354468648 -0.082362378094303995 0.081773522721103165 0.10028939095820709 0.039212286148169045 0.093721773603558586 0.057605832706158572 0.078309665316175836 -0.034232172303459228 0.11846167888328761 0.03345551903701454 -0.14819344465838574 0.11336106266523119 -0.037991768604430549 0.02669270487251444 0.017711313625670074 -0.11244588017583529 0.044271783963402422 -0.029254313357581885 -0.02008059222103125 -0.030112734699593715 -0.073909620571571452 -0.12914240615189007 -0.1044699947438868 -0.096513853333600588 -0.11096510460498579 -0.10935553652248382
leaf_weight=5.1967038661241522 2.0651971511542788 2.8253960143774739 3.4995791763067263 2.7958986088633555 2.5252750888466817 6.0383136793971062 3.9518326371908179 1.7966639511287201 3.5289027839899054 2.6056308448314729 2.3453175984323007 3.2614238858222944 3.0305436402559272 2.3808670789003372 2.6328741014003745 2.2130772694945327 4.3319518603384477 6.3894141875207424 1.4446088895201681 2.3620487414300442 4.5080772750079632 5.0747612789273262 2.5747356116771698 1.17158717662096 2.3285816609859467 3.5415770970284939 3.7524722870439291 2.5289687104523182 1.1549436040222643 1.5361499004065988
leaf_count=28 18 55 18 22 20 31 21 20 18 14 21 36 17 15 14 12 26 37 18 32 24 29 27 13 24 27 101 20 18 24
internal_value=0 0.0024767 -0.00257794 0.00276416 -0.028982 0.0090073 0.0164882 -0.0769456 0.0101073 0.00400721 -0.0162375 -0.0495777 0.0262951 -0.0500887 -0.0695107 -0.0513036 0.036048 0.0647327 -0.0761811 -0.0910651 0.0039595 -0.00165084 0.0268206 -0.100461 -0.0955239 -0.122462 -0.11116 -0.0894433 -0.105999 -0.10728
internal_weight=0 90.9996 85.8029 79.9967 24.145 13.4734 55.8517 10.6716 51.8999 48.371 29.642 16.6166 13.0254 7.43511 14.011 11.3781 18.729 9.88899 5.80615 9.16505 8.84003 9.99481 4.92005 8.8749 4.39378 5.90363 7.70331 5.05424 4.90742 4.36155
internal_count=800 758 730 633 260 86 373 174 352 334 229 135 94 55 121 107 105 55 97 95 50 77 48 154 42 59 141 40 119 79
shrinkage=0.1


Tree=19
num_leaves=31
num_cat=0
split_feature=4 5 4 7 4 1 0 7 5 1 1 0 0 7 7 6 10 2 5 3 5 5 4 6 9 1 5 20 4 7
split_gain=3.50319 3.41948 2.67608 6.33764 3.66318 4.31084 3.80421 2.92695 1.93659 2.97236 4.59968 2.78011 1.96448 2.23867 1.8979 1.7718 1.6313 1.27665 1.26115 0.957076 0.796717 1.29112 0.552994 0.267526 0.252788 0.243503 0.04966 0.0126746 0.00452882 0.00151763
threshold=455961.24060000008 1.7939532655000001 272574.46935000009 211.00000000000003 164843.56100000002 77.500000000000014 1792.0000000000002 30.000000000000004 0.99323693550000014 57.500000000000007 66.500000000000014 948.00000000000011 779.50000000000011 190.00000000000003 197.50000000000003 136.50000000000003 1.0000000180025095e-35 1379.5000000000002 0.79937040500000012 42.500000000000007 0.92327309250000011 0.86426034500000015 270131.06660000008 138.50000000000003 1.0000000180025095e-35 50.500000000000007 0.99323693550000014 1.0000000180025095e-35 257033.12290000005 214.50000000000003
decision_type=2 2 2 2 2 2 2 2 2 2 2 2 2 2 2 2 2 2 2 2 2 2 2 2 2 2 2 2 2 2
left_child=1 2 3 4 -1 6 7 -6 9 12 24 -10 13 -4 18 -14 -17 22 28 20 21 -20 23 26 -11 -2 27 29 -9 -5
right_child=25 -3 8 17 5 -7 -8 14 11 10 -12 -13 15 -15 -16 16 -18 -19 19 -21 -22 -23 -24 -25 -26 -27 -28 -29 -30 -31
leaf_value=0.11597253496987128 -0.066953309625077603 0.069809763044813997 0.039985505574496524 -0.10356882120622364 0.051662056708846986 0.079923754533063884 0.079723300454474372 -0.11352410707134308 -0.0097362607196443234 -0.1257579937323986 0.030305715799022265 0.10086892622252899 0.10553334907766705 -0.085596581004282149 0.026875312483183006 0.080807788628113428 -0.027542476786456178 -9.0180151712206648e-05 -0.049527536353109421 -0.084809950969370482 -0.056768386260842067 0.054010169764307538 -0.033712900713458248 -0.06386698586733297 -0.081641709486446404 -0.11569445590196095 -0.12692162393622161 -0.11456870500092836 -0.10679781841144526 -0.10877942933187473
leaf_weight=2.6030740216374388 1.9686902463436116 6.8888425081968299 3.1737698577344444 2.862998645752667 3.3341424278914991 4.8394109755754462 3.2366565428674212 1.739921223372227 3.8185423016548139 2.7121255435049516 4.9088496528565884 5.613018624484539 4.3109194301068765 2.5681157093495131 2.8576004505157462 2.4906001649796954 3.1431980282068261 1.5823327749967564 2.5351155437529069 4.5658867768943301 5.1913970783352852 2.294456172734499 1.2196635417640198 1.3066202811896799 2.4925266653299332 2.1381981186568737 1.8918113932013509 1.9796388931572435 2.3570268973708153 0.69458003714680661
leaf_count=14 18 36 26 90 21 22 23 27 22 23 25 28 29 27 20 18 32 15 25 38 28 17 14 16 28 24 14 23 45 12
internal_value=0 0.00213038 -0.00353301 -0.0191277 0.00176998 -0.00725166 -0.0222586 -0.0355279 0.0173117 0.00313633 -0.0391357 0.0560884 0.0303901 -0.0161823 -0.049023 0.0572801 0.0203572 -0.0835266 -0.0606312 -0.0468623 -0.0295721 -0.000338345 -0.0967883 -0.105595 -0.104631 -0.0923298 -0.112934 -0.108155 -0.109654 -0.104586
internal_weight=0 89.2128 82.324 47.0923 35.5547 32.9516 28.1122 24.8755 35.2317 25.8001 10.1135 9.43156 15.6866 5.74189 21.5414 9.94472 5.6338 11.5376 18.6838 14.5869 10.021 4.82957 9.95531 8.73565 5.20465 4.10689 7.42903 5.53722 4.09695 3.55758
internal_count=800 758 722 464 280 266 244 221 258 208 76 50 132 53 200 79 50 184 180 108 70 42 169 155 51 42 139 125 72 102
shrinkage=0.1


Tree=20
num_leaves=31
num_cat=0
split_feature=4 6 5 7 2 5 4 7 4 4 6 0 3 5 5 10 6 4 4 0 1 2 8 0 19 4 2 5 1 4
split_gain=3.05193 2.96084 2.72353 2.14416 3.89083 2.77039 3.29525 2.3223 2.17176 2.64333 3.32553 3.31915 2.9119 1.78862 5.95628 1.69945 2.42883 1.67065 1.61319 1.37496 1.29431 2.01728 1.36873 1.02627 0.797459 0.48567 0.257498 0.0375626 0.0300318 0.0117107
threshold=455961.24060000008 130.50000000000003 0.74595445500000013 207.50000000000003 72.000000000000014 0.89701988300000013 269130.18945000006 197.50000000000003 370319.91430000006 258483.61990000002 137.50000000000003 1755.5000000000002 22.500000000000004 1.4490758965000003 0.99323693550000014 1.0000000180025095e-35 137.50000000000003 261282.57860000004 268457.4346000001 1112.0000000000002 67.500000000000014 126.00000000000001 1.0000000180025095e-35 651.50000000000011 1.0000000180025095e-35 280961.30625000008 286.50000000000006 0.87541343950000017 61.500000000000007 272262.91010000004
decision_type=2 2 2 2 2 2 2 2 2 2 2 2 2 2 2 2 2 2 2 2 2 2 2 2 2 2 2 2 2 2
left_child=1 -1 25 7 -5 17 19 8 9 15 12 20 -11 14 18 -4 23 -6 -14 -7 21 -12 -23 -17 27 -3 -2 29 -20 -19
right_child=26 2 3 4 5 6 -8 -9 -10 10 11 -13 13 -15 -16 16 -18 24 28 -21 -22 22 -24 -25 -26 -27 -28 -29 -30 -31
leaf_value=0.076771783738457 -0.063766266450639361 -0.10637702286415751 -0.026613327059453441 0.086940092787116507 0.018783506576656721 -0.092189728436387536 0.055317066998775838 0.086385089352716493 0.081333166171719012 0.048025601561228121 -0.11408180908658401 0.1198201933660052 -0.030133557880956674 -0.14374359638257134 0.098277713607033135 0.12162115092956788 -0.0018768923717200762 -0.10401346758907171 -0.11454531859674931 6.6505939620301814e-05 0.046081437282049324 0.054836442167104142 -0.045748211200728202 0.051101292736522044 -0.014737291948854855 -0.028490427052292717 -0.11558185515482129 -0.12770513729114213 -0.12996856358985809 -0.11337303202512405
leaf_weight=4.9721503108739844 1.9470483548939221 2.7950844317674632 4.1028300970792779 2.7810559757053879 1.4246424660086647 3.7815894670784456 4.9232386723160744 3.9085266292095175 3.6005740389227858 2.5935111753642586 2.0257189553230983 2.6153904534876338 3.1330396290868503 2.5152156651020041 2.1626338660717002 3.5779938325285894 6.0920265801250943 3.0507932770997286 3.4999055173248053 2.8202802240848541 3.3270697295665741 2.6195043195039034 2.7978445142507553 4.8758977986872196 0.97401178441941727 1.1219674088060854 1.890099450945854 1.1939331255853174 1.9748841039836404 2.3794613592326641
leaf_count=28 20 59 27 19 17 34 26 22 18 14 28 17 37 14 12 18 35 96 45 19 16 24 21 26 19 14 22 10 15 28
internal_value=0 0.00182506 -0.00268265 0.0013654 -0.0240674 -0.0390916 -0.00660272 0.0120708 0.00643236 0.000803753 -0.0179462 0.0187697 -0.0488962 -0.0678165 -0.0500853 0.0302272 0.0462597 -0.0805906 -0.08736 -0.0527784 -0.00576906 -0.0289464 0.00288848 0.0809479 -0.099223 -0.0840678 -0.0892896 -0.111646 -0.120109 -0.108115
internal_weight=0 87.6408 82.6686 78.7516 23.329 20.548 11.5251 55.4226 51.514 47.9135 29.2647 13.3855 15.8792 13.2857 10.7705 18.6487 14.5459 9.02284 8.60783 6.60187 10.7701 7.44307 5.41735 8.45389 7.5982 3.91705 3.83715 6.62419 5.47479 5.43025
internal_count=800 758 730 657 268 249 79 389 367 349 243 106 137 123 109 106 79 170 97 53 89 73 45 44 153 73 42 134 60 124
shrinkage=0.1


Tree=21
num_leaves=31
num_cat=0
split_feature=4 5 2 5 2 20 5 2 7 4 6 0 0 12 2 5 5 0 2 1 6 0 0 5 0 0 1 0 5 5
split_gain=2.65549 2.62159 2.10779 2.66332 2.32773 3.01012 2.40942 2.6591 2.25994 1.86219 2.95626 1.94201 1.92105 1.67183 2.21728 2.2084 2.17763 1.62033 1.61562 1.39915 1.26847 0.996336 0.647374 0.541135 0.371331 0.572102 0.327884 0.271615 0.157008 0.0625759
threshold=455961.24060000008 1.7939532655000001 59.500000000000007 1.5409078490000001 1688.5000000000002 1.0000000180025095e-35 1.3723581175000001 72.000000000000014 55.000000000000007 270131.06660000008 136.50000000000003 1435.5000000000002 186.50000000000003 1.0000000180025095e-35 238.00000000000003 0.96208348250000009 0.80261486650000013 1105.0000000000002 286.50000000000006 57.500000000000007 138.50000000000003 1006.5000000000001 948.00000000000011 0.86426034500000015 1380.0000000000002 1551.5000000000002 57.500000000000007 1248.5000000000002 0.83407495150000011 0.90446796100000004
decision_type=2 2 2 2 2 2 2 2 2 2 2 2 2 2 2 2 2 2 2 2 2 2 2 2 2 2 2 2 2 2
left_child=1 2 26 4 6 22 7 -4 19 10 12 20 -10 15 28 17 -16 -11 -18 -9 23 -8 -6 -12 29 -26 -1 -2 -15 -14
right_child=27 -3 3 -5 5 -7 21 8 9 13 11 -13 24 14 16 -17 18 -19 -20 -21 -22 -23 -24 -25 25 -27 -28 -29 -30 -31
leaf_value=-0.11371719006288028 -0.11210604913822722 0.061013869785990785 0.056161726113802782 -0.08370095062066428 -0.029458788387649128 0.11211301935247185 0.010818188796668361 -0.025571258784369 0.044412131278314067 -0.073539730604330902 -0.042810047693049046 0.043126922782282272 -0.10854252734906625 -0.076428004744876779 0.093079654811823148 0.088317388894523813 0.031406405738643832 0.040764280119462148 -0.089121253969857608 0.051910016981359622 -0.0014614835731259366 0.081622830478167707 0.034829240922191328 -0.12348940378764128 -0.0089922662060364627 -0.10800224212946588 -0.049923481240420654 -0.056978853034962119 -0.11902096794785672 -0.12873022391254516
leaf_weight=1.660434598103165 1.9059999026358121 6.8230182379484168 5.3027362190186969 3.6385372653603545 3.0759185217320901 4.274416908621788 3.7975337058305731 3.6634437069296819 0.95282202772796409 2.4699409157037735 1.4512557871639713 3.8225427288562059 3.118353730067609 1.6593509614467623 1.8224470224231479 3.4179867282509804 1.9766501840203998 2.4908201061189175 2.5429378654807806 6.4060012958943844 3.2242728266865015 4.1693687960505486 3.1917074769735336 1.9462362919002769 0.90077212080359492 1.6574291735887525 1.5651207473129032 1.6829197183251379 1.8089387007057665 3.0248357877135277
leaf_count=28 25 36 38 19 23 25 22 30 15 28 27 30 84 22 20 18 13 19 29 37 32 22 20 18 12 36 14 17 18 23
internal_value=0 0.00154186 -0.00359245 -0.000223791 0.00398489 0.0474073 -0.00344308 -0.011062 -0.0184336 -0.02952 -0.0505001 -0.0136271 -0.0903907 -0.00633758 -0.0343557 0.0264676 0.000801384 -0.0161472 -0.0364083 0.0237209 -0.0463895 0.0478728 0.00327906 -0.0890268 -0.105152 -0.0731397 -0.0827629 -0.0862558 -0.098643 -0.118483
internal_weight=0 85.8558 79.0328 75.8073 72.1687 10.542 61.6267 53.6598 48.357 38.2876 20.0985 10.4443 9.65421 18.1891 9.81032 8.37875 6.34204 4.96076 4.51959 10.0694 6.62176 7.9669 6.26763 3.39749 8.70139 2.5582 3.22556 3.58892 3.46829 6.14319
internal_count=800 758 722 680 661 68 593 549 511 444 277 107 170 167 102 65 62 47 42 67 77 44 43 45 155 48 42 42 40 107
shrinkage=0.1


Tree=22
num_leaves=31
num_cat=0
split_feature=5 1 2 6 1 5 1 1 14 0 1 4 2 4 1 2 5 1 3 7 6 4 8 7 0 3 2 7 6 10
split_gain=2.61763 4.55982 2.99907 2.83768 2.58316 2.2132 2.12196 1.7523 1.66772 3.30081 3.16997 3.89747 2.84296 2.79834 2.65284 2.21564 2.11195 3.06624 3.0829 1.50607 1.49574 0.953728 0.656063 1.09921 0.365754 1.02381 0.249902 0.0256408 0.00893042 0.00774267
threshold=0.81857452900000005 48.500000000000007 251.50000000000003 130.50000000000003 76.500000000000014 0.82594477950000011 57.500000000000007 47.500000000000007 1.0000000180025095e-35 97.000000000000014 66.500000000000014 194840.64720000004 265.00000000000006 191230.75090000001 49.500000000000007 193.00000000000003 0.9850391045000001 49.500000000000007 36.500000000000007 182.50000000000003 139.50000000000003 263898.80740000011 1.0000000180025095e-35 185.50000000000003 1480.0000000000002 32.500000000000007 80.500000000000014 67.500000000000014 134.50000000000003 1.0000000180025095e-35
decision_type=2 2 2 2 2 2 2 2 2 2 2 2 2 2 2 2 2 2 2 2 2 2 2 2 2 2 2 2 2 2
left_child=1 2 7 -2 22 6 -5 -1 9 -7 13 -12 15 -11 -14 -10 24 -18 -19 -16 21 -13 23 -3 26 -26 -15 -28 -24 -25
right_child=3 4 -4 5 -6 8 -8 -9 12 10 11 20 14 16 19 -17 17 18 -20 -21 -22 -23 28 29 25 -27 27 -29 -30 -31
leaf_value=-0.10729602815689519 0.098937664847192353 -0.020016686027789474 0.11555721174302901 0.16705232367163192 0.038411312314450781 0.098638775400286982 0.0050422489076127905 0.046185876346536509 0.027979549839647008 0.036535175216411406 -0.082101977899401032 0.057522718363055905 -0.096877019259205194 -0.068227336196162863 -0.020567177467237387 0.13121299937770134 0.052966991313501278 0.0011794047529648001 -0.11501740205483456 0.072217106983079551 0.086620672717130504 -0.017622834300245329 -0.1175489861143682 -0.11695251775709968 -0.0030002565236357478 -0.11424238155919118 -0.12667130933103302 -0.11075253202465446 -0.10798137777602097 -0.1056604174182026
leaf_weight=1.4730448164045837 3.2046234160661689 2.9252656046301109 2.7147054374217987 1.562044017016887 1.9484022855758656 2.518923006951808 1.6757463552057741 1.5027119964361191 6.2123269997537154 4.0065595917403725 3.1042275801300994 2.9226229265332204 2.7960304766893369 1.445854321122171 4.2227144241333008 3.1247401405125856 3.4415829181671134 4.4996751770377141 4.6357176303863525 2.9868658483028412 4.8258575052022934 4.0012218877673149 1.2493930477648971 1.1329818721860647 1.5240406673401596 1.8097936809062956 1.4817932583391664 3.1904053129255772 4.4516195524483919 1.3084878362715244
leaf_count=29 20 34 18 10 10 15 34 11 39 25 19 15 25 38 26 19 18 28 30 21 24 27 19 18 22 22 12 51 91 30
internal_value=0 -0.0351199 0.0395497 0.00704186 -0.0677643 0.00257911 0.0832026 -0.02979 -0.00158086 -0.0124632 -0.0193075 0.017555 0.022841 -0.0403386 -0.0141938 0.0625276 -0.0543202 -0.0274781 -0.0577842 0.0178725 0.043884 0.0140968 -0.0864558 -0.0613622 -0.0900371 -0.0633888 -0.104558 -0.115801 -0.110078 -0.110901
internal_weight=0 18.7066 5.69046 69.1934 13.0162 65.9887 3.23779 2.97576 62.751 43.4083 40.8894 14.8539 19.3427 26.0354 10.0056 9.33707 22.0289 12.577 9.13539 7.20958 11.7497 6.92384 11.0677 5.36674 9.45189 3.33383 6.11805 4.6722 5.70101 2.44147
internal_count=800 260 58 540 202 520 44 40 476 346 331 85 130 246 72 58 221 76 58 47 66 42 192 82 145 44 101 63 110 48
shrinkage=0.1


Tree=23
num_leaves=31
num_cat=0
split_feature=4 5 1 2 6 0 1 7 1 1 2 1 5 5 14 0 1 5 1 0 3 4 0 5 5 6 2 7 6 5
split_gain=2.34075 2.24527 4.91731 2.57498 2.21715 2.2874 1.78225 1.73453 2.64167 5.10682 3.54403 2.15077 2.04885 1.76204 2.2341 3.09535 1.76117 2.60294 0.988582 0.963052 0.854217 0.76177 0.679617 1.13297 0.0443598 0.0261295 0.00339245 0.00253229 0.000996479 0.000530164
threshold=164843.56100000002 0.81542027100000014 48.500000000000007 139.00000000000003 130.50000000000003 24.500000000000004 76.500000000000014 10.500000000000002 66.500000000000014 58.500000000000007 80.500000000000014 42.500000000000007 0.85926468950000012 0.86426034500000015 1.0000000180025095e-35 1380.0000000000002 68.500000000000014 0.96208348250000009 77.500000000000014 1738.0000000000002 27.500000000000004 202791.71600000004 1322.5000000000002 0.7701871170000002 0.90607770300000012 132.50000000000003 1787.5000000000002 140.50000000000003 137.50000000000003 0.7809108050000001
decision_type=2 2 2 2 2 2 2 2 2 2 2 2 2 2 2 2 2 2 2 2 2 2 2 2 2 2 2 2 2 2
left_child=-1 2 3 -2 -3 -6 22 -7 9 10 -9 -12 -10 -13 15 20 17 -14 -18 21 -15 -11 25 -24 27 -4 28 -23 -27 -30
right_child=1 4 6 -5 5 7 -8 8 12 19 11 13 16 14 -16 -17 18 -19 -20 -21 -22 24 23 -25 -26 26 -28 -29 29 -31
leaf_value=0.08257651058275102 -0.042911802449256194 0.089245687113072847 -0.12418613347396777 0.097182702424860323 0.12567585936975259 0.066223405614395228 0.019356578306236282 0.097382290475767352 0.089957726768060992 -0.03294978885601707 0.055058099506601538 -0.093284478320798891 -0.025438462576166145 -0.045028836308672715 0.043156791708636677 0.01825132255173563 -0.056479640093059107 0.079742362712994716 0.012598280896469359 -0.01041277260385509 -0.11676627232681136 -0.10905478933113373 0.0032371037340178615 -0.11275544834722062 -0.12166533684969985 -0.1045154441063728 -0.11267954477413329 -0.10279393495513151 -0.10604082644410254 -0.10908166989714185
leaf_weight=3.1584131233394137 2.19956121221185 2.8652478829026213 1.1063653510063867 3.2513573095202446 1.4004751127213229 3.3665296062827101 1.7160204499959935 3.169503508135679 3.5165875963866737 1.3732333593070487 3.697102781385186 3.4233931042253998 4.0475392602384108 3.1188915036618727 4.7966725490987292 5.4773085732012987 4.8200364559888822 5.6193458214402199 3.633460097014904 1.3832272924482811 3.5482754427939653 1.0237223394215109 1.6845989916473629 1.6837474089115856 3.8772910162806511 2.0638481695204973 0.95890528708696354 1.7509752027690408 1.1598000265657904 1.1339062880724666
leaf_count=20 32 19 10 24 7 17 9 20 24 10 33 39 23 21 33 36 30 26 20 16 36 16 31 27 31 60 12 74 26 18
internal_value=0 -0.0051368 -0.0375877 0.0406516 0.00321271 -0.00069738 -0.0746494 -0.00356846 -0.00760021 -0.0239614 -0.00201689 -0.0151102 0.0201055 -0.027849 -0.014626 -0.0374484 0.00654943 0.035703 -0.0267887 -0.0874761 -0.0832076 -0.100759 -0.0911251 -0.0547445 -0.114757 -0.110204 -0.107295 -0.105104 -0.10611 -0.107544
internal_weight=0 82.8669 16.9581 5.45092 65.9088 63.0436 11.5072 61.6431 58.2766 36.6396 27.2311 24.0616 21.637 20.3645 16.9411 12.1445 18.1204 9.66689 8.4535 9.40845 6.66717 8.02522 9.79117 3.36835 6.65199 6.42283 5.31646 2.7747 4.35755 2.29371
internal_count=800 780 249 56 531 512 193 505 488 365 218 198 123 165 126 93 99 49 50 147 57 131 184 58 121 126 116 90 104 44
shrinkage=0.1


Tree=24
num_leaves=31
num_cat=0
split_feature=4 0 0 5 2 2 5 2 4 7 0 5 1 1 3 0 3 7 12 4 1 0 7 0 6 0 5 6 6 5
split_gain=2.2091 2.98432 2.55401 2.38454 1.8991 3.07268 3.31538 2.38854 2.09678 1.61923 1.8895 2.51886 2.28715 2.78042 2.16191 3.28084 1.88902 2.60761 1.77833 1.60887 0.966526 1.14247 1.52741 0.950669 0.736771 0.706799 0.520963 0.317845 0.172159 0.101112
threshold=455961.24060000008 24.500000000000004 85.000000000000014 1.7939532655000001 61.500000000000007 72.000000000000014 1.5787405085000001 1688.5000000000002 237115.93675000002 55.000000000000007 1081.0000000000002 1.3723581175000001 66.500000000000014 68.500000000000014 32.500000000000007 1523.0000000000002 42.500000000000007 114.00000000000001 1.0000000180025095e-35 269027.55865000008 57.500000000000007 208.50000000000003 173.00000000000003 700.00000000000011 136.50000000000003 550.50000000000011 0.8307470935000002 135.50000000000003 135.50000000000003 0.82486464250000013
decision_type=2 2 2 2 2 2 2 2 2 2 2 2 2 2 2 2 2 2 2 2 2 2 2 2 2 2 2 2 2 2
left_child=1 -1 -3 4 25 -6 7 9 -9 19 12 14 20 -14 15 -12 18 -18 -16 -7 21 -11 -23 -24 -21 -4 -20 -2 -22 -10
right_child=27 2 3 -5 5 6 -8 8 29 10 11 -13 13 -15 16 -17 17 -19 26 24 28 22 23 -25 -26 -27 -28 -29 -30 -31
leaf_value=0.1345728955683059 -0.1147335094026313 -0.11740550095817436 -0.0055269256145948509 0.059769673007638538 0.079312541818118143 0.070461261413115137 -0.12917806061407922 -0.01749501528318408 0.06893214045071791 0.01812934450972517 0.093523290293790917 0.079202777736400817 0.063428251295473581 -0.062092677886021998 0.011330287978116485 -0.0660850675615378 -0.07790761963095201 0.078480779558657676 -0.055271407528165617 -0.046504946887897941 -0.064057411206087045 -0.12995464827409661 -0.076836939541103266 0.022297586858471732 0.023451417821043104 -0.10139881044639659 -0.12125320923820954 -0.052142452015240232 -0.11167461177636384 0.095492360098984208
leaf_weight=1.6473109871149052 1.5888224411755794 1.8539666756987561 1.0855599567294114 6.4112454056739798 4.5473698396235696 4.4913149382919055 2.1054221242666236 3.3110370412468892 2.8164381664246321 2.1254702545702475 3.6645803824067178 3.5327922627329817 3.792068811133503 3.3008710108697414 2.0117789041250989 1.9857432357966898 1.8141231536865232 2.5860358346253633 1.807192480191582 2.7706568911671638 0.9539013747125854 2.3713141437619925 1.9650029819458725 1.9052808359265325 3.2969572618603706 2.6368157770484686 3.541853005066514 1.6579216346144674 3.7214429024606943 2.9185987003147602
leaf_count=9 21 20 11 35 29 29 12 21 23 22 37 19 26 22 17 37 17 26 26 21 12 37 32 17 23 38 37 21 85 18
internal_value=0 0.00135226 -0.00141429 0.00136152 -0.00390827 -6.46073e-05 -0.00581326 -0.00153317 0.0458675 -0.00983687 -0.0188146 0.00221397 -0.0406878 0.00501405 -0.0134072 0.0374307 -0.0378313 0.0140041 -0.0688174 0.0250909 -0.0655421 -0.0451928 -0.0667561 -0.0280345 -0.00849278 -0.0734396 -0.098961 -0.0827719 -0.101959 0.0824488
internal_weight=0 80.9721 79.3248 77.4709 71.0596 67.3372 62.7899 60.6845 9.04607 51.6384 41.0795 20.9441 20.1354 7.09294 17.4113 5.65032 11.761 4.40016 7.36082 10.5589 13.0424 8.36707 6.2416 3.87028 6.06761 3.72238 5.34905 3.24674 4.67534 5.73504
internal_count=800 758 749 729 694 645 616 604 62 542 469 216 253 48 197 74 123 43 80 73 205 108 86 49 44 49 63 42 97 41
shrinkage=0.1


Tree=25
num_leaves=31
num_cat=0
split_feature=4 6 5 0 6 0 1 2 2 4 4 5 5 7 14 3 4 0 2 2 2 2 2 4 7 7 4 5 5 4
split_gain=1.91649 1.8612 2.1285 1.49238 3.147 2.66788 1.72409 1.68214 1.88482 1.55803 1.51335 1.58444 2.035 1.55 2.53403 1.56907 4.55686 3.06284 2.30132 3.42315 1.5499 1.31626 2.37909 1.4303 1.14402 0.65226 0.471202 0.338414 0.0206273 0.000780386
threshold=455961.24060000008 130.50000000000003 0.74595445500000013 1743.5000000000002 137.50000000000003 1846.5000000000002 79.500000000000014 3379.0000000000005 2038.5000000000002 164843.56100000002 270673.87605000002 0.77772655050000017 0.81988705600000011 211.00000000000003 1.0000000180025095e-35 36.500000000000007 262799.37495000008 855.50000000000011 123.50000000000001 631.00000000000011 594.50000000000011 238.00000000000003 130.00000000000003 279573.11070000002 207.50000000000003 114.00000000000001 283142.08400000009 0.89129372100000004 0.89878375750000006 264181.42445000011
decision_type=2 2 2 2 2 2 2 2 2 2 2 2 2 2 2 2 2 2 2 2 2 2 2 2 2 2 2 2 2 2
left_child=1 -1 26 6 5 -5 7 8 9 -4 13 -12 -13 15 28 16 17 -11 -17 25 21 22 24 -23 -14 -20 -3 -2 29 -15
right_child=27 2 3 4 -6 -7 -8 -9 -10 10 11 12 20 14 -16 18 -18 -19 19 -21 -22 23 -24 -25 -26 -27 -28 -29 -30 -31
leaf_value=0.065706186892242155 -0.044743159821777199 -0.10504826565600807 0.067781459170248595 0.057212906576567982 0.099018342507559892 -0.091513865999609811 0.072340675038556429 0.06989539284607435 -0.094403750350607635 -0.018797541245146113 0.089917151052616176 -0.084272716050652272 0.078049387303227899 -0.10675552038137237 0.040558142023877669 -0.12549805894741489 -0.096547010855877746 0.10927219821419554 -0.008327202352303156 -0.11118743455619214 -0.047117887815785561 0.10609046371398677 -0.067768726299756388 0.012708551466470906 -0.0065877224235884576 0.059157092549695811 -0.021592098699462749 -0.1114762824691104 -0.1170922202172487 -0.10222592899699082
leaf_weight=4.2246284037828437 1.4506828989833587 2.3507096832618113 2.6079783886671057 2.4014466851949674 4.4638431780040264 2.4231029320508242 2.7942507341504088 2.6486833095550528 2.6242218613624564 3.3356984220445209 2.0797743871808079 2.6147807147353914 3.193895407021051 0.51040045358240549 1.4720618054270742 2.5187150184065095 2.7921298239380121 4.242233581840992 2.7529090326279384 2.6190304588526487 3.9079060666263095 3.1587835084646931 3.4047757107764482 3.4118490200489759 3.1941970996558666 2.9854665137827396 0.94992354884743679 1.595900662243366 2.4251743890345097 1.492838632315397
leaf_count=28 20 63 17 19 32 25 14 16 20 26 22 37 22 13 18 33 31 24 22 19 26 22 29 24 20 25 10 22 25 76
internal_value=0 0.00111683 -0.00250319 0.00109282 0.0385049 -0.0174843 -0.00444167 -0.00801787 -0.0116166 -0.00764638 -0.0114212 0.00634859 -0.00124567 -0.0277635 -0.0731059 -0.015171 0.0126599 0.0528977 -0.0417069 -0.0164544 0.00946387 0.0229766 -0.000255106 0.0576012 0.0357288 0.0267824 -0.0810295 -0.0797002 -0.110889 -0.10338
internal_weight=0 79.6014 75.3768 72.0761 9.28839 4.82455 62.7878 59.9935 57.3448 54.7206 52.1126 24.966 22.8862 27.1467 5.90048 21.2462 10.3701 7.57793 10.8761 8.35741 20.2714 16.3635 9.79287 6.57063 6.38809 5.73838 3.30063 3.04658 4.42841 2.00324
internal_count=800 758 730 657 76 44 581 567 551 531 514 202 180 312 132 180 81 50 99 66 143 117 71 46 42 47 73 42 114 89
shrinkage=0.1


Tree=26
num_leaves=31
num_cat=0
split_feature=5 1 2 6 5 5 7 7 8 2 7 14 13 1 2 2 5 5 5 4 6 2 0 2 1 4 4 2 7 21
split_gain=1.68593 3.50067 1.87336 1.82325 1.60603 3.44644 2.72546 2.74193 1.80344 1.88547 1.90132 1.69767 1.5739 1.42309 1.37513 2.39579 1.36311 1.80133 2.55765 1.31899 1.28244 1.17378 0.942755 0.72669 0.364243 0.630703 0.00783087 0.00382371 0.00245008 0.0016334
threshold=0.81542027100000014 48.500000000000007 251.50000000000003 130.50000000000003 0.85647876400000011 0.89701988300000013 209.50000000000003 248.00000000000003 1.0000000180025095e-35 579.50000000000011 186.50000000000003 1.0000000180025095e-35 1.0000000180025095e-35 76.500000000000014 579.50000000000011 180.50000000000003 1.7939532655000001 1.4490758965000003 1.0147257255000002 258483.61990000002 136.50000000000003 317.50000000000006 1779.5000000000002 82.500000000000014 50.500000000000007 275394.95335000003 288546.42310000007 779.50000000000011 61.500000000000007 1.0000000180025095e-35
decision_type=2 2 2 2 2 2 2 2 2 2 2 2 2 2 2 2 2 2 2 2 2 2 2 2 2 2 2 2 2 2
left_child=1 2 -1 -2 6 14 20 22 9 11 -11 -7 16 23 15 -6 17 18 19 -10 -5 -14 26 -3 25 -25 29 28 -26 -8
right_child=3 13 -4 4 5 8 7 -9 12 10 -12 -13 21 -15 -16 -17 -18 -19 -20 -21 -22 -23 -24 24 27 -27 -28 -29 -30 -31
leaf_value=-0.023513234807546201 0.084006509572354393 -0.025776829627107534 0.096611158258633409 0.011357946499822524 -0.093735718874986065 -0.027989701863682898 -0.10854325178931196 0.1279968039216117 0.014206689889439303 -0.11579243672446836 -0.014662411166678272 0.065077076926396221 0.01296850775257798 0.020404947912692713 -0.11824423235162602 0.041721315721247564 0.058539178227984684 -0.07191143985935125 0.075082097822850649 -0.076888874992990547 0.094915323036497995 0.085975766311902929 0.033102142605545913 -0.10976957882052106 -0.11110418081353686 0.010584595459916329 -0.11793295885535247 -0.11186049257776697 -0.10472778723932344 -0.10213207167704984
leaf_weight=2.6140307262539855 2.8139498308300963 1.9403460510075072 2.57921102643013 2.7642491199076158 2.9603421092033368 4.4932693410664779 0.56611463055014621 0.81078092195093621 3.4287229776382464 3.1929189004004002 4.4501521699130535 3.4765707887709141 3.7987048141658324 1.6795555353164662 3.0541999880224466 2.336072651669383 3.612721160054206 3.5446727015078059 3.8582631908357143 2.9630012474954128 5.4747033156454563 5.2398092225193977 0.59937576763331879 0.96695774979889371 0.78218778222799334 0.79208469018340111 0.51618216931819905 1.8285910217091439 2.624634113162756 1.3333361689001322
leaf_count=39 20 33 17 27 29 35 9 8 23 23 31 23 25 9 39 18 19 21 24 23 35 29 9 23 11 17 6 25 77 73
internal_value=0 -0.0311313 0.0361463 0.00526595 0.00171933 -0.00612454 0.0344929 -0.0352558 0.00552638 -0.0214237 -0.0569098 0.0126075 0.0214369 -0.0640479 -0.0648057 -0.0339901 0.00385806 -0.0104625 0.0107879 -0.0280223 0.066881 0.0552923 -0.0791568 -0.0799232 -0.0949441 -0.0555749 -0.107011 -0.108172 -0.106192 -0.104043
internal_weight=0 15.8076 5.19324 65.2881 62.4742 50.4094 12.0647 3.82579 42.0588 15.6129 7.64307 7.96984 26.4459 10.6144 8.35061 5.29641 17.4074 13.7947 10.25 6.39172 8.23895 9.03851 3.01501 8.9348 6.99446 1.75904 2.41563 5.23541 3.40682 1.89945
internal_count=800 251 56 549 529 362 167 105 276 112 54 58 164 195 86 47 110 91 70 46 62 54 97 186 153 40 88 113 88 82
shrinkage=0.1


Tree=27
num_leaves=31
num_cat=0
split_feature=4 7 4 2 2 6 6 0 7 0 1 5 1 3 0 4 0 1 4 13 1 4 4 4 3 0 4 5 1 7
split_gain=1.67273 1.53476 1.89543 1.45645 2.54961 1.81103 1.80372 2.81755 2.53206 2.31575 1.78733 1.51047 3.3425 2.02586 1.88579 3.12083 1.5146 1.32106 1.31984 1.30821 1.20729 0.947933 2.16272 0.854204 1.07656 0.541332 0.349263 0.0327952 0.0206995 0.00716726
threshold=455961.24060000008 257.00000000000006 164843.56100000002 61.500000000000007 72.000000000000014 130.50000000000003 139.50000000000003 1755.5000000000002 10.500000000000002 1422.0000000000002 69.500000000000014 0.88813445550000003 42.500000000000007 36.500000000000007 1488.5000000000002 259903.78910000002 1014.0000000000001 66.500000000000014 210603.85355000003 1.0000000180025095e-35 57.500000000000007 291314.62330000004 263209.55485000007 278217.45510000008 36.500000000000007 50.500000000000007 495510.94455000007 0.85647876400000011 61.500000000000007 146.50000000000003
decision_type=2 2 2 2 2 2 2 2 2 2 2 2 2 2 2 2 2 2 2 2 2 2 2 2 2 2 2 2 2 2
left_child=1 2 -1 10 -5 -6 8 9 -7 18 29 12 -10 14 15 -13 25 20 -8 -17 -15 22 -18 24 -20 -14 -2 -27 -24 -4
right_child=26 -3 3 4 5 6 7 -9 11 -11 -12 13 16 17 -16 19 21 -19 23 -21 -22 -23 28 -25 -26 27 -28 -29 -30 -31
leaf_value=0.083198753739504916 -0.11233101928213601 -0.083057987483412005 -0.10712308597558594 0.07130741829652075 0.076172368794847678 0.069174526296676378 -0.039835603299434946 0.11013810986487214 0.088829577874132537 -0.082292895146605594 0.031249813747598706 0.11108014727376055 -0.020413186276123214 -0.030356108222402475 -0.049902301711986952 -0.055129426258609608 0.014596843158199813 0.0054561175828440542 0.10524981441165696 0.036095918302822987 -0.11950646365104718 0.035260613931567708 -0.10649439160062993 -0.0024935989997532972 0.024877865137657898 -0.10688313977193267 -0.042265818350031237 -0.12350774293640561 -0.12588482464295997 -0.11807217248727163
leaf_weight=2.8615536466240874 1.4135951139032834 2.1118838153779498 1.2313855458050964 5.1340930648148051 2.8310106396675101 3.1126561872661105 2.8879759646952214 2.9188786651939145 1.5643229819834221 2.6394537314772597 1.3562132008373735 3.7012236043810862 0.72970970347523501 3.2858874164521676 3.2160075753927222 2.8260281812399626 2.5298183066770434 3.5031242743134499 2.7796957679092866 3.5424548946321011 2.8249708637595177 1.5484448485076425 2.2345551978796725 3.6877564452588558 4.1618811842054129 3.8335043489933014 1.4323515202850101 1.7185662332922218 0.73051327094435681 1.1620522066950796
leaf_count=17 21 30 30 34 22 17 18 19 13 22 8 21 7 24 22 25 34 20 16 20 23 11 69 35 37 120 21 22 8 14
internal_value=0 0.00100797 0.0033893 0.000203754 0.00355215 -0.00198631 -0.0056755 0.019718 -0.0175184 0.00338266 -0.0604681 -0.0246592 -0.0494533 -0.00853804 0.0167637 0.0380551 -0.0656873 -0.0435028 0.0201121 -0.00438553 -0.0715692 -0.0338479 -0.0533224 0.0363998 0.0570621 -0.101387 -0.0770675 -0.112029 -0.111272 -0.112439
internal_weight=0 76.6656 74.5537 71.6922 67.9425 62.8084 59.9774 19.0756 40.9018 16.1568 3.74965 37.7891 14.8894 22.8997 13.2857 10.0697 13.3251 9.61398 13.5173 6.36848 6.11086 7.04333 5.49489 10.6293 6.94158 6.28178 2.84595 5.55207 2.96507 2.39344
internal_count=800 758 728 711 659 625 603 147 456 128 52 439 284 155 88 66 271 67 106 45 47 122 111 88 53 149 42 142 77 44
shrinkage=0.1


Tree=28
num_leaves=31
num_cat=0
split_feature=4 5 7 4 6 1 5 0 16 0 5 2 1 5 3 4 7 12 0 11 0 1 2 6 6 7 5 1 0 1
split_gain=1.44801 1.39331 1.56101 1.4426 1.47601 2.83373 1.84185 3.83945 2.66498 2.62674 1.98137 1.56728 2.49104 2.48836 2.93662 1.44179 1.38416 3.9713 1.25689 1.5316 1.34522 1.23435 0.843718 0.362609 0.166839 0.0141653 0.010995 0.00876082 0.0055453 0.00237056
threshold=455961.24060000008 1.7939532655000001 253.00000000000003 370319.91430000006 139.50000000000003 77.500000000000014 0.90224688900000005 1101.0000000000002 1.0000000180025095e-35 1587.5000000000002 0.85209930700000014 180.50000000000003 66.500000000000014 0.95699551750000011 36.500000000000007 167474.59620000003 185.50000000000003 1.0000000180025095e-35 1380.0000000000002 1.0000000180025095e-35 395.50000000000006 66.500000000000014 745.50000000000011 135.50000000000003 131.50000000000003 43.500000000000007 0.82774282600000004 67.500000000000014 1342.0000000000002 48.500000000000007
decision_type=2 2 2 2 2 2 2 2 2 2 2 2 2 2 2 2 2 2 2 2 2 2 2 2 2 2 2 2 2 2
left_child=1 2 3 4 6 11 7 15 -9 18 16 12 26 14 -13 -1 -10 -18 19 20 -8 -22 24 -2 -17 -26 -6 29 -19 -27
right_child=23 -3 -4 -5 5 -7 9 8 10 -11 -12 13 -14 -15 -16 22 17 28 -20 -21 21 -23 -24 -25 25 27 -28 -29 -30 -31
leaf_value=0.043309881397181733 -0.11215609222263601 0.046387982807150292 -0.084509364184759628 0.047628810731168723 -0.10768162772177253 0.096181363185068508 0.089958840345135432 -0.10984591399037701 0.087696630527164199 -0.06023324007863972 -0.073454482271148494 0.11833729798914039 0.041026569155673015 -0.041854773604863629 -0.0074340166186309554 -0.15891332069305142 0.1364075911379323 -0.11674709010377814 0.077344157599877353 -0.041510458097052158 -0.032166141608246095 0.053570959887351215 -0.043173352808489433 -0.038507743260030536 -0.11917657275485982 -0.11002667059286329 -0.12069833012708082 -0.11799958898952292 -0.10417890440196041 -0.1037612416750632
leaf_weight=0.79756884276867168 1.2910322938114398 6.1598678305745116 2.2856781948357812 5.7038043253123751 1.3181403502821987 3.7159801721572867 2.7684587612748199 1.7005602456629265 4.0827046446502191 4.9331892579793921 1.5785724204033611 3.5925392992794496 1.7219386454671619 4.353543046861887 3.841626675799489 0.79069093614816477 1.1510112434625617 0.53377024456858735 3.3682338669896117 4.1552432272583237 3.6568879522383213 3.1049303933978081 2.1366614596918225 1.3864355962723491 1.233925614506006 0.76817214488983188 1.2781584821641443 0.6170681845396756 1.025575087405741 2.823511254042387
leaf_count=5 21 36 33 35 32 20 17 33 34 35 19 25 12 25 38 5 10 10 19 30 30 18 27 21 14 14 12 9 41 120
internal_value=0 0.000817895 -0.00324806 -0.000465579 -0.00495906 0.0174654 -0.0157408 -0.0383362 0.00428247 0.00403142 0.0274658 -0.000696 -0.0522356 0.0181847 0.0533446 -0.0851602 0.0509176 -0.00448382 0.0226214 0.00915328 0.0312429 0.00720311 -0.097402 -0.0740198 -0.11599 -0.109755 -0.11409 -0.106992 -0.108481 -0.105101
internal_weight=0 75.198 69.0381 66.7525 61.0487 19.8219 41.2267 19.2398 10.0722 21.9869 8.37163 16.1059 4.31824 11.7877 7.43417 9.1676 6.79306 2.71036 17.0538 13.6855 9.53028 6.76182 8.37003 2.67747 6.23337 5.44268 2.5963 4.20875 1.55935 3.59168
internal_count=800 758 722 689 654 164 490 341 147 149 114 144 56 88 63 194 95 61 114 95 65 48 189 42 162 157 44 143 51 134
shrinkage=0.1


Tree=29
num_leaves=31
num_cat=0
split_feature=5 5 1 3 1 6 0 14 2 0 1 7 7 0 0 5 7 1 0 1 6 2 2 20 1 4 1 4 7 3
split_gain=1.28496 2.71897 2.6592 1.35597 1.17586 1.13808 1.0573 1.1753 2.67424 1.9507 1.94066 2.18265 1.92874 1.87941 2.49912 1.9392 1.68147 1.67288 1.40686 1.29745 0.777764 0.734724 0.631838 1.09577 0.38269 0.591738 0.327517 0.0526429 0.00679407 0.00288593
threshold=0.81542027100000014 0.82081256450000006 48.500000000000007 36.500000000000007 76.500000000000014 130.50000000000003 34.500000000000007 1.0000000180025095e-35 265.00000000000006 1158.0000000000002 67.500000000000014 190.00000000000003 43.500000000000007 871.00000000000011 111.50000000000001 0.9650998005000001 116.50000000000001 49.500000000000007 569.50000000000011 58.500000000000007 134.50000000000003 82.500000000000014 201.50000000000003 1.0000000180025095e-35 50.500000000000007 275394.95335000003 49.500000000000007 194840.64720000004 207.50000000000003 42.500000000000007
decision_type=2 2 2 2 2 2 2 2 2 2 2 2 2 2 2 2 2 2 2 2 2 2 2 2 2 2 2 2 2 2
left_child=2 -2 3 -1 21 -3 -7 10 19 18 13 12 -12 14 -8 17 -17 -15 -10 -9 -16 -4 23 29 25 -23 -22 -28 -29 -19
right_child=1 5 4 -5 -6 6 7 8 9 -11 11 -13 -14 15 20 16 -18 22 -20 -21 26 24 -24 -25 -26 -27 27 28 -30 -31
leaf_value=0.071506666735759075 0.11716730797812258 0.069063631729499225 -0.019602295229112488 -0.038159191408765183 0.018837720197266344 0.07961388660485097 0.051309207208605691 0.093483535885350702 -0.035683796637466257 -0.083142467590246016 -9.0991055091414839e-05 -0.043198524548387129 0.10037364400693592 0.022587031755819796 -0.033066720465615561 -0.025992221300828303 0.051412133800199961 -0.10407877406042072 0.063658473233498686 0.015955967861838713 -0.061596223879451052 -0.10870874455234553 -0.11762745011023351 0.034756861192917675 -0.10733091023988997 0.015391211775300492 -0.14034915539030252 -0.11632860339477508 -0.10650163108450986 -0.11395720466060309
leaf_weight=3.0732977204024783 2.06993793696165 2.3338683471083632 1.7925435537472347 1.7807644568383691 1.578248471021652 1.5389220193028439 1.5344390021637098 4.5431563965976256 2.8541984781622869 3.2496838457882404 3.7528579011559469 3.6189426798373461 3.8935097493231297 2.0994517784565714 1.9084107186645267 5.217417433857916 6.0733194462954998 0.61542033217847369 2.8479950465261936 4.1127547938376665 1.2615206036716697 0.8059154665097592 2.6106695644557476 0.96398664265871037 4.4770840648561716 0.73431415297091007 0.93448491394519795 2.643159632571042 0.95873463712632645 0.56933387741446495
leaf_count=24 18 19 33 32 9 10 12 29 22 27 20 31 22 19 15 32 37 34 21 28 15 23 39 10 113 17 7 32 43 7
internal_value=0 0.00448001 -0.0288184 0.0312746 -0.0598891 0.000601227 -0.00216306 -0.00439983 0.017015 -0.0213069 -0.0141544 0.0207834 0.0510653 -0.0285238 -0.0652344 -0.00983287 0.0156438 -0.0517714 0.0139333 0.0566472 -0.08844 -0.0757985 -0.0845721 -0.0444105 -0.0925392 -0.0495433 -0.106666 -0.1192 -0.113713 -0.108826
internal_weight=0 62.2062 14.2422 4.85406 9.38811 60.1362 57.8024 56.2634 17.6078 8.95188 38.6557 11.2653 7.64637 27.3903 9.24075 18.1496 11.2907 6.85886 5.70219 8.65591 7.70631 7.80986 4.75941 2.14874 6.01731 1.54023 5.7979 4.53638 3.60189 1.18475
internal_count=800 549 251 56 195 531 512 502 127 70 375 73 42 302 124 178 69 109 43 57 112 186 90 51 153 40 97 82 75 41
shrinkage=0.1


Tree=30
num_leaves=31
num_cat=0
split_feature=4 0 0 2 2 6 6 0 4 4 7 5 7 0 13 4 4 4 14 1 5 2 3 1 6 4 1 7 1 4
split_gain=1.23289 1.99723 2.02837 1.45048 2.55456 1.74728 1.70615 2.12404 1.89517 1.92068 1.47832 1.47802 1.87709 1.57854 1.55894 1.55013 2.78547 2.74674 1.42186 1.51859 1.1265 0.691722 1.57096 0.620525 0.491798 0.0317325 0.0269479 0.00447909 0.00306731 0.00158654
