tree
version=v3
num_class=1
num_tree_per_iteration=1
label_index=0
max_feature_idx=12
objective=binary sigmoid:1
feature_names=id age anaemia creatinine_phosphokinase diabetes ejection_fraction high_blood_pressure platelets serum_creatinine serum_sodium sex smoking time
feature_infos=[0:1998] [40:85] [0:1] [23:7861] [0:1] [14:70] [0:1] [140648.81890000001:824131.91669999994] [0.62917836399999993:8.9945972540000003] [116:146] [0:1] [0:1] [4:285]
tree_sizes=2530 3012 3325 3337 3320 3329 3336 3313 3322 3338 3323 3332 3332 3330 3314 3330 3349 3345 3328 3333 3324 3337 3323 3322 3329 3348 3340 3339 3330 3322 3336 3345 3343 3336 3352 3342 3327 3344 3333 3342 3338 3351 3343 3345 3345 3356 3369 3351 3335 3364 3347 3384 3374 3348 3363 3366 3366 3360 3368 3388 3353 3360 3389 3361 3375 3375 3361 3398 3381 3386 3369 3383 3390 3379 3382 3396 3374 3386 3377 3394 3383 3387 3399 3380 3386 3404 3400 3396 3403 3408 3393 3389 3403 3375 3402 3381 3396 3413 3390 3405

Tree=0
num_leaves=24
num_cat=0
split_feature=8 1 6 7 3 12 7 3 3 1 4 7 1 12 8 0 9 5 1 7 7 0 0
split_gain=70.2467 34.5664 33.7899 18.2531 17.4038 12.8625 9.321 8.60268 8.24548 8.21678 6.42444 6.24726 5.62892 12.9629 3.07662 2.92649 1.02302 1.93875 0.592311 0.575788 0.367037 1.77636e-15 1.77636e-15
threshold=0.94840649600000015 67.500000000000014 1.0000000180025095e-35 185627.19490000003 779.50000000000011 207.50000000000003 369966.94495000009 131.50000000000003 265.00000000000006 66.500000000000014 1.0000000180025095e-35 221773.43240000002 48.500000000000007 173.00000000000003 1.4332926640000003 1041.5000000000002 136.50000000000003 32.500000000000007 50.500000000000007 268935.98150000005 261310.95115000004 1150.0000000000002 1338.5000000000002
decision_type=2 2 2 2 2 2 2 2 2 2 2 2 2 2 2 2 2 2 2 2 2 2 2
left_child=1 3 5 -1 7 9 12 -3 -8 11 -4 -2 13 21 -13 -7 18 -18 -14 20 -19 -5 -21
right_child=2 4 10 6 -6 15 8 -9 -10 -11 -12 14 16 -15 -16 -17 17 19 -20 22 -22 -23 -24
leaf_value=-1.2823691429437278 -1.2354009280772364 -1.2398130937162097 -1.1806046773996628 -1.5266038602494836 -1.084946079788242 -1.5013662727945554 -1.2952593085793094 -1.4451922878142316 -1.483090778430642 -1.182454940409555 -1.0053928149846643 -1.4635098916121632 -1.4905501638853005 -1.3273597487632092 -1.3324685721346521 -1.3810023941633598 -1.4435854804635357 -1.5068869950503208 -1.5266038602494834 -1.5266038602494836 -1.4635098916121632 -1.5266038602494834 -1.5266038602494834
leaf_weight=4.9133064746856681 4.1208376884460503 3.4868626594543439 4.9133064746856672 3.8038501739501935 3.1698751449584952 3.9623439311981183 4.7548127174377424 4.9133064746856689 4.5963189601898193 5.2302939891815177 3.6453564167022705 3.1698751449584961 5.5472815036773708 6.0227627754211426 4.1208376884460449 4.1208376884460449 6.0227627754211452 5.0718002319335955 25.517494916915894 6.0227627754211408 3.1698751449584961 3.3283689022064209 3.1698751449584961
leaf_count=31 26 22 31 24 20 25 30 31 29 33 23 20 35 38 26 26 38 32 161 38 20 21 20
internal_value=-1.40199 -1.4464 -1.27723 -1.46925 -1.2846 -1.33651 -1.48117 -1.35994 -1.38758 -1.28625 -1.10598 -1.33382 -1.4941 -1.43538 -1.38944 -1.44 -1.50826 -1.4925 -1.52017 -1.5094 -1.4902 -1.5266 -1.5266
internal_weight=0 93.5113 33.2837 81.9413 11.57 24.725 77.028 8.40017 9.35113 16.6418 8.55866 11.4116 67.6768 13.155 7.29071 8.08318 54.5219 23.4571 31.0648 17.4343 8.24168 7.13222 9.19264
internal_count=800 590 210 517 73 156 486 53 59 105 54 72 427 83 46 51 344 148 196 110 52 45 58
shrinkage=1


Tree=1
num_leaves=28
num_cat=0
split_feature=9 1 12 8 9 7 12 8 7 7 7 7 9 1 12 5 0 1 1 8 9 5 1 7 8 7 0
split_gain=57.9548 45.2289 21.0888 20.1445 12.5753 13.6511 10.6961 9.25975 7.90391 9.78395 7.37535 4.00012 2.94781 2.86618 7.24677 4.73441 4.00551 2.65471 2.52876 0.00454251 0.000481063 0.000552132 0.000333643 0.000203013 4.45492e-05 6.16166e-07 3.55271e-15
threshold=130.50000000000003 66.500000000000014 205.50000000000003 1.3947674940000001 138.50000000000003 264220.64730000007 11.500000000000002 0.90199490000000015 191284.99135000003 370953.94075000007 453643.46280000004 221773.43240000002 136.50000000000003 50.500000000000007 173.00000000000003 32.500000000000007 1813.5000000000002 56.500000000000007 70.500000000000014 0.94840649600000015 136.50000000000003 32.500000000000007 48.500000000000007 269353.27535000007 0.8075781365000001 272376.51080000011 1238.0000000000002
decision_type=2 2 2 2 2 2 2 2 2 2 2 2 2 2 2 2 2 2 2 2 2 2 2 2 2 2 2
left_child=-1 3 4 6 7 -6 -2 -3 12 13 -11 -5 -8 14 22 -16 19 -13 -4 20 25 -22 24 -23 -10 26 -15
right_child=1 2 18 11 5 -7 8 -9 9 10 -12 17 -14 16 15 -17 -18 -19 -20 -21 21 23 -24 -25 -26 -27 -28
leaf_value=0.312065904115856 0.12609664290015196 -0.048817142269275832 0.011927364697192813 0.15991028936865898 0.095637263483201729 0.32765204005568449 0.089651587617546602 0.15055488500101602 -0.12172723217053115 0.10999081632666707 -0.067529031863470743 0.096389340171097349 -0.039043934756530549 -0.12172723217053115 0.080907165487549004 -0.060089927391799219 -0.01211365815837198 -0.023080817506299728 -0.10000695516577635 -0.12589372831248133 -0.1236079797785945 -0.12259991876507995 -0.1230614182670943 -0.12172723217053119 -0.12223544078054974 -0.12177683425000407 -0.12172723217053122
leaf_weight=5.6625850498676291 2.7971643805503836 3.9426764845848137 4.3524207621812803 3.8101158887147886 4.4534777253866178 5.8896462768316269 3.6887146532535544 5.6936596035957336 4.1056972742080706 4.2349425256252271 5.2315565794706345 3.559119239449501 3.4392453879117966 11.437299549579626 3.8759161531925184 6.1764842718839645 3.6112189739942542 3.8958258032798767 3.7634444087743759 3.3809116780757895 3.3992919325828543 5.1105887889862043 4.2519156932830811 5.5720177292823792 2.9745074808597565 2.9367593079805365 5.5720177292823783
leaf_count=33 18 25 27 22 26 33 22 32 28 26 33 21 21 78 24 39 24 24 23 21 22 34 28 38 20 20 38
internal_value=0 -0.0152419 0.0959574 -0.048813 0.151176 0.227753 -0.0660791 0.0689824 -0.0728836 -0.0828449 0.0118864 0.076557 0.0275559 -0.0972152 -0.0675333 -0.00572551 -0.112689 0.0339563 -0.0399782 -0.122398 -0.12205 -0.122498 -0.122361 -0.122145 -0.121941 -0.121735 -0.121727
internal_weight=0 121.157 28.0953 93.0613 19.9795 10.3431 81.7963 9.63634 78.9991 71.8711 9.4665 11.2651 7.12796 62.4046 21.3845 10.0524 41.0201 7.45495 8.11587 37.4089 34.028 14.0819 11.3321 10.6826 7.0802 19.9461 17.0093
internal_count=800 767 166 601 116 59 534 57 516 473 59 67 43 414 139 63 275 45 50 251 230 94 76 72 48 136 116
shrinkage=0.1


Tree=2
num_leaves=31
num_cat=0
split_feature=8 1 9 7 6 12 7 6 1 9 5 7 0 7 9 10 9 1 9 0 3 1 7 1 1 1 5 0 7 0
split_gain=45.15 23.3986 21.8111 12.5961 10.0214 8.90547 8.61742 6.64019 6.27248 4.04375 12.0985 3.46965 2.80986 2.60062 3.96492 2.54497 1.73834 1.40132 1.37444 2.62875 1.67994 1.3455 0.271568 0.00338879 0.00172028 0.000688769 0.000436922 0.000356618 2.24496e-11 3.55271e-15
threshold=0.94840649600000015 70.500000000000014 130.50000000000003 185627.19490000003 1.0000000180025095e-35 207.50000000000003 283105.45055000007 1.0000000180025095e-35 64.000000000000014 139.50000000000003 36.500000000000007 279250.38630000007 1041.5000000000002 207028.73385000005 137.50000000000003 1.0000000180025095e-35 133.50000000000003 66.500000000000014 136.50000000000003 1102.5000000000002 265.00000000000006 48.500000000000007 275464.2687500001 66.500000000000014 50.500000000000007 50.500000000000007 39.000000000000007 1678.5000000000002 266552.39900000003 1050.5000000000002
decision_type=2 2 2 2 2 2 2 2 2 2 2 2 2 2 2 2 2 2 2 2 2 2 2 2 2 2 2 2 2 2
left_child=1 3 -2 -1 5 11 9 15 -6 16 -11 13 -7 -4 -15 -8 -5 26 22 25 -21 -17 23 24 -18 -20 -12 28 29 -26
right_child=2 -3 4 6 8 12 7 -9 -10 10 17 -13 -14 14 -16 21 18 -19 19 20 -22 -23 -24 -25 27 -27 -28 -29 -30 -31
leaf_value=0.092740490319482005 0.32492355812670887 0.13465282102557882 0.038850874086657217 -0.024087561088366561 0.072672874735720053 -0.12164800416361954 0.020647782116494998 0.10306815560378962 0.24970181660172763 0.11721844534947552 -0.11934561422534549 -0.015382467280923321 0.001389709918905965 0.07224999129482422 0.20489904929419561 -0.02577305952039868 -0.1217157669935757 -0.040741236743499644 -0.12210648279779249 0.010353119559568885 -0.08878380969639986 -0.10276247785261579 -0.088041575101929448 -0.12349497493405853 -0.11923706228606648 -0.12013135212346192 -0.12097157805643377 -0.12046512671372443 -0.1192367497548214 -0.11923706228606648
leaf_weight=5.4038878679275504 3.6139449924230567 7.0812348723411551 5.2300762981176439 2.9200678169727317 3.8839975893497449 3.492258056998252 4.7520710080862054 4.3146751523017874 4.1294256150722504 3.7260404974222174 2.9869125187396985 3.5211658775806418 3.9618266671895981 5.4596546590328199 3.8369291871786118 4.0058952420949936 4.0544555485248663 3.3165803551673889 3.2270989269018155 3.7836261093616486 3.1178822219371796 5.2382842749357224 2.9214648604392996 2.9036674052476874 7.983040854334833 3.8983666300773621 3.6996922045946121 2.8109248280525199 2.8413894027471533 4.0591733157634735
leaf_count=31 17 39 28 18 21 24 29 26 21 24 22 21 25 32 21 25 28 19 22 26 22 36 20 19 59 28 26 20 21 30
internal_value=0 -0.0397475 0.0915179 -0.0548145 0.0663499 0.0356974 -0.0652293 -0.0053912 0.163898 -0.0840394 -0.036593 0.0736749 -0.0562538 0.0952618 0.126998 -0.0388264 -0.0986707 -0.0938855 -0.103906 -0.0784211 -0.0344338 -0.0693997 -0.11687 -0.120286 -0.119858 -0.121026 -0.120245 -0.119432 -0.119237 -0.119237
internal_weight=0 89.0464 37.1293 81.9652 33.5153 25.5019 76.5613 18.3109 8.01342 58.2504 13.7292 18.0478 7.45408 14.5267 9.29658 13.9963 44.5212 10.0032 41.6011 14.027 6.90151 9.24418 27.5741 24.6527 21.749 7.12547 6.6866 17.6945 14.8836 12.0422
internal_count=800 590 210 551 193 151 520 116 42 404 91 102 49 81 53 90 313 67 295 98 48 61 197 177 158 50 48 130 110 89
shrinkage=0.1


Tree=3
num_leaves=31
num_cat=0
split_feature=8 1 9 7 9 6 12 7 3 1 12 1 5 1 3 0 9 5 9 7 7 7 12 0 12 1 9 3 0 7
split_gain=35.9159 19.6814 15.1024 11.5137 9.1527 7.17931 7.03797 6.78986 5.97877 5.14914 9.79752 4.13096 2.95791 3.96413 3.32815 2.57787 1.0249 1.76241 1.07686 0.646487 0.431979 0.000960764 0.000894161 0.000327208 0.000294102 0.000140179 4.80738e-05 1.63902e-06 7.52566e-10 2.17071e-12
threshold=0.94840649600000015 67.500000000000014 130.50000000000003 185627.19490000003 139.50000000000003 1.0000000180025095e-35 207.50000000000003 369966.94495000009 265.00000000000006 48.500000000000007 173.00000000000003 64.000000000000014 32.500000000000007 66.500000000000014 227.50000000000003 1041.5000000000002 136.50000000000003 32.500000000000007 133.50000000000003 268935.98150000005 261310.95115000004 279116.74450000009 95.500000000000014 1722.0000000000002 119.50000000000001 51.500000000000007 135.50000000000003 286.50000000000006 1183.0000000000002 265557.41405000008
decision_type=2 2 2 2 2 2 2 2 2 2 2 2 2 2 2 2 2 2 2 2 2 2 2 2 2 2 2 2 2 2
left_child=1 3 -2 -1 -3 6 12 9 -9 10 24 -7 -4 14 -14 -8 18 -18 -11 20 -19 23 -21 25 -5 -20 -27 28 29 -28
right_child=2 4 5 7 -6 11 15 8 -10 16 -12 -13 13 -15 -16 -17 17 19 21 22 -22 -23 -24 -25 -26 26 27 -29 -30 -31
leaf_value=0.079232858674477324 0.26310164067933711 -0.01555812614043922 0.13008911197221135 -0.11879877550879125 0.15051404809253136 0.062994771076321177 -0.11917386299221709 0.08110644431413809 -0.077414152261219851 -0.05059008462996565 0.061847948460302261 0.20195095570162672 0.074674504392678795 0.1091265616175206 -0.052296391397220032 0.0012496344417721092 -0.03272256465555979 -0.096453563305250012 -0.11792794069922499 -0.12031322457743804 -0.045521210481939335 -0.11948444380631568 -0.11805748611038541 -0.11849023977487594 -0.11736898359354409 -0.11755687346167787 -0.11707477096988582 -0.11716571115282229 -0.1170726781889625 -0.11707465298594111
leaf_weight=5.6766321659088126 3.9920102357864371 6.1254892796277982 4.9374409019947114 2.6496170684695226 7.2422115206718445 4.0245064496994001 3.2221371531486502 5.2211359441280347 4.3711854815483093 2.6696260720491436 6.3400377631187439 4.5674600750207901 3.4333642870187742 5.1668237745761862 5.1775243431329727 3.9651462286710739 5.5824064910411861 4.3282437920570356 3.0867887437343695 2.7374358475208282 2.7065373659133911 2.7070947140455237 4.9077421650290489 2.754261150956153 3.1477537676692009 2.7912332862615559 3.8618015646934492 2.5003775805234918 2.4912682622671127 2.6160462200641632
leaf_count=31 17 36 27 20 37 21 24 30 29 17 38 21 20 25 30 25 38 32 24 20 20 20 38 21 25 22 31 20 20 21
internal_value=0 -0.0371568 0.0789618 -0.0575465 0.0744147 0.0576514 0.0313764 -0.0690544 0.00886919 -0.0819689 -0.0240662 0.136863 0.0636791 0.0398801 -0.0016701 -0.0527375 -0.0973335 -0.0805481 -0.110682 -0.0987349 -0.076858 -0.117716 -0.118865 -0.117478 -0.118022 -0.117317 -0.117185 -0.117094 -0.117074 -0.117075
internal_weight=0 86.5149 38.4864 73.1472 13.3677 34.4944 25.9024 67.4706 9.59232 57.8783 12.1374 8.59197 18.7152 13.7777 8.61089 7.18728 45.7409 20.2624 25.4785 14.68 7.03478 22.8089 7.64518 20.1018 5.79737 17.3475 14.2607 11.4695 8.96912 6.47785
internal_count=800 590 210 517 73 193 151 486 59 427 83 42 102 75 50 49 344 148 196 110 52 179 58 159 45 138 114 92 72 52
shrinkage=0.1


Tree=4
num_leaves=31
num_cat=0
split_feature=8 1 9 12 8 1 3 6 12 8 12 12 6 5 8 8 0 12 4 7 8 12 0 0 7 1 7 9 1 7
split_gain=28.9638 16.3795 11.451 10.2636 11.0144 9.13427 6.31648 6.41566 6.56179 5.03705 5.01417 10.2791 4.01178 3.21363 3.1741 3.10446 3.03917 2.43884 1.50501 1.49729 0.691482 0.296481 0.331395 0.222428 0.0334548 0.0142017 0.00434244 0.00097096 0.00041002 2.41428e-05
threshold=0.94840649600000015 70.500000000000014 130.50000000000003 43.500000000000007 0.81831832150000017 50.500000000000007 87.000000000000014 1.0000000180025095e-35 207.50000000000003 0.86190911400000014 173.00000000000003 207.50000000000003 1.0000000180025095e-35 42.500000000000007 1.0002288260000001 1.4973943030000003 781.00000000000011 186.50000000000003 1.0000000180025095e-35 261585.40865000003 1.0216315745 248.00000000000003 1749.0000000000002 661.00000000000011 209065.13090000002 64.000000000000014 282673.25040000008 136.50000000000003 58.500000000000007 266202.91915000003
decision_type=2 2 2 2 2 2 2 2 2 2 2 2 2 2 2 2 2 2 2 2 2 2 2 2 2 2 2 2 2 2
left_child=1 3 -2 4 -1 10 -4 8 14 -6 19 -12 21 17 -8 -16 -13 -14 -18 -5 -10 22 24 -21 -7 26 27 29 -29 -26
right_child=2 -3 6 5 9 12 7 -9 20 -11 11 16 13 -15 15 -17 18 -19 -20 23 -22 -23 -24 -25 25 -27 -28 28 -30 -31
leaf_value=-0.096338661777898266 0.22576897485855088 0.10389449064085876 0.16994291622950009 -0.012638881008452381 0.20190409525366759 -0.12816424610994701 -0.037879364462939984 0.11291402285059854 -0.050530495103239217 0.03676223013132162 0.17727384446484193 -0.085110048989230788 0.070544973806612135 -0.10070958259693648 0.10636347721797623 0.010262974827231411 0.070911738418002149 -0.056531784150873822 -0.022772356084568946 -0.078178982119854343 -0.12082760471344721 -0.079099962822641173 -0.081648139445947565 -0.11663184413260091 -0.11518462070861346 -0.12405456163562334 -0.12025627403058892 -0.1177965397289546 -0.11601177585844689 -0.1155489668272002
leaf_weight=3.9664590209722501 4.1750131398439398 7.7323568165302268 3.9388453289866439 2.7418130636215228 3.3102212697267532 3.3694354742765524 4.1253068745136359 7.9832344055175772 2.826633818447589 4.1783351600170135 3.2575755268335334 4.7603980600833875 3.0405189096927625 5.0421266332268715 7.3334455788135511 6.2064205855131149 3.0706343054771423 3.0007782354950905 3.8835054636001587 2.5082229450345039 2.771051399409771 2.469467766582965 2.6439225971698752 3.7583254277706146 8.3548323810100609 2.812647506594657 2.5476357713341704 2.6667789593338957 2.4881771132349968 2.3247483521699897
leaf_count=29 17 39 22 20 20 21 23 37 20 26 19 29 20 38 38 33 20 21 25 20 20 19 20 31 73 19 19 21 21 20
internal_value=0 -0.0347832 0.0691865 -0.0488561 0.0383962 -0.064294 0.0506066 0.0355632 0.00901834 0.109761 -0.0153229 0.0201463 -0.0931045 -0.0417684 0.0389152 0.0623128 -0.0235477 0.00742456 0.0185943 -0.0742737 -0.08533 -0.112277 -0.115288 -0.101241 -0.118908 -0.117437 -0.116424 -0.115808 -0.116935 -0.115264
internal_weight=0 83.9289 39.36 76.1966 11.455 64.7415 35.1849 31.2461 23.2629 7.48856 23.9805 14.9721 40.7611 11.0834 17.6652 13.5399 11.7145 6.0413 6.95414 9.00836 5.59769 29.6776 27.2082 6.26655 24.5643 21.1948 18.3822 15.8345 5.15496 10.6796
internal_count=800 590 210 551 75 476 193 171 134 46 164 93 312 79 94 71 74 41 45 71 40 233 214 51 194 173 154 135 42 93
shrinkage=0.1


Tree=5
num_leaves=31
num_cat=0
split_feature=8 1 7 9 7 9 7 6 3 12 9 8 1 12 8 9 5 7 8 7 3 8 12 1 12 12 0 8 0 8
split_gain=23.5837 13.7086 9.70336 9.03178 6.95539 6.71172 5.94806 5.58688 5.49678 5.24152 5.07177 3.35371 2.32859 5.0456 2.31664 1.34288 1.66335 0.704756 0.672945 0.432155 0.312552 0.0268485 0.00181518 0.00121141 0.000597304 0.000550952 0.000111521 1.85284e-05 1.2047e-07 1.06413e-08
threshold=0.95047041800000021 67.500000000000014 185627.19490000003 130.50000000000003 369966.94495000009 139.50000000000003 453643.46280000004 1.0000000180025095e-35 87.000000000000014 207.50000000000003 131.50000000000003 1.0002288260000001 48.500000000000007 173.00000000000003 1.4973943030000003 136.50000000000003 32.500000000000007 268935.98150000005 1.0216315745 261310.95115000004 820.00000000000011 0.88414051650000014 95.500000000000014 50.500000000000007 108.50000000000001 116.50000000000001 1607.5000000000002 0.81605432400000011 509.00000000000006 0.83011610550000003
decision_type=2 2 2 2 2 2 2 2 2 2 2 2 2 2 2 2 2 2 2 2 2 2 2 2 2 2 2 2 2 2
left_child=1 2 -1 -2 10 -3 -6 8 -5 11 -4 -10 13 24 -13 20 -17 19 -11 -18 21 23 -19 -14 -12 -25 27 -27 -29 -30
right_child=3 5 4 7 6 -7 -8 -9 9 18 12 14 15 -15 -16 16 17 22 -20 -21 -22 -23 -24 25 -26 26 -28 28 29 -31
leaf_value=0.073888845917305129 0.20064089371896038 -0.019216812208298559 0.060182514282020462 0.14609883210415761 0.08420638428879311 0.12000384731359535 -0.073978526437379663 0.11633078072022141 -0.052648430974179587 -0.047099815311006592 -0.1162557847474758 0.091243005625698537 -0.11636216899116202 0.019535953278479817 0.0091882217613634236 -0.027198203463590576 -0.090638774699761226 -0.11826550127324741 -0.11848358030751863 -0.037156493203637363 -0.078871436850578833 -0.12586571166379254 -0.11486077933795645 -0.11551885656247272 -0.11408864318774004 -0.11386610580183061 -0.11441878466480633 -0.11355967928418496 -0.11353539052409301 -0.11352578085468329
leaf_weight=5.7688675075769416 4.2243450582027426 6.2261016666889173 2.6096961870789519 3.1765933632850674 5.5354978293180448 7.802118644118309 4.1661335155367851 8.463937893509863 3.7017916291952195 2.7342355772852889 2.2545172423124296 7.6738364696502668 2.7547918483615019 6.0398871004581451 6.2374197393655777 5.308809936046603 3.8485825806856138 2.4795430153608322 2.5543938651680946 2.487278588116169 2.5981231480836859 2.3614831492304793 4.2494820132851601 2.1710328832268706 2.9177581146359444 2.3487586975097638 2.1943280696868888 2.1028557792305946 2.415105514228344 2.203890897333622
leaf_count=31 17 36 15 17 31 37 29 38 21 20 19 38 23 35 33 38 32 20 20 20 22 18 38 19 27 22 20 20 23 21
internal_value=0 -0.0318827 -0.0502489 0.0626172 -0.0616075 0.058214 0.0162777 0.0457376 0.022826 0.00572733 -0.0757719 0.0319423 -0.082765 -0.0425421 0.0544519 -0.0941754 -0.0743989 -0.0935785 -0.081578 -0.0696432 -0.111356 -0.115905 -0.116115 -0.114452 -0.115033 -0.11406 -0.113779 -0.113624 -0.11354 -0.113531
internal_weight=0 82.8446 68.8164 38.7666 63.0476 14.0282 9.70163 34.5422 26.0783 22.9017 53.3459 17.613 50.7362 11.2122 13.9113 39.5241 18.3737 13.0649 5.28863 6.33586 21.1504 18.5522 6.72903 16.1908 5.17228 13.436 11.2649 9.07061 6.72185 4.619
internal_count=800 596 523 204 492 73 60 187 149 132 432 92 417 81 71 336 148 110 40 52 188 166 58 148 46 125 106 86 64 44
shrinkage=0.1


Tree=6
num_leaves=31
num_cat=0
split_feature=9 1 12 5 7 1 9 8 12 12 7 7 0 0 9 10 8 8 12 0 0 8 9 3 5 1 12 7 12 0
split_gain=19.4806 19.003 12.6353 11.5019 8.71817 7.18674 6.81386 6.31796 5.26272 6.00608 4.12702 3.68336 4.88344 2.43988 2.39167 1.69981 4.01079 0.717182 0.619545 0.877664 0.547618 0.325336 0.226353 0.00166595 0.00138693 0.00094138 0.00049779 5.87839e-05 4.62355e-05 4.06346e-07
threshold=130.50000000000003 66.500000000000014 11.500000000000002 42.500000000000007 191284.99135000003 48.500000000000007 139.50000000000003 0.90199490000000015 173.00000000000003 213.50000000000003 263339.30690000008 370953.94075000007 1813.5000000000002 935.00000000000011 136.50000000000003 1.0000000180025095e-35 0.90350468250000004 0.86360110600000006 214.50000000000003 1041.5000000000002 1011.5000000000001 0.94840649600000015 139.50000000000003 80.500000000000014 39.000000000000007 50.500000000000007 92.500000000000014 264913.53140000004 195.00000000000003 766.50000000000011
decision_type=2 2 2 2 2 2 2 2 2 2 2 2 2 2 2 2 2 2 2 2 2 2 2 2 2 2 2 2 2 2
left_child=-1 2 -2 6 14 8 7 -3 13 -10 -5 12 15 -6 -4 16 24 -8 21 -20 -13 22 23 27 -7 -25 -27 -17 -28 -29
right_child=1 3 4 10 5 11 17 -9 9 -11 -12 20 -14 -15 -16 18 -18 -19 19 -21 -22 -23 -24 25 -26 26 28 29 -30 -31
leaf_value=0.15698660710296597 0.13237787185680011 -0.052913435735655795 0.094920802472518939 -0.085970135700212669 -0.00267809193443191 -0.11687717933633726 0.18947588844614835 0.10627728944011337 0.14022045739549754 -0.020778267021717832 0.035290727464703783 -0.037129805460304824 0.011539526221180639 -0.11788254536990186 -0.0091670498748139522 -0.11275001173086639 0.031805828927785211 0.13496776461849705 -0.11627104582618863 -0.030453044922924773 0.020685425302471205 -0.13465054237216545 -0.084141555756025235 -0.11605011531600258 -0.11344917650434286 -0.11472426164176049 -0.11339975006806276 -0.11207734643831957 -0.11278294950814927 -0.11213427919491177
leaf_weight=7.2541163861751548 4.1420966759324065 4.1589720696210914 4.726902671158312 5.7931819036602956 3.3528022468090084 2.2512028440833083 4.2772392481565458 6.2242564558982849 3.9791085571050626 5.5475477576255798 5.4444228485226631 3.2429505214095107 4.4167198389768592 4.0698950216174126 4.1417049914598465 1.9928671345114803 3.0617188587784767 5.5406782403588295 2.5555532574653617 2.2330213412642479 3.3109486177563667 6.5646610260009757 3.0900159925222388 2.3182950466871253 2.4809256866574287 3.2935053408145887 2.8855311870574951 2.2113748118281364 2.0996020138263702 2.8945934399962425
leaf_count=33 24 28 25 34 27 19 19 30 21 33 29 20 33 35 25 20 19 26 23 18 20 36 27 20 24 30 28 23 21 30
internal_value=0 -0.0120968 -0.037746 0.0538754 -0.0469308 -0.0591178 0.0989884 0.0425139 -0.00271779 0.0464679 -0.0272214 -0.0778973 -0.0882381 -0.0658452 0.046311 -0.0992739 -0.0573777 0.158715 -0.109434 -0.0762522 -0.00792227 -0.115243 -0.109114 -0.113475 -0.11508 -0.114269 -0.11377 -0.112289 -0.11314 -0.11211
internal_weight=0 112.302 80.8635 31.4388 76.7214 67.8528 20.2011 10.3832 16.9494 9.52666 11.2376 50.9035 44.3496 7.4227 8.86861 39.9329 7.79385 9.81792 32.139 4.78857 6.5539 27.3504 20.7858 17.6958 4.73213 10.5969 8.27864 7.09884 4.98513 5.10597
internal_count=800 767 601 166 577 527 103 58 116 54 63 411 371 62 50 338 62 45 276 41 40 235 199 172 43 99 79 73 49 53
shrinkage=0.1


Tree=7
num_leaves=31
num_cat=0
split_feature=8 1 12 8 1 9 3 0 0 0 6 1 7 7 1 7 3 8 1 5 7 1 0 12 0 7 1 7 9 7
split_gain=17.8294 10.396 7.45006 8.30116 7.12236 6.39965 4.70911 4.38143 8.05863 4.2644 4.00249 3.99525 9.88914 4.41166 3.71884 3.47346 3.22473 2.88561 2.19663 1.78652 0.75484 0.713748 0.355505 0.312975 0.378657 0.0413955 0.0230021 0.00531953 0.00103061 0.000331227
threshold=0.94840649600000015 70.500000000000014 65.000000000000014 0.81831832150000017 50.500000000000007 130.50000000000003 82.500000000000014 1287.5000000000002 1673.5000000000002 1109.5000000000002 1.0000000180025095e-35 64.000000000000014 207028.73385000005 189993.87445000003 68.500000000000014 283475.3906000001 265.00000000000006 1.3579297210000003 57.500000000000007 42.500000000000007 274955.87695000006 48.500000000000007 661.00000000000011 248.00000000000003 1759.5000000000002 242559.63675000003 64.000000000000014 282673.25040000008 136.50000000000003 269353.27535000007
decision_type=2 2 2 2 2 2 2 2 2 2 2 2 2 2 2 2 2 2 2 2 2 2 2 2 2 2 2 2 2 2
left_child=1 2 3 -1 7 -2 -7 16 -9 -5 23 13 -13 -8 -14 19 21 -15 -19 -12 -18 22 -4 24 25 -6 27 28 -27 -30
right_child=5 -3 4 9 10 6 11 8 -10 -11 15 12 14 17 -16 -17 20 18 -20 -21 -22 -23 -24 -25 -26 26 -28 -29 29 -31
leaf_value=-0.094096534264581491 0.17071237062476369 0.076412164915660108 -0.087665476915239335 0.14952743077738867 -0.12554381287175304 0.1449285319990232 0.090289608359559473 0.13303596093165368 -0.068400004384487317 0.0084026742299688449 -0.019076401525919134 -0.08286890097139088 0.16508536722653502 -0.088963651660031076 0.044290113800524437 0.069612106579520938 -0.02555474029386989 0.052216958770997329 -0.044699432312977384 -0.1173255472699089 0.046203227945059905 -0.12544811283127488 -0.035799942491677207 -0.071849893138774032 -0.071947013069101159 -0.11087513215395056 -0.12346510603271579 -0.1169189619405904 -0.11365573831295583 -0.11186681790927931
leaf_weight=3.8713749423623076 4.089635655283927 8.213748484849928 3.0132330730557459 4.4942839443683607 3.638076029717932 3.7408006489276877 3.9110493212938335 4.5399317890405637 3.5304757654666901 4.0894865319132805 3.7891774624586088 3.3369633704423896 6.119786471128462 5.2112334966659537 4.3675233125686646 2.4826164767146111 2.985540844500064 4.6900692507624608 4.6645428091287613 3.6178420707583427 2.8800949528813362 3.0579526126384735 2.353990912437439 2.1707184165716162 2.1722803711891165 8.1340684443712252 2.1298909783363333 2.1522220745682707 2.1925698593258849 1.9604350477457044
leaf_count=32 17 39 23 26 26 18 21 30 25 25 29 19 27 34 21 15 21 26 27 33 19 22 19 19 18 92 16 19 21 21
internal_value=0 -0.0299593 -0.0425749 0.0274664 -0.0579333 0.0521636 0.0387121 -0.0139876 0.0449159 0.0822927 -0.0864665 0.0264111 0.0670701 -0.00400958 0.114779 -0.0327544 -0.0472519 -0.0293297 0.00389099 -0.0670646 0.00967925 -0.0868876 -0.064918 -0.108103 -0.11162 -0.115885 -0.113764 -0.112333 -0.11153 -0.112811
internal_weight=0 77.47 69.2563 12.4551 56.8011 40.1316 36.042 22.3612 8.07041 8.58377 34.4399 32.3012 13.8243 18.4769 10.4873 9.88964 14.2908 14.5658 9.35461 7.40702 5.86564 8.42518 5.36722 24.5503 22.3795 20.2073 16.5692 14.4393 12.2871 4.153
internal_count=800 590 551 83 468 210 193 159 55 51 309 175 67 108 48 77 104 87 53 62 40 64 42 232 213 195 169 153 134 42
shrinkage=0.1


Tree=8
num_leaves=31
num_cat=0
split_feature=8 3 6 12 7 11 8 11 8 12 3 8 3 1 0 7 1 3 5 7 1 0 9 0 1 5 8 1 1 8
split_gain=14.7361 10.5059 6.03539 5.50892 5.21622 6.23546 4.57005 4.48937 8.39938 3.51071 3.65315 3.49803 3.3617 3.10543 2.90471 2.63802 2.61187 2.82517 2.40938 4.54522 2.10012 1.67686 1.57316 1.4773 0.781391 0.6493 0.296573 0.0218066 0.0186133 0.00710795
threshold=0.95047041800000021 691.00000000000011 1.0000000180025095e-35 205.50000000000003 283105.45055000007 1.0000000180025095e-35 0.85682423000000008 1.0000000180025095e-35 1.8217453400000003 65.000000000000014 126.00000000000001 0.81831832150000017 139.00000000000003 73.000000000000014 1132.0000000000002 377216.18640000006 51.500000000000007 579.50000000000011 32.500000000000007 263339.30690000008 64.000000000000014 785.00000000000011 138.50000000000003 1382.5000000000002 50.500000000000007 32.500000000000007 0.89465563850000007 66.500000000000014 58.500000000000007 0.82686520900000005
decision_type=2 2 2 2 2 2 2 2 2 2 2 2 2 2 2 2 2 2 2 2 2 2 2 2 2 2 2 2 2 2
left_child=1 4 7 6 9 12 11 8 18 10 -1 23 -6 14 26 -14 17 -16 -2 21 -4 -20 -21 -3 -7 29 27 28 -11 -18
right_child=2 3 20 -5 5 24 -8 -9 -10 13 -12 -13 15 -15 16 -17 25 -19 19 22 -22 -23 -24 -25 -26 -27 -28 -29 -30 -31
leaf_value=-0.075531000126743367 0.067258139725083751 0.024057996246814144 0.070481310135847255 -0.06633152544338114 0.11461830439312 -0.050131373997246764 -0.021017507378767439 -0.077298397144969389 0.1654835692651456 -0.11769341151588522 0.061992418438105872 0.20175315186467149 0.059954863241482151 0.021055893469118792 0.043887204693134202 -0.064343786112210061 -0.063793557441334511 -0.087027395852209574 -0.024281018043220751 -0.0024941304388848159 0.15661062956398031 -0.12616428732792936 0.089631116928732157 0.12708371189534823 -0.12677111727109255 -0.11568411757843744 -0.07619060352385687 -0.1251841816619613 -0.11025056319918827 -0.055071675540494115
leaf_weight=3.6474778652191153 5.4528771564364531 3.1772045865654928 6.3165082186460477 3.4074510410428038 4.2476174682378787 2.7753518223762503 3.3856655731797209 3.8612205386161795 4.2964084744453421 8.7152963057160431 4.1059926003217697 3.0721271857619286 3.6240450441837311 2.985093191266059 4.197375461459159 3.2285334765911102 1.9762788936495765 2.7144695296883583 3.4240893572568876 3.8148873001337051 5.1304402500391006 3.0583280026912689 3.6054381877183914 2.4767646118998528 2.5550837814807892 4.6197480782866478 2.0735676959156981 2.3713166117668143 5.4682439044117919 1.7723376080393789
leaf_count=25 28 26 29 27 23 20 21 25 21 80 26 16 23 15 34 21 21 21 20 23 21 20 17 14 20 45 15 17 66 20
internal_value=0 -0.027475 0.0480644 0.0459962 -0.0461432 0.00203003 0.0775979 0.0226771 0.0389983 -0.0638715 -0.00270295 0.11586 0.0447197 -0.0767265 -0.0853346 0.00139262 -0.0530185 -0.00752652 0.010922 -0.0111739 0.109084 -0.0723483 0.0422683 0.0691892 -0.0868678 -0.0905925 -0.111842 -0.116308 -0.114824 -0.0596699
internal_weight=0 76.597 38.9602 15.5192 61.0778 16.4306 12.1118 27.5132 23.652 44.6472 7.75347 8.7261 11.1002 36.8937 33.9086 6.85258 15.2802 6.91184 19.3556 13.9027 11.4469 6.48242 7.42033 5.65397 5.33044 8.36836 18.6284 16.5549 14.1835 3.74862
internal_count=800 596 204 104 492 107 77 154 129 385 51 56 67 334 319 44 141 55 108 80 50 40 40 40 40 86 178 163 146 41
shrinkage=0.1


Tree=9
num_leaves=31
num_cat=0
split_feature=9 1 7 5 12 12 1 9 12 12 8 7 0 8 0 10 8 12 0 8 7 8 8 12 6 5 5 7 0 1
split_gain=12.8174 12.181 8.60451 7.77712 6.0252 5.71915 5.90548 5.13679 4.42727 4.17942 3.73989 3.04101 4.45656 2.96945 2.34884 1.6106 3.208 0.659947 0.943873 0.650781 0.569462 0.325527 0.1559 0.00540331 0.00313582 0.00143522 0.000793465 0.000524125 1.66348e-05 2.29983e-06
threshold=130.50000000000003 66.500000000000014 191284.99135000003 42.500000000000007 76.500000000000014 11.500000000000002 48.500000000000007 139.50000000000003 173.00000000000003 214.50000000000003 0.90199490000000015 370953.94075000007 1813.5000000000002 0.96269485050000014 935.00000000000011 1.0000000180025095e-35 0.90350468250000004 214.50000000000003 1041.5000000000002 0.86360110600000006 389548.82465000002 0.76023186000000009 1.0154574820000002 186.50000000000003 1.0000000180025095e-35 39.000000000000007 27.500000000000004 266714.04705000011 1141.5000000000002 60.500000000000007
decision_type=2 2 2 2 2 2 2 2 2 2 2 2 2 2 2 2 2 2 2 2 2 2 2 2 2 2 2 2 2 2
left_child=-1 2 4 7 -2 -4 8 10 14 -10 -3 12 15 -5 -7 16 25 21 -19 -9 -13 -17 23 24 27 -8 28 -23 29 -25
right_child=1 3 5 13 -6 6 11 19 9 -11 -12 20 -14 -15 -16 17 -18 18 -20 -21 -22 22 -24 26 -26 -27 -28 -29 -30 -31
leaf_value=0.12815712591594675 0.13893871501803343 -0.048608226941785411 0.08500833185933189 -0.072802977036581729 -0.015003393003847652 0.00023129273413246632 -0.11420075021051346 0.15679735942339967 0.10046285093984371 -0.032680869769469698 0.074391988490286776 0.02281742901155373 0.01435992956033145 0.033352495984662965 -0.11663125173332455 -0.083038924091642166 0.023316678387904563 -0.11462987270997799 -0.019310834279099954 0.10580742699497821 -0.036612768306277334 -0.11304759187815146 -0.13137755716276053 -0.10881848896432667 -0.11672876461156841 -0.1103687968017671 -0.11128776979050881 -0.11102336339732002 -0.10911378434632793 -0.10865601325428437
leaf_weight=7.0881570726633063 4.5049408748745901 3.9534288421273285 3.1605544164776793 6.1746229529380781 5.8363693505525589 3.1938256844878223 1.9118982553482049 4.4041148573160154 5.3936588764190656 4.1884231418371201 6.5968501716852188 3.0890899747610083 4.2421377003192893 4.5967661812901497 3.7268225625157356 3.3349146321415963 3.1528666988015175 2.1544313803315154 2.0062579065561295 5.7985956817865372 3.3726191893219948 2.5873375236988085 5.3581750690937033 2.0066133067011838 1.985667437314987 1.9997188299894331 1.8188026919960973 2.5298396795988083 1.913613438606262 1.5396771654486654
leaf_count=33 22 28 18 38 34 27 19 19 28 26 30 16 33 25 35 36 19 23 18 26 24 27 31 27 18 24 21 29 25 21
internal_value=0 -0.0107166 -0.0326381 0.0414427 0.0520578 -0.0461823 -0.0529237 0.0772261 -0.00175391 0.0422644 0.028301 -0.0716875 -0.0823312 -0.0275004 -0.0627001 -0.0942897 -0.0517423 -0.105326 -0.0686676 0.127818 -0.00820152 -0.111936 -0.116818 -0.111394 -0.113356 -0.112242 -0.109479 -0.112047 -0.108876 -0.108748
internal_weight=0 106.533 75.0083 31.5244 10.3413 64.6669 61.5064 20.753 16.5027 9.58208 10.5503 45.0037 38.542 10.7714 6.92065 34.2998 7.06448 27.2353 4.16069 10.2027 6.46171 23.0746 19.7397 14.3816 7.10284 3.91162 7.27871 5.11718 5.4599 3.54629
internal_count=800 767 601 166 56 545 527 103 116 54 58 411 371 63 62 338 62 276 41 45 40 235 199 168 74 43 94 56 73 48
shrinkage=0.1


Tree=10
num_leaves=31
num_cat=0
split_feature=8 3 6 7 6 8 3 1 1 12 7 0 6 7 12 7 5 12 3 1 1 12 8 7 5 1 1 12 1 3
split_gain=11.2021 8.2966 4.72047 4.37309 5.20741 4.12027 3.4973 3.36957 5.09301 2.85556 3.02487 2.72227 3.29181 2.70202 4.66631 3.22472 2.59979 4.85554 1.68538 1.54485 1.53615 1.4272 1.32859 1.24419 0.334438 0.0143722 0.0131794 0.0115012 0.00887575 0.000808106
threshold=0.95047041800000021 691.00000000000011 1.0000000180025095e-35 283105.45055000007 1.0000000180025095e-35 0.85682423000000008 87.000000000000014 67.500000000000014 56.500000000000007 65.000000000000014 261310.95115000004 1132.0000000000002 1.0000000180025095e-35 279556.07240000006 207.50000000000003 207028.73385000005 32.500000000000007 212.50000000000003 579.50000000000011 64.000000000000014 70.500000000000014 173.00000000000003 0.82549779950000024 268400.59805000009 47.500000000000007 57.500000000000007 66.500000000000014 185.50000000000003 59.500000000000007 96.500000000000014
decision_type=2 2 2 2 2 2 2 2 2 2 2 2 2 2 2 2 2 2 2 2 2 2 2 2 2 2 2 2 2 2
left_child=1 3 6 9 21 7 -2 8 -3 10 -1 20 16 14 15 -8 17 -13 -14 -4 24 -5 -23 -17 25 27 29 -11 -18 -27
right_child=2 5 19 4 -6 -7 13 -9 -10 11 -12 12 18 -15 -16 23 28 -19 -20 -21 -22 22 -24 -25 -26 26 -28 -29 -30 -31
leaf_value=0.064929532697971554 0.10570176723096465 0.1206385840284766 0.062284978981300865 -0.077278775994171531 0.10093295817284616 -0.03551892241914139 -0.018254715581149848 0.16606198079285328 -0.044130172862342831 -0.11355167758455931 -0.06091269946521858 0.087109397142158887 0.0881158912574736 -0.0695285709470264 -0.075888287100640495 0.1086465214991274 -0.11508968426685495 -0.11095364532852714 -0.032756979910971512 0.13661047706802618 -0.018076875403527332 -0.035564548607714908 0.050513614773589358 0.036915832435346539 -0.073712526814198792 -0.10784158912188715 -0.1193859919021449 -0.12144563384424019 -0.12335590760811298 -0.11051416021026342
leaf_weight=3.4326954185962668 3.9740195497870472 3.8324292674660665 6.1849565953016263 4.2966183423995989 3.9721496701240531 4.9018367677927008 5.2310367971658769 2.9539443179965019 3.6747454181313515 3.4060751944780403 4.3062704354524612 2.3090205118060094 2.3667994663119307 4.0961652696132651 4.0180229768156996 5.7985561341047269 3.6910794526338577 2.6678185909986496 2.2503666281700134 5.1043767631053925 2.1008152514696112 5.1658642515540123 2.7463811188936234 4.147855132818222 2.306643918156623 3.0958565920591354 1.5566858202219007 4.0287605449557304 2.0042799189686775 1.7829732298851011
leaf_count=22 19 26 29 35 21 32 26 13 33 38 29 19 20 25 33 30 38 33 20 21 10 33 18 21 23 46 13 34 17 23
internal_value=0 -0.0251448 0.0415122 -0.0425905 0.00147651 0.0401356 0.0189969 0.0755856 0.0399846 -0.059853 -0.00509412 -0.0724777 -0.0413408 0.00420331 0.0199371 0.0453056 -0.0718607 -0.0190617 0.0292035 0.0958906 -0.0985237 -0.0308816 -0.00568637 0.0787334 -0.108971 -0.114834 -0.111375 -0.117829 -0.117999 -0.108818
internal_weight=0 72.8501 38.555 57.4872 16.181 15.363 27.2657 10.4611 7.50717 41.3061 7.73897 33.5672 15.2894 23.2916 19.1955 15.1774 10.6722 4.97684 4.61717 11.2893 18.2778 12.2089 7.91225 9.94641 16.177 13.8704 6.43552 7.43484 5.69536 4.87883
internal_count=800 596 204 492 107 104 154 72 59 385 51 334 147 135 110 77 107 52 40 50 187 86 51 51 177 154 82 72 55 69
shrinkage=0.1


Tree=11
num_leaves=31
num_cat=0
split_feature=9 1 7 12 12 12 1 8 3 5 3 7 6 7 1 3 6 0 8 5 8 8 8 1 12 8 6 8 5 0
split_gain=9.99951 9.14397 7.20321 6.48083 5.0957 4.89344 5.50892 4.51903 4.36409 3.46068 3.32141 3.93908 2.27275 3.40824 2.11537 1.96063 2.49582 1.59587 1.67481 1.45103 1.30863 0.306867 0.116914 0.027303 0.0170887 0.00902142 0.00393692 0.00343886 0.000474271 0.000348527
threshold=130.50000000000003 66.500000000000014 191284.99135000003 205.50000000000003 75.500000000000014 11.500000000000002 58.500000000000007 1.3579297210000003 954.00000000000011 42.500000000000007 275.00000000000006 370953.94075000007 1.0000000180025095e-35 270139.41380000004 70.500000000000014 227.50000000000003 1.0000000180025095e-35 1582.0000000000002 0.83979313000000011 22.500000000000004 1.5210821090000002 0.75447126300000023 1.0216315745 48.500000000000007 147.50000000000003 0.89198869800000014 1.0000000180025095e-35 0.83110703150000009 27.500000000000004 1294.5000000000002
decision_type=2 2 2 2 2 2 2 2 2 2 2 2 2 2 2 2 2 2 2 2 2 2 2 2 2 2 2 2 2 2
left_child=-1 2 4 9 -2 -4 7 8 10 12 11 15 13 -3 -5 16 21 22 -19 -12 -9 -7 25 -21 -23 26 28 29 -8 -25
right_child=1 3 5 14 -6 6 17 20 -10 -11 19 -13 -14 -15 -16 -17 -18 18 -20 23 -22 24 -24 27 -26 -27 -28 -29 -30 -31
leaf_value=0.1137340947991872 0.13514720356176099 0.10700238459875032 0.076818580062419095 0.0041513081933908487 -0.0086117714992048379 -0.073710434158902993 -0.10710629525117826 0.082210530756915978 0.06854441624582687 -0.0024867937506922004 -0.023106540035035258 0.035781118679228674 0.13545625282571463 -0.0030897225372422989 -0.10164720582212117 0.026346169100746705 0.012440731390302559 -0.10906662264114036 0.025063266954765337 -0.12431221499323052 0.0021389299064110902 -0.11234046474663731 -0.13347180206072254 -0.10997214533666955 -0.12290072700244532 -0.11700328079293304 -0.11321353766211813 -0.11550501946130982 -0.10884826823304197 -0.11191478537225791
leaf_weight=6.9798668622970572 4.0409306138753873 6.3931395336985677 3.2425440177321425 4.0760631188750258 6.3250252977013588 2.194321054965263 3.771640896797182 3.4960106983780843 2.9905624762177458 6.2322738319635382 2.0152594968676558 5.8754198327660552 5.7995022237300864 5.0201164558529854 3.523517370223999 2.0463203303515902 2.2694712355732909 1.8344427347183221 1.8900855332612989 3.0433379337191564 4.9044696912169456 3.287470355629921 2.807747356593608 2.0407455116510396 2.8702230118215084 1.6834844313561905 1.7199577800929544 2.7660974226891994 2.6689391955733299 1.6869566105306146
leaf_count=33 18 30 18 27 38 23 61 19 22 35 17 35 28 23 23 21 20 25 15 23 27 37 16 26 22 16 18 28 37 19
internal_value=0 -0.00996563 -0.0296489 0.0353496 0.0474294 -0.0427245 -0.0494235 -0.0300376 -0.0466678 0.0613627 -0.0581163 -0.0318951 0.0844809 0.0585784 -0.0449018 -0.0632837 -0.0805517 -0.0985346 -0.0409998 -0.100205 0.0354622 -0.10582 -0.115472 -0.116496 -0.117263 -0.110338 -0.108963 -0.112834 -0.107828 -0.110851
internal_weight=0 102.516 71.4715 31.0446 10.366 61.1055 57.863 41.4867 33.0862 23.445 30.0956 18.5432 17.2128 11.4133 7.59958 12.6678 10.6215 16.3763 3.72453 11.5524 8.40048 8.35201 12.6518 9.53714 6.15769 9.84402 8.16054 6.4938 6.44058 3.7277
internal_count=800 767 601 166 56 545 527 339 293 116 271 158 81 53 50 123 102 188 40 113 46 82 148 96 59 132 116 73 98 45
shrinkage=0.1


Tree=12
num_leaves=31
num_cat=0
split_feature=8 1 1 12 5 1 3 12 7 12 0 4 0 9 8 7 8 0 0 7 8 1 12 0 0 8 7 4 6 3
split_gain=8.66093 7.09988 6.2236 5.21112 4.94288 4.67184 9.4488 4.66909 3.88976 3.31399 4.20508 2.69156 2.68539 5.27563 2.50517 2.37591 2.02227 4.34403 1.62117 1.06309 0.979751 0.825567 0.255524 0.181815 0.392649 0.0405485 0.012177 0.00851599 0.0046491 0.00152241
threshold=1.3947674940000001 64.000000000000014 48.500000000000007 11.500000000000002 42.500000000000007 50.500000000000007 745.50000000000011 67.500000000000014 270673.87605000002 173.00000000000003 1074.0000000000002 1.0000000180025095e-35 343.50000000000006 138.50000000000003 2.2422321510000005 370953.94075000007 0.81263288700000003 1448.0000000000002 1813.5000000000002 263538.44340000005 0.8197180635000002 76.500000000000014 73.000000000000014 1378.5000000000002 1566.5000000000002 0.93396095600000006 246208.72670000003 1.0000000180025095e-35 1.0000000180025095e-35 227.50000000000003
decision_type=2 2 2 2 2 2 2 2 2 2 2 2 2 2 2 2 2 2 2 2 2 2 2 2 2 2 2 2 2 2
left_child=1 3 -2 -1 16 6 9 -7 21 20 -11 -12 -4 14 -14 18 -3 19 23 -18 27 -6 -22 25 -25 26 -9 -5 -28 -26
right_child=2 4 12 5 8 7 -8 15 -10 10 11 -13 13 -15 -16 -17 17 -19 -20 -21 22 -23 -24 24 29 -27 28 -29 -30 -31
leaf_value=0.075345538031838272 0.16406360427285652 -0.0065820892874142965 -0.047296755724073693 -0.1182536883400202 -0.10237870880625261 0.036246103260700109 0.15586762667988893 -0.11687977360491504 0.053279960472512405 -0.070366472819003031 0.097376184477163799 -0.020720742237021555 -0.04757490709742708 0.14445977276364377 0.065599792768763751 -0.0055972047861238142 0.14592322994134213 0.0030706318565936631 -0.010286969111699094 0.078406848369973844 -0.027040039045541767 -0.031156331962718255 -0.072952054879453943 -0.049892614694790768 -0.10881430398835273 -0.12264619900891847 -0.10752491218872694 -0.10955427732140149 -0.11297574513359979 -0.11316323274155414
leaf_weight=3.9101572185754767 4.2997663915157345 4.3313809856772485 3.6210120245814315 1.9352326169610075 4.2810690626502019 3.4689808748662498 2.923526167869567 2.3047410324215987 3.5680314376950264 5.428173713386057 4.2907758504152298 3.5073712766170502 4.3246776014566404 4.0097343772649765 3.5707637369632721 3.0858684554696074 4.8060920909047109 5.8174185380339614 1.8643878400325764 4.5305490344762802 2.5468515157699585 2.6256693080067635 2.3132327944040298 1.5695227682590474 1.7128327861428263 3.5422227904200545 7.0336012020707113 2.6885717026889324 2.0124474614858627 1.5186324119567869
leaf_count=20 20 25 18 19 36 26 15 24 18 39 26 22 25 18 18 21 23 30 18 22 19 15 23 19 25 27 113 35 24 17
internal_value=0 -0.0155945 0.0575969 -0.0361144 0.0238953 -0.0442233 -0.0133476 -0.0723758 -0.0315035 -0.035131 -0.00278365 0.0442598 0.0281124 0.0510484 0.00360907 -0.0876657 0.053676 0.0708991 -0.099413 0.113161 -0.0802429 -0.0753028 -0.0488926 -0.10785 -0.0909275 -0.113306 -0.110391 -0.113195 -0.108738 -0.110858
internal_weight=0 87.6173 19.826 57.6571 29.9602 53.747 25.6337 28.1132 10.4748 22.7102 13.2263 7.79815 15.5262 11.9052 7.89544 24.6443 19.4854 15.1541 21.5584 9.33664 9.48389 6.90674 4.86008 19.694 4.80099 14.893 11.3508 4.6238 9.04605 3.23147
internal_count=800 701 99 532 169 512 198 314 69 183 87 48 79 61 43 288 100 75 267 45 96 51 42 249 61 188 161 54 137 42
shrinkage=0.1


Tree=13
num_leaves=31
num_cat=0
split_feature=9 8 12 1 3 8 7 1 0 12 1 7 1 3 1 0 8 6 10 8 0 8 0 8 0 1 7 7 8 9
split_gain=7.48411 6.59085 6.37276 5.11827 4.55411 4.47104 3.66742 4.00437 4.66972 4.29119 3.41118 3.40942 2.76876 2.70425 2.07551 1.87629 1.82007 1.59312 1.49234 1.19465 1.1715 1.07662 0.987901 1.52014 0.413647 0.100228 0.0220826 0.0104837 0.00922866 0.00192553
threshold=130.50000000000003 0.81605432400000011 205.50000000000003 68.500000000000014 72.000000000000014 0.85566324800000004 164843.56100000002 66.500000000000014 1109.5000000000002 11.500000000000002 48.500000000000007 221773.43240000002 50.500000000000007 251.50000000000003 49.500000000000007 1561.5000000000002 0.7625339980000001 1.0000000180025095e-35 1.0000000180025095e-35 1.4529235580000002 1217.5000000000002 0.96269485050000014 1318.0000000000002 0.77028993950000013 1656.5000000000002 66.500000000000014 355994.70855000004 209065.13090000002 0.84478886350000015 139.50000000000003
decision_type=2 2 2 2 2 2 2 2 2 2 2 2 2 2 2 2 2 2 2 2 2 2 2 2 2 2 2 2 2 2
left_child=-1 3 5 10 -4 15 -7 9 17 -8 13 -11 -6 16 -13 -3 -2 -9 -14 20 -16 24 26 -24 25 28 27 -12 -20 -29
right_child=1 2 4 -5 12 6 7 8 -10 11 22 14 18 -15 19 -17 -18 -19 21 -21 -22 -23 23 -25 -26 -27 -28 29 -30 -31
leaf_value=0.099782901962036652 0.0063731405703512239 0.05376977892687939 0.08796554196568121 0.067438392175254158 0.006295223535374571 0.1913432619720781 0.090019211956117173 0.054364129150650579 -0.0095277345515941692 0.031789472021494826 -0.11824305232641874 -0.0060664660489648074 -0.0069518498237268432 0.063375713396725764 -0.095764211821661477 0.1502370042999977 -0.11615131556547616 0.14007317759576648 -0.10596225474426001 -0.13515644897806109 -0.0078348531852972005 -0.041686247952489985 -0.0091066829987413462 -0.11512888515141578 -0.061327929618542991 -0.13291282972180438 -0.12463489850665257 -0.10884894097483777 -0.11596496810604247 -0.11268555803180361
leaf_weight=6.7491270452737799 2.263632979244 4.8522426895797235 2.6076910980045822 3.1598724424839011 5.8051571324467686 1.1255085915327061 3.1295302212238338 4.423516698181631 8.0013290867209417 5.4012208282947567 2.0190698988735658 4.6171845942735663 2.6398432254791304 2.8498510196805 3.9329052530229074 3.4496379643678665 2.6106209009885788 4.2544803470373154 3.2023400925099761 3.4123396277427673 2.4648296199738979 3.3635136298835286 2.7622130289673796 2.6495574042201042 1.5566441081464288 2.8114144951105118 1.6480112820863713 4.4855494163930416 1.2955095656216142 1.8466923236846922
leaf_count=33 20 34 16 15 38 5 14 21 37 29 20 35 25 16 37 20 27 19 61 19 22 29 27 29 18 18 13 65 15 23
internal_value=0 -0.00906436 0.00651923 -0.0519402 -0.0365659 0.0269639 0.0133408 0.00828642 0.0455765 -0.0188053 -0.0682453 -0.0359811 -0.0522732 -0.0140067 -0.0613528 0.0938543 -0.0592502 0.0963839 -0.0751391 -0.0873737 -0.061888 -0.089858 -0.0954299 -0.0610143 -0.108133 -0.118101 -0.114056 -0.111969 -0.108843 -0.109968
internal_weight=0 98.6419 72.3468 26.2951 23.2821 49.0647 40.7628 39.6373 16.6793 22.958 23.1352 19.8285 20.6744 7.7241 14.4273 8.30188 4.87425 8.678 14.8693 9.81007 6.39773 12.2294 15.4111 5.41177 8.86591 7.30926 9.99932 8.35131 4.49785 6.33224
internal_count=800 767 512 255 220 292 238 233 77 156 240 142 204 63 113 54 47 40 166 78 59 141 177 56 112 94 121 108 76 88
shrinkage=0.1


Tree=14
num_leaves=31
num_cat=0
split_feature=8 1 1 9 7 12 3 7 7 12 12 3 0 0 3 0 9 11 5 5 2 8 8 0 9 0 7 1 1 8
split_gain=6.91428 5.35075 4.97686 4.40989 4.33126 4.73145 4.66355 3.87366 4.54166 4.12089 3.53967 4.02174 2.54783 3.80149 2.7636 2.22102 4.2949 2.07154 2.60374 4.31382 2.5009 1.95408 1.77024 1.24632 2.38457 1.23421 0.9484 0.0164799 0.00953218 0.00584177
threshold=1.3947674940000001 66.500000000000014 48.500000000000007 140.50000000000003 183562.68865000005 47.500000000000007 779.50000000000011 191284.99135000003 267528.77560000011 76.500000000000014 207.50000000000003 275.00000000000006 1845.5000000000002 1482.0000000000002 170.50000000000003 343.50000000000006 138.50000000000003 1.0000000180025095e-35 27.500000000000004 32.500000000000007 1.0000000180025095e-35 2.2422321510000005 0.83478481300000007 1132.0000000000002 136.50000000000003 1011.5000000000001 261310.95115000004 50.500000000000007 58.500000000000007 0.84596125850000015
decision_type=2 2 2 2 2 2 2 2 2 2 2 2 2 2 2 2 2 2 2 2 2 2 2 2 2 2 2 2 2 2
left_child=1 7 -2 4 -3 -6 10 9 23 -1 11 -7 13 17 -15 -4 21 18 -10 -20 -21 -17 -22 27 28 -19 -26 -9 -25 -29
right_child=2 3 15 -5 5 6 -8 8 12 -11 -12 -13 -14 14 -16 16 -18 25 19 20 22 -23 -24 24 26 -27 -28 29 -30 -31
leaf_value=0.10633945106124963 0.1489999080085472 -0.13224149122500742 -0.04423854205581966 0.11592265473346637 -0.081003496978255013 0.10907655665901735 0.13240735148536029 -0.11786246564340708 -0.095690908664807173 -0.035599283769903421 -0.065241202306193499 -0.025948201248021247 -0.11779078894225166 0.12678420179935132 -0.0066479342290161562 -0.044171805680437493 0.12974112020084941 -0.11476536620686498 0.094981476361988726 0.028015511011669238 -0.11970284995470278 0.056716320264656152 -0.005373628766618844 -0.11692055490800049 -0.043632149532880693 -0.017374745698935982 0.052662999641739018 -0.10638142576564776 -0.10720664398266311 -0.1132819000026903
leaf_weight=3.876117527484892 4.1361043751239803 2.1017567515373292 3.5276029333472243 4.207961678504943 3.9107865616679218 4.7850248068571108 4.2040719762444487 2.6518001258373278 3.1225852221250667 4.3308960571885109 4.1289850249886504 4.0926016978919506 2.4738498404622069 2.977096762508153 3.2431700751185417 4.1488838568329793 4.0421232730150223 3.9003912247717372 3.869481597095727 4.2850100807845575 3.3443794511258602 3.5733306258916855 2.2759680524468422 1.8293149881064872 2.5167762748897076 1.9526709318161009 1.7229707762598989 4.225462082773447 2.2560206092894077 1.7287738062441347
leaf_count=18 20 14 18 18 22 24 21 29 23 29 29 24 23 20 29 25 18 46 25 33 34 18 19 19 22 21 19 80 39 21
internal_value=0 -0.0145153 0.0516807 0.02173 0.00466264 0.0182857 0.0408472 -0.0320869 -0.0428639 0.0314374 0.0112526 0.0468299 -0.0203804 -0.0120624 0.0572143 0.0253582 0.0462272 -0.0310036 -0.013244 0.00544572 -0.029531 0.00251255 -0.0734051 -0.0846204 -0.0570349 -0.0822744 -0.00449922 -0.111305 -0.111556 -0.108385
internal_weight=0 84.0139 19.428 27.4312 23.2232 21.1215 17.2107 56.5827 48.3757 8.20701 13.0066 8.87763 31.4446 28.9708 6.22027 15.2919 11.7643 22.7505 16.8974 13.7748 9.90536 7.72221 5.62035 16.9311 8.32508 5.85306 4.23975 8.60604 4.08534 5.95424
internal_count=800 701 99 152 134 120 98 549 502 47 77 48 273 250 49 79 61 201 134 111 86 43 53 229 99 67 41 130 58 101
shrinkage=0.1


Tree=15
num_leaves=31
num_cat=0
split_feature=8 3 8 7 11 6 6 7 8 7 7 5 7 7 9 9 9 12 5 1 10 0 1 0 5 8 9 1 6 12
split_gain=5.93789 4.64403 3.49584 3.32375 3.8915 4.20714 3.1794 2.52726 4.90363 3.91997 2.83591 2.50162 3.6733 2.9122 2.18081 2.65028 1.82933 1.72799 1.62073 1.47499 1.463 1.26748 0.954124 0.845164 0.700373 0.398342 0.0375388 0.0204396 0.00643639 0.00540867
threshold=0.95047041800000021 691.00000000000011 0.85682423000000008 283105.45055000007 1.0000000180025095e-35 1.0000000180025095e-35 1.0000000180025095e-35 263339.30690000008 0.76862157350000004 260178.06845000005 191284.99135000003 32.500000000000007 207028.73385000005 257090.72015000004 139.50000000000003 134.50000000000003 139.50000000000003 173.00000000000003 39.000000000000007 64.000000000000014 1.0000000180025095e-35 1066.5000000000002 50.500000000000007 1183.0000000000002 36.500000000000007 0.91701186100000009 134.50000000000003 67.500000000000014 1.0000000180025095e-35 171.50000000000003
decision_type=2 2 2 2 2 2 2 2 2 2 2 2 2 2 2 2 2 2 2 2 2 2 2 2 2 2 2 2 2 2
left_child=1 3 14 7 5 23 11 8 29 10 -10 13 -13 -2 15 -3 20 -18 21 -8 -9 -14 -6 -5 -12 26 -22 28 -28 -1
right_child=6 2 -4 4 22 -7 19 16 9 -11 24 12 18 -15 -16 -17 17 -19 -20 -21 25 -23 -24 -25 -26 -27 27 -29 -30 -31
leaf_value=-0.11073320811423626 0.11303045217133392 0.10039877289910899 -0.041177576800289127 0.025769970870727611 -0.031665440728072973 0.13139657603910262 0.041745610469888277 -0.029993335360337672 0.044538779143292608 0.12082416658183055 -0.035475269625692397 -0.081672997923492668 0.098925852296573163 -0.006331586383938429 0.11873188903041219 -0.036306001422342464 -0.089050308903707437 0.029900968409934017 -0.019302488540787269 0.11724835029327013 -0.12470365004182815 0.013604791591429792 -0.12626156509354275 -0.041337355315865396 -0.11887838664692829 -0.054990997826368904 -0.1066307890540226 -0.12229072384205171 -0.11341744632395034 -0.11813894881645437
leaf_weight=2.1506997942924495 4.3784623853862303 2.5176593139767629 4.7703774310648432 4.1357944980263692 2.2480487823486319 3.2460343912243843 5.573809936642645 3.0880329720675954 3.6080594807863218 2.6747302934527397 1.9967597983777521 5.0494199842214611 3.1155555658042413 3.8338093608617783 4.1098900735378265 3.2473304904997349 2.1601455807685843 2.8097363784909248 6.0431301966309547 4.8290851563215256 2.2431772388517848 3.9467734694480896 2.0282414928078651 3.435825526714325 2.0309308879077435 1.3180391453206546 5.732807904481886 1.2080519571900366 1.8478669635951517 1.8213097527623174
leaf_count=31 22 15 32 27 20 17 29 30 20 22 20 33 18 22 26 31 21 24 35 21 19 24 20 23 23 12 112 9 23 19
internal_value=0 -0.0203835 0.0291162 -0.034945 0.00422651 0.036151 0.02998 -0.0519888 -0.0197249 0.0166434 -0.0198502 0.0115098 -0.0092066 0.0573076 0.0630739 0.0233951 -0.0745688 -0.0218009 0.0187141 0.0767944 -0.0915561 0.0512443 -0.0765323 -0.00468178 -0.0775306 -0.10695 -0.113157 -0.11021 -0.108285 -0.114129
internal_weight=0 64.4296 14.6453 49.7843 15.0939 10.8177 36.77 34.6903 14.2825 10.3105 7.63575 26.3672 18.1549 8.21227 9.87488 5.76499 20.4079 4.96988 13.1055 10.4029 15.438 7.06233 4.27629 7.57162 4.02769 12.3499 11.0319 8.78873 7.58067 3.97201
internal_count=800 596 104 492 107 67 204 385 135 85 63 154 110 44 72 46 250 45 77 50 205 42 40 50 43 175 163 144 135 50
shrinkage=0.1


Tree=16
num_leaves=31
num_cat=0
split_feature=9 8 0 0 3 3 1 7 12 7 1 3 0 12 10 8 5 8 0 3 6 1 8 1 0 8 3 0 3 0
split_gain=5.37329 5.00048 3.92477 4.93081 3.44099 3.23988 3.25118 5.80953 5.77007 4.46413 5.66377 3.3153 2.43837 1.9213 1.90367 1.88268 2.72726 2.59112 1.6338 0.840448 0.557489 0.316131 0.0958276 0.0359474 0.00611933 0.00521531 0.00282807 0.00045232 0.000440767 6.65976e-06
threshold=130.50000000000003 0.81263288700000003 1870.5000000000002 1739.5000000000002 779.50000000000011 72.000000000000014 66.500000000000014 207028.73385000005 11.500000000000002 191284.99135000003 45.000000000000007 1688.5000000000002 1448.0000000000002 173.00000000000003 1.0000000180025095e-35 0.79941340300000008 32.500000000000007 0.75928676400000017 537.50000000000011 245.50000000000003 1.0000000180025095e-35 48.500000000000007 1.0154574820000002 56.500000000000007 1662.5000000000002 0.93840253150000008 90.500000000000014 1154.0000000000002 67.000000000000014 1089.5000000000002
decision_type=2 2 2 2 2 2 2 2 2 2 2 2 2 2 2 2 2 2 2 2 2 2 2 2 2 2 2 2 2 2
left_child=-1 4 3 5 13 -3 8 -8 -7 -10 -11 14 18 20 19 16 -15 -18 -9 -12 23 -16 25 24 28 26 29 -28 -2 -23
right_child=1 2 -4 -5 -6 6 7 12 9 10 11 -13 -14 15 21 -17 17 -19 -20 -21 -22 22 -24 -25 -26 -27 27 -29 -30 -31
leaf_value=0.087372884151671423 -0.10671968950331052 0.06911643708515762 -0.091512469899742474 0.10584671096557058 0.030791900362931852 0.093377479460580531 -0.086468534958075507 0.035143807341641374 0.043989395051436772 0.054779091186804657 -0.0075255708847935705 0.039696747708370707 -0.0096066336288922662 0.074236527246401771 -0.066781306029124327 -0.12212888082633638 -0.11848380571092776 0.018746776843364107 0.11004514614770698 -0.084155966245723399 -0.049233775712648045 -0.10413432418145613 -0.12651826942697925 -0.12590794959322543 -0.11622145699337497 -0.11452146670141097 -0.10742037500124851 -0.10957769224748722 -0.1091331653035289 -0.10447518379498795
leaf_weight=6.2938625514507285 1.2931658327579554 6.6167585141956797 3.9705066680908194 5.0474049448966971 4.3715221509337416 3.7683228850364676 3.6732576079666641 5.2500840872526187 5.5038088709116009 3.947414085268977 3.2681746371090528 2.2373434305191031 4.5330583341419688 2.3535124696791154 1.5315326377749379 2.117161687463522 2.9419805444777012 2.5846990756690502 6.5397287756204605 2.5463431887328625 1.5440882593393324 1.4822090379893764 4.5198201388120651 2.3210524022579193 1.3358222544193266 1.0645791999995706 1.7580804303288462 2.1733481846749783 1.8240427151322363 0.93465126678347576
leaf_count=33 23 38 28 33 34 17 25 27 31 27 27 16 25 18 10 22 34 29 33 20 19 39 31 22 15 11 32 31 27 23
internal_value=0 -0.00809855 0.00506418 0.0108395 -0.0489242 0.00302286 -0.00496748 0.0271555 -0.0234596 -0.0376772 -0.055329 -0.0755298 0.0527252 -0.0679507 -0.0889021 -0.0384074 -0.015914 -0.0543043 0.0766911 -0.0410842 -0.103458 -0.109552 -0.115042 -0.115818 -0.110559 -0.108044 -0.106958 -0.108613 -0.108132 -0.104266
internal_weight=0 93.0535 70.3664 66.3959 22.687 61.3485 54.7318 19.9961 34.7356 30.9673 25.4635 21.5161 16.3229 18.3155 19.2787 9.99735 7.88019 5.52668 11.7898 5.81452 8.31817 13.4642 11.9327 6.77408 4.45303 7.41287 6.34829 3.93143 3.11721 2.41686
internal_count=800 767 524 496 243 463 425 110 315 298 267 240 85 209 224 103 81 63 60 47 106 177 167 87 65 136 125 63 50 62
shrinkage=0.1


Tree=17
num_leaves=31
num_cat=0
split_feature=8 1 1 0 9 5 0 5 12 3 12 10 6 7 7 7 3 12 12 3 0 12 12 11 5 7 8 9 7 8
split_gain=4.74613 4.03359 3.59777 3.52404 3.18902 3.32022 3.00057 2.91473 2.93328 5.50363 2.48318 2.33976 2.24345 2.10911 2.04668 1.79265 1.48396 1.40956 3.80921 2.00474 1.00353 0.987492 0.787074 0.709035 0.581498 0.343424 0.0206063 0.01829 0.0108359 0.00930732
threshold=1.3947674940000001 48.500000000000007 66.500000000000014 977.00000000000011 140.50000000000003 42.500000000000007 1845.5000000000002 32.500000000000007 212.50000000000003 579.50000000000011 30.000000000000004 1.0000000180025095e-35 1.0000000180025095e-35 270673.87605000002 271569.11950000009 273440.25190000009 324.00000000000006 214.50000000000003 213.50000000000003 745.50000000000011 1230.0000000000002 66.500000000000014 43.500000000000007 1.0000000180025095e-35 32.500000000000007 389548.82465000002 0.83572836100000003 134.50000000000003 282311.20975000004 0.87846030500000005
decision_type=2 2 2 2 2 2 2 2 2 2 2 2 2 2 2 2 2 2 2 2 2 2 2 2 2 2 2 2 2 2
left_child=2 -2 3 10 5 16 7 8 9 -5 -1 -9 23 20 21 -10 -4 18 19 22 -7 -3 -12 -13 -18 27 -19 -24 29 -29
right_child=1 14 4 6 -6 13 -8 11 15 -11 17 12 -14 -15 -16 -17 24 26 -20 -21 -22 -23 25 -25 -26 -27 -28 28 -30 -31
leaf_value=0.032157636709414759 0.13323799405549575 0.082736844721032099 -0.0073875605027425035 0.16276772725783983 0.098623091476079089 -0.12705955015935841 -0.088919226327919543 0.033691844725834079 -0.10607533904139854 -0.025511632650714627 -0.029501067121747965 -0.11573473386378851 0.015313265153898949 0.017987903648123547 -0.035117551107459642 0.044400228132912348 0.090164579667791123 -0.11075162163872371 0.077742318061599133 -0.0090088712722256933 -0.038548993465642008 0.019229435923369811 -0.12162949966556778 -0.046047486403559601 0.036584953939939616 -0.062158711071356613 -0.12459448004719836 -0.1055046298889617 -0.11763984129003058 -0.11648841419006173
leaf_weight=2.8245314322412041 3.9225434064865139 4.0620225071907026 5.7109421119093957 3.9918044768273884 4.0737427324056616 2.8302740044891816 3.6157263107597819 5.3085275813937214 1.5192927941679957 2.5407053753733635 1.6778632961213613 3.4532930403947777 3.4148883335292339 3.0376505777239799 4.7260761484503737 1.6531828120350835 3.4559871703386289 1.9441348202526558 1.9279121086001403 3.8326517827808866 2.3400958515703678 6.163526713848114 1.6656588613986949 2.5294699147343636 4.8939639031887054 1.6475603505969045 2.406360100954771 3.9602680467069149 1.3913768306374548 0.95811707153916348
leaf_count=17 20 20 30 27 18 23 39 39 35 22 12 40 33 16 25 10 17 28 14 37 19 34 17 27 29 14 22 92 14 10
internal_value=0 0.0429827 -0.0128599 -0.0280486 0.0172742 0.00239268 -0.00390127 0.0086914 0.0512274 0.0895398 -0.0559724 -0.0193792 -0.0493579 -0.0481457 0.0193044 -0.0276622 0.0318944 -0.067598 -0.0546419 -0.0715068 -0.0869999 0.0444573 -0.0927028 -0.0862715 0.0587612 -0.103723 -0.118408 -0.112309 -0.109848 -0.107644
internal_weight=0 18.8742 78.606 52.2633 26.3427 22.2689 28.0269 24.4112 9.70499 6.53251 24.2364 14.7062 9.39765 8.20802 14.9516 3.17248 14.0609 21.4119 17.0614 15.1335 5.17037 10.2255 11.3008 5.98276 8.34995 9.62298 4.35049 7.97542 6.30976 4.91839
internal_count=800 99 701 549 152 134 272 233 94 49 277 139 100 58 79 45 76 260 210 196 42 54 159 67 46 147 50 133 116 102
shrinkage=0.1


Tree=18
num_leaves=31
num_cat=0
split_feature=8 9 7 7 1 8 1 1 1 12 7 0 7 1 8 12 12 3 5 3 12 0 2 7 7 1 9 7 8 7
split_gain=4.29631 4.65602 3.28636 3.98629 3.38302 3.3988 3.15758 4.36339 3.28796 1.92748 5.26622 4.34116 3.44963 2.67793 3.24481 1.66476 2.70535 3.32227 2.02263 1.93832 2.11551 1.60649 1.71447 0.856098 0.378979 0.184132 0.0252806 0.0102816 0.00784363 0.00679491
threshold=0.81162353400000009 130.50000000000003 453643.46280000004 369966.94495000009 77.500000000000014 1.8217453400000003 48.500000000000007 73.000000000000014 45.000000000000007 65.000000000000014 249770.64390000002 1109.5000000000002 277355.22025000007 64.000000000000014 0.90350468250000004 87.500000000000014 120.50000000000001 265.00000000000006 27.500000000000004 579.50000000000011 211.00000000000003 1318.0000000000002 1.0000000180025095e-35 271569.11950000009 266714.04705000011 64.000000000000014 133.50000000000003 283283.99200000003 0.84524210550000023 205245.94780000002
decision_type=2 2 2 2 2 2 2 2 2 2 2 2 2 2 2 2 2 2 2 2 2 2 2 2 2 2 2 2 2 2
left_child=6 -2 3 4 5 9 8 21 23 10 -3 -12 15 14 -14 -11 17 -17 24 20 -20 26 -23 -1 25 28 -8 29 -18 -28
right_child=1 2 -4 -5 -6 -7 7 -9 -10 12 11 -13 13 -15 -16 16 18 -19 19 -21 -22 22 -24 -25 -26 -27 27 -29 -30 -31
leaf_value=-0.012817176024658414 0.11535379592929573 0.1130380069410097 -0.082049671545752545 0.093142299875209361 0.079000277640721983 0.070973729295239082 -0.12666291228204929 0.056325876184773284 0.071857379707048571 -0.10611552883083615 0.046537759577597163 -0.10375706547416688 -0.11330419890178473 0.082817036054333132 0.042677281806427173 0.096322209416689952 -0.10392965248975539 -0.048209049286707363 -0.0058755771245371105 0.019155386332888154 -0.11699144529417052 -0.11210608833492819 0.0070745367708845448 -0.11754388890749601 -0.05377742540548839 -0.15513084453897241 -0.11621871044030196 -0.12019747324085461 -0.11511510297763686 -0.1081981524273268
leaf_weight=1.6188998743891745 3.9621365219354621 4.1032665595412237 4.181027114391326 5.2279292345046988 5.2094622477889052 5.2606897205114356 1.4371426589786986 2.5014215707778922 4.2406648173928261 3.6681136935949352 3.9141814410686493 3.7756888456642628 2.2618078589439374 4.4719424694776535 3.2499591913074255 3.0893525220453766 2.3363021984696419 3.2779041863977909 3.2435064390301687 4.6244893409311771 3.6321104951202869 2.0718933977186671 2.8916212804615498 1.5073363184928892 1.1319495663046835 1.0542507618665693 1.4144481308758257 1.2699709348380563 0.85683878138661373 4.1712034698575735
leaf_count=25 23 19 30 26 27 26 12 12 25 30 21 25 29 20 25 19 68 27 27 38 40 27 29 15 14 6 17 13 9 76
internal_value=0 0.00995278 0.00386252 0.00944107 0.00204468 -0.0053859 -0.0395469 -0.0648129 0.0144966 -0.0136359 0.0215573 -0.0272563 -0.0248839 0.0253193 -0.0213313 -0.0435062 -0.033627 0.0219166 -0.0545791 -0.030904 -0.0645736 -0.0876714 -0.0426744 -0.0633119 -0.105192 -0.118895 -0.114604 -0.112076 -0.106931 -0.110229
internal_weight=0 72.5329 68.5708 64.3897 59.1618 53.9524 23.1246 15.7577 7.3669 48.6917 11.7931 7.68987 36.8985 9.98371 5.51177 26.9148 23.2467 6.36726 16.8794 11.5001 6.87562 13.2563 4.96351 3.12624 5.37934 4.24739 8.29277 6.85562 3.19314 5.58565
internal_count=800 549 526 496 470 443 251 186 65 417 65 46 352 74 54 278 248 46 202 105 67 174 56 40 97 83 118 106 77 93
shrinkage=0.1


Tree=19
num_leaves=31
num_cat=0
split_feature=9 8 0 0 3 3 8 1 7 7 12 1 12 8 7 12 8 5 8 8 0 0 0 9 8 1 12 8 12 5
split_gain=3.7935 3.47775 3.07925 3.5418 2.86924 2.37871 2.92458 2.42249 4.2169 3.9217 3.24726 3.16555 3.70986 1.89745 2.30048 1.78452 1.71841 1.99511 2.53558 1.46849 0.978059 0.639009 0.484705 0.238612 0.0442363 0.028786 0.00968222 0.00346156 0.00134959 0.000785609
threshold=130.50000000000003 0.81263288700000003 1870.5000000000002 1739.5000000000002 779.50000000000011 72.000000000000014 0.82029936700000017 66.500000000000014 191284.99135000003 207028.73385000005 11.500000000000002 57.500000000000007 186.50000000000003 0.95047041800000021 262799.37495000008 173.00000000000003 0.79941340300000008 32.500000000000007 0.75928676400000017 0.90350468250000004 907.50000000000011 1801.5000000000002 1150.0000000000002 139.50000000000003 1.0216315745 64.000000000000014 43.500000000000007 0.90350468250000004 107.50000000000001 39.000000000000007
decision_type=2 2 2 2 2 2 2 2 2 2 2 2 2 2 2 2 2 2 2 2 2 2 2 2 2 2 2 2 2 2
left_child=-1 4 3 5 15 -3 -7 8 -8 -9 -10 12 20 14 -11 21 17 -17 -19 -14 -12 25 -15 24 27 26 -2 28 -13 -28
right_child=1 2 -4 -5 -6 6 7 9 10 13 11 23 19 22 -16 16 -18 18 -20 -21 -22 -23 -24 -25 -26 -27 29 -29 -30 -31
leaf_value=0.076697430922137544 -0.11729672525026716 0.058635422170978391 -0.086329278991686409 0.088452508275608827 0.030284320813694685 0.098740535803204479 0.041542297340232598 -0.078885343843174791 0.068461684066350753 0.062150744343648839 -0.043763390612093368 -0.10834940562599163 -0.026497466861598776 0.092970563701083087 -0.056951830173013376 0.064157184028621334 -0.11965339878209325 -0.11728557919551214 0.025714628268655865 0.06955599562047475 -0.12257306268444204 -0.035786189086592486 0.045828004104628783 -0.07158507472561966 -0.12232056490883203 -0.12669002164624218 -0.10586150146723317 -0.11200252463137757 -0.10380603280019247 -0.10910884795860021
leaf_weight=5.7470145970582953 1.2924413271248401 6.5635290890932074 3.5862974263727656 5.1450216844677916 4.2181238345801821 2.5703336317092171 6.7992227897048023 3.4295872785151031 2.185977220535281 3.0409393534064284 3.2606128137558716 0.8785266093909726 2.9044871348887682 4.4661780521273595 3.4748390689492226 2.3660179339349252 1.8334619235247371 2.5384532045572996 2.4239828549325466 3.5212777145206928 3.0456352941691875 1.2793825455009935 4.2624805495142937 1.7379570230841634 2.9321972168982029 1.3383238725364206 2.0397121068090205 0.87851777300238598 2.5558997448533773 1.1736556738615034
leaf_count=33 15 38 28 33 34 25 37 25 10 18 27 14 25 21 22 18 22 34 29 24 29 16 20 16 22 13 43 12 78 19
internal_value=0 -0.00716647 0.00382725 0.00890678 -0.0432194 0.00191178 -0.0052556 -0.0106694 -0.0279448 0.0177315 -0.047712 -0.0594068 -0.0273361 0.0394677 -0.00136619 -0.0622577 -0.033069 -0.0114069 -0.0474348 0.0261392 -0.0818249 -0.0997989 0.0699494 -0.104862 -0.112844 -0.113812 -0.109987 -0.106401 -0.104968 -0.107048
internal_weight=0 87.7431 67.2395 63.6532 20.5036 58.5082 51.9447 49.3743 30.7003 18.674 23.9011 21.7151 12.732 15.2444 6.51578 16.2854 9.16192 7.32845 4.96244 6.42576 6.30625 7.12352 8.72866 8.9831 7.24514 5.84413 4.50581 4.31294 3.43443 3.21337
internal_count=800 767 524 496 243 463 425 400 294 106 257 247 105 81 40 209 103 81 63 49 56 106 41 142 126 90 77 104 92 62
shrinkage=0.1


Tree=20
num_leaves=31
num_cat=0
split_feature=8 9 1 1 7 7 1 8 1 0 1 6 7 12 5 1 0 0 9 1 3 5 12 8 7 2 7 12 9 7
split_gain=3.15463 3.58241 2.83134 3.84281 2.67115 3.21649 2.5598 2.7114 2.53997 1.62171 1.6774 1.5503 3.07063 4.17656 2.05418 4.08799 1.78458 2.28228 3.27216 1.70942 1.60271 2.46276 1.2401 1.22847 0.957548 0.829946 0.81157 0.566004 0.030177 0.00860874
threshold=0.81162353400000009 130.50000000000003 48.500000000000007 73.000000000000014 453643.46280000004 369966.94495000009 77.500000000000014 1.8217453400000003 45.000000000000007 1318.0000000000002 56.500000000000007 1.0000000180025095e-35 221773.43240000002 66.500000000000014 42.500000000000007 67.500000000000014 503.00000000000006 1305.5000000000002 139.50000000000003 59.500000000000007 579.50000000000011 32.500000000000007 87.500000000000014 0.95732149200000005 185627.19490000003 1.0000000180025095e-35 271569.11950000009 212.50000000000003 132.50000000000003 284342.59355000005
decision_type=2 2 2 2 2 2 2 2 2 2 2 2 2 2 2 2 2 2 2 2 2 2 2 2 2 2 2 2 2 2
left_child=2 -2 8 9 5 6 7 11 26 28 -11 12 13 -3 15 25 27 18 19 -18 21 -19 -21 -16 -15 -13 -1 -14 -4 -30
right_child=1 4 3 -5 -6 -7 -8 -9 -10 10 -12 14 16 24 23 -17 17 20 -20 22 -22 -23 -24 -25 -26 -27 -28 -29 29 -31
leaf_value=-0.0070779048607838117 0.1043740769081585 0.10477039731976423 -0.12754333479687927 0.053207464862968151 -0.076974982705633341 0.082582909498778889 0.068709612562779535 0.06265172791542073 0.065454843352676859 0.0087708525988389203 -0.11507694781553975 0.030604090219548564 -0.13439913145408572 -0.05864456909087417 -0.082558947894652984 0.13454190688854659 -0.087175318375903157 0.053772312265549349 0.095429231290730804 0.097699526121608787 -0.12331689270330902 -0.082801286286963149 -0.044589875104396381 0.017196315864737303 0.012774704369368057 -0.045466935469574081 -0.11453943127085886 -0.062227571749252419 -0.10866326711799512 -0.11827014519841295
leaf_weight=1.5132555756717949 3.6760477423667899 3.6894519925117475 1.2466456368565539 2.4537954032421103 3.932818502187728 5.2917603552341452 5.1012412905693045 5.2491922527551642 4.2320263534784317 2.8995164521038532 1.7558563798665998 2.9173820056021196 2.5293371099978712 3.9949572123587132 2.6806878540664902 3.1809044778347015 3.1354142278432864 2.0161685384809953 2.7230140753090382 1.1870342791080477 3.2449694517999887 3.8257494382560253 1.2655003070831297 2.2883039712905884 3.541462529450655 2.8210545890033245 1.3121782243251798 1.9051078017801044 4.9581715017557144 1.1489133797585962
leaf_count=25 23 17 10 12 30 26 27 26 25 31 25 23 24 29 30 15 37 28 19 7 36 30 33 11 27 18 15 33 95 13
internal_value=0 0.00827548 -0.0354883 -0.0608261 0.00296497 0.00798807 0.00109873 -0.00550908 0.0164365 -0.0841263 -0.0379405 -0.0131303 -0.0249088 0.0175936 0.014906 0.0436113 -0.0467631 -0.0323289 0.00554311 -0.0382585 -0.0669671 -0.0356669 0.0242786 -0.03662 -0.0250837 -0.00679295 -0.0569848 -0.103393 -0.113365 -0.110471
internal_weight=0 70.1976 21.5204 14.4629 66.5215 62.5887 57.2969 52.1957 7.05746 12.0091 4.65537 46.9465 33.0582 11.2259 13.8883 8.91934 21.8323 17.3979 8.31096 5.58795 9.08689 5.84192 2.45253 4.96899 7.53642 5.73844 2.82543 4.43444 7.35373 6.10708
internal_count=800 549 251 186 526 496 470 443 65 174 56 417 320 73 97 56 247 190 96 77 94 58 40 41 56 41 40 57 118 108
shrinkage=0.1


Tree=21
num_leaves=31
num_cat=0
split_feature=9 8 9 5 1 0 0 3 0 3 3 7 7 4 1 9 3 3 7 10 0 8 8 12 9 1 3 1 5 2
split_gain=2.8135 2.69514 3.2556 3.28467 4.4874 2.52557 3.23302 2.01686 2.28289 1.60189 1.61603 2.62911 2.80816 3.94524 1.66542 1.53981 1.93802 2.75066 2.03521 1.47372 1.18384 2.00572 2.97999 0.876011 0.461143 0.321609 0.299307 0.0114428 0.00814642 0.00229483
threshold=130.50000000000003 0.81831832150000017 139.50000000000003 32.500000000000007 73.000000000000014 1870.5000000000002 1739.5000000000002 72.000000000000014 1590.0000000000002 93.500000000000014 130.00000000000003 377216.18640000006 284003.75585000007 1.0000000180025095e-35 66.500000000000014 134.50000000000003 579.50000000000011 1379.5000000000002 266202.91915000003 1.0000000180025095e-35 1141.5000000000002 0.75928676400000017 0.7894189840000001 209.50000000000003 136.50000000000003 67.500000000000014 251.50000000000003 48.500000000000007 27.500000000000004 1.0000000180025095e-35
decision_type=2 2 2 2 2 2 2 2 2 2 2 2 2 2 2 2 2 2 2 2 2 2 2 2 2 2 2 2 2 2
left_child=-1 2 20 -4 26 6 7 -3 9 23 -11 12 13 15 -15 -12 19 18 -18 -17 25 -22 -23 -9 -10 27 -5 -2 -25 -29
right_child=1 5 3 4 -6 -7 -8 8 24 10 11 -13 -14 14 -16 16 17 -19 -20 -21 21 22 -24 28 -26 -27 -28 29 -30 -31
leaf_value=0.067901528528479263 -0.11932691822713704 0.053899047892342615 0.10187266630226033 -0.11330911754600687 0.10263570988816305 -0.080986830256693551 0.08580049773772791 0.010562385686836057 -0.038250718316550171 0.055704710267635599 0.058319165657631428 -0.092431379228761587 0.084702869648154752 -0.12085416591022764 -0.018833771451889258 0.094287238678176413 -0.12757797996875078 0.037383148740873062 -0.0073324805930381131 -0.0009888413713849064 -0.11333659848560783 0.10431608246893814 -0.076882398286241702 -0.1030618569674186 -0.10084537168423534 -0.053966812748064058 -0.054971819900348273 -0.10628192787788962 -0.11660489587843861 -0.11115092721161793
leaf_weight=5.414989858865737 1.2751779891550556 6.4749696403741828 2.6688042581081373 2.4954808074980979 1.6914006769657133 3.337673131376504 4.9505228102207175 0.91672771796584074 2.2129260003566733 5.7705142423510543 6.1419920995831552 2.9097053930163375 4.0498072095215312 3.4279495887458316 3.0008673295378685 2.9014313574880362 3.1262137070298177 3.6950667835772038 2.5603786036372185 3.6859118398278943 2.2075888849794865 1.6973880641162398 1.9506997540593145 1.3108124695718286 2.5140994936227798 1.2155819460749624 1.3581123705953357 2.1997869089245796 0.67178102210164059 1.728674151003361
leaf_count=33 14 38 18 38 8 28 32 10 23 37 39 22 26 34 16 19 27 26 22 28 29 19 24 50 22 9 19 53 7 30
internal_value=0 -0.00646325 -0.0380092 0.0107207 -0.0331507 0.00368976 0.00837502 0.00145271 -0.00549238 0.00157632 0.00662396 -0.00135425 0.0067774 -0.00428024 -0.0732327 0.0157678 -0.000598256 -0.0297897 -0.0734376 0.040976 -0.0706169 -0.0381015 0.00742592 -0.0702733 -0.0715421 -0.100278 -0.0927494 -0.111096 -0.107651 -0.108424
internal_weight=0 84.148 20.4887 8.2138 5.54499 63.6594 60.3217 55.3712 48.8962 44.1692 41.2698 35.4993 32.5896 28.5398 6.42882 22.111 15.969 9.38166 5.68659 6.58734 12.2749 5.85568 3.64809 2.89932 4.72703 6.41922 3.85359 5.20364 1.98259 3.92846
internal_count=800 767 261 83 65 506 478 446 408 363 296 259 237 211 50 161 122 75 49 47 178 72 43 67 45 106 57 97 57 83
shrinkage=0.1


Tree=22
num_leaves=31
num_cat=0
split_feature=12 12 0 6 8 8 3 0 12 8 0 1 0 8 7 12 0 7 9 5 9 0 12 7 0 1 9 7 1 1
split_gain=2.44863 5.55687 3.69824 4.76557 3.22673 3.49801 2.62464 2.29888 2.44374 2.36802 2.72015 2.69988 2.11487 2.10194 3.02629 1.21018 1.16265 0.8913 0.889201 0.824712 0.792277 0.729188 0.192815 0.135267 0.127239 0.0294596 0.0204144 0.00551525 0.00432109 0.0032457
threshold=205.50000000000003 197.50000000000003 869.50000000000011 1.0000000180025095e-35 0.81831832150000017 0.85682423000000008 691.00000000000011 777.50000000000011 119.50000000000001 0.98309942150000007 1346.5000000000002 64.000000000000014 343.50000000000006 0.955593888 440938.03245000006 173.00000000000003 1561.5000000000002 266366.86875000008 139.50000000000003 42.500000000000007 139.50000000000003 1826.5000000000002 81.000000000000014 284003.75585000007 557.50000000000011 64.000000000000014 135.50000000000003 256668.71015000006 57.500000000000007 58.500000000000007
decision_type=2 2 2 2 2 2 2 2 2 2 2 2 2 2 2 2 2 2 2 2 2 2 2 2 2 2 2 2 2 2
left_child=1 4 18 13 6 16 15 8 12 10 -9 17 -7 14 20 21 -6 -11 19 23 26 25 -12 24 28 27 -4 -1 -2 -28
right_child=2 -3 3 -5 5 7 -8 9 -10 11 22 -13 -14 -15 -16 -17 -18 -19 -20 -21 -22 -23 -24 -25 -26 -27 29 -29 -30 -31
leaf_value=-0.11394224133380129 -0.11558969087684678 0.1311851825713384 -0.12218413750508915 0.087746718763163145 0.043364351386309098 0.0093516392893756867 0.024441945806367243 -0.0071113571316891921 -0.043672144000013721 0.0063190903276035097 -0.13377833188375879 0.07325459165998123 0.092353779122046342 0.029576151873859254 0.071303299883885174 -0.018408714683274957 0.12167383841692547 -0.066893287207476171 -0.027326544095883889 -0.036753917840022458 -0.040569713387018425 -0.023017283008251295 -0.091161118789384918 -0.13355691306562339 -0.071663717587284834 -0.12705416867192976 -0.11160611324924788 -0.10610236688958607 -0.10741202627934415 -0.10489403097674477
leaf_weight=1.4237676262855514 1.5279611833393598 3.522494886070489 1.4715405385941283 4.718648448586463 4.6608030404895535 6.0958944149315339 4.104244075715541 4.9301859699189681 3.4904887471348038 3.4590476080775243 2.4955806583166122 4.2333903610706329 6.1838055960834026 3.9168418534100047 1.456043805927038 2.8626189809292555 3.195972666144371 3.2022746056318283 3.0662820488214493 2.04024738073349 2.3374801855534315 1.0898325853049753 1.8475895710289476 1.8084063902497289 1.0996795054525135 1.1812156327068803 1.2572490219026806 2.4267743062227964 1.1196239627897737 1.6872882749885318
leaf_count=23 17 18 15 31 36 37 37 39 26 21 19 20 35 28 11 28 19 20 31 26 21 15 21 13 27 13 17 56 31 49
internal_value=0 0.00930216 -0.0266914 0.00248018 0.00175459 0.0147749 -0.0418123 0.00156064 0.0301624 -0.0208042 -0.0579449 0.0108092 0.0511498 -0.0306988 -0.0594563 -0.0720792 0.075219 -0.028876 -0.0727793 -0.0911275 -0.0876476 -0.0971769 -0.115649 -0.111095 -0.100256 -0.113239 -0.112566 -0.109001 -0.112131 -0.10776
internal_weight=0 60.406 27.5073 16.8451 56.8835 43.795 13.0885 35.9383 15.7702 20.1681 9.27336 10.8947 12.2797 12.1264 8.2096 8.98421 7.85678 6.66132 10.6622 7.59592 6.75356 6.12159 4.34317 5.55567 3.74726 5.03176 4.41608 3.85054 2.64759 2.94454
internal_count=800 483 317 172 465 293 172 238 98 140 79 61 72 141 113 135 55 41 145 114 102 107 40 88 75 92 81 79 48 66
shrinkage=0.1


Tree=23
num_leaves=31
num_cat=0
split_feature=9 8 5 8 8 1 0 0 3 0 8 1 1 0 1 7 1 1 7 10 8 7 8 3 7 8 7 7 7 1
split_gain=2.24748 2.01564 3.01222 2.2982 2.33915 3.77358 2.0407 2.56766 2.01856 1.96203 1.4847 1.88683 3.39698 2.99817 2.56302 2.15004 1.72701 1.25593 1.08665 1.90453 0.996221 2.01794 0.843642 0.798209 0.356782 0.0180847 0.00960076 0.00791195 0.00661472 0.00485256
threshold=130.50000000000003 0.75928676400000017 32.500000000000007 0.77139917550000014 0.81831832150000017 68.500000000000014 1870.5000000000002 1759.5000000000002 72.000000000000014 1590.0000000000002 0.82224073050000024 66.500000000000014 58.500000000000007 1330.0000000000002 68.500000000000014 221773.43240000002 77.500000000000014 48.500000000000007 271146.31550000008 1.0000000180025095e-35 1.4332926640000003 349974.70675000007 0.955593888 562.00000000000011 200571.78935000004 1.0216315745 280201.51650000009 372760.65150000009 260178.06845000005 48.500000000000007
decision_type=2 2 2 2 2 2 2 2 2 2 2 2 2 2 2 2 2 2 2 2 2 2 2 2 2 2 2 2 2 2
left_child=-1 2 -2 -3 5 17 7 8 -6 10 -10 12 13 15 22 -12 -16 -5 19 -14 21 29 -13 -11 -21 -26 -4 28 -19 -17
right_child=1 3 26 4 6 -7 -8 -9 9 23 11 14 18 -15 16 20 -18 27 -20 24 -22 -23 -24 -25 25 -27 -28 -29 -30 -31
leaf_value=0.06194685622406837 0.036191966517388645 0.093155345206869605 -0.10799695809686372 -0.024789263303605868 0.05246174278324877 0.058465659471832965 -0.076109940364893811 0.081947137716097407 0.08830508215535654 -0.11570318787057177 0.036347550740390228 0.027227982706578693 0.035393288700481217 0.097810941587022401 -0.052083648452834731 -0.11701974718787403 0.042524921155306587 -0.11471958459697532 -0.12578155361309878 -0.028311364986013082 0.0057287340101478132 -0.0015061364166940605 0.094896769038882639 -0.033328039579396944 -0.10400625788672324 -0.12175512509373383 -0.11908710625782348 -0.11827905194307065 -0.10612708001155609 -0.10975454333949844
leaf_weight=5.1807908564805976 2.112917771562933 2.4826615992933503 3.0405876487493515 2.4975907299667579 6.6886757016181937 2.4798231720924377 3.1265846341848365 4.2206284925341597 1.8494344595819701 1.9515591152012337 5.4303063377738061 3.2095542028546324 1.787953298538923 2.864820957183837 4.9188679158687574 1.7603486478328689 3.1747680976986885 1.3099395614117382 2.739409264177084 0.67595195397734587 2.9532605037093163 2.8808647096157074 4.3251931816339493 2.961206279695034 1.7290946096181872 0.8594076633453368 1.0502265617251394 1.131029240787029 2.8347127847373486 1.9242982789874075
leaf_count=33 22 31 65 26 39 13 28 26 14 26 31 20 12 22 34 17 18 18 26 7 19 20 21 24 63 6 13 11 62 33
internal_value=0 -0.00599183 -0.0607654 -0.00144709 -0.00469624 -0.0489434 0.00261722 0.0067959 0.000995664 -0.00617655 0.000650855 -0.00328062 -0.0199926 0.00409639 0.0241004 -0.0138629 -0.014973 -0.083209 -0.0750655 -0.0475673 -0.0425072 -0.0642044 0.0660721 -0.0660509 -0.0930052 -0.109899 -0.110844 -0.110866 -0.108843 -0.113226
internal_weight=0 80.9717 6.20373 74.7679 72.2853 10.2531 62.0322 58.9056 54.685 47.9963 43.0835 41.2341 25.6057 17.8139 15.6284 14.9491 8.09364 7.77327 7.79182 5.05241 9.51877 6.56551 7.53475 4.91277 3.26445 2.5885 4.09081 5.27568 4.14465 3.68465
internal_count=800 767 100 667 636 130 506 478 452 413 363 349 256 142 93 120 52 117 114 88 89 70 41 50 76 69 78 91 80 50
shrinkage=0.1


Tree=24
num_leaves=31
num_cat=0
split_feature=12 12 0 6 8 8 3 3 0 0 8 0 1 7 3 9 12 8 7 0 9 5 5 0 12 7 7 1 9 1
split_gain=2.12476 4.53039 3.10239 3.7148 2.46289 2.74766 2.29857 2.11924 1.84044 2.42607 1.79339 2.72557 2.63594 1.74773 1.66935 1.17497 1.15033 1.05783 1.00863 0.8903 0.851162 0.823871 0.77638 0.764619 0.174007 0.124686 0.140721 0.0372506 0.0171186 0.00491745
threshold=205.50000000000003 197.50000000000003 869.50000000000011 1.0000000180025095e-35 0.81831832150000017 0.85682423000000008 691.00000000000011 72.000000000000014 674.00000000000011 440.50000000000006 0.98309942150000007 1346.5000000000002 64.000000000000014 268827.65565000003 265.00000000000006 136.50000000000003 173.00000000000003 0.9650998005000001 283283.99200000003 1561.5000000000002 139.50000000000003 36.500000000000007 42.500000000000007 1826.5000000000002 67.500000000000014 284003.75585000007 270673.87605000002 67.500000000000014 135.50000000000003 56.500000000000007
decision_type=2 2 2 2 2 2 2 2 2 2 2 2 2 2 2 2 2 2 2 2 2 2 2 2 2 2 2 2 2 2
left_child=1 4 20 7 6 19 16 -4 9 21 11 14 13 -12 -10 17 23 28 -17 -6 22 -7 25 27 -13 26 29 -1 -9 -2
right_child=2 -3 3 -5 5 8 -8 15 10 -11 12 24 -14 -15 -16 18 -18 -19 -20 -21 -22 -23 -24 -25 -26 -27 -28 -29 -30 -31
leaf_value=-0.10763750545766615 -0.11534399913941978 0.12194795123157572 0.075398696290180298 0.07601846106172111 0.038820576960784545 -0.027162372357511951 0.024760205007168041 -0.12007612778944712 0.050060410427843566 0.096603653982587051 0.015603304759806822 -0.13171589243905316 0.070314908636608373 -0.087309004691077871 -0.057057055279691897 -0.053009853767162968 -0.015103905066625657 -0.0084351985794893971 0.03508909217198148 0.10757977041712651 -0.024548036023466734 0.030294810687895548 -0.035322482007733545 -0.016304357255902551 -0.090034566330711108 -0.13128349285274835 -0.062995333390540323 -0.13025281241150574 -0.10577601388073365 -0.10630725568964745
leaf_weight=3.536699675023554 1.0307772736996437 3.334874114021658 1.6654725372791315 4.7360568493604651 4.6093529611825934 4.6834213268011791 3.9685994349420062 1.6833315510302764 2.8370696697384137 3.8773697428405276 3.7765957191586477 2.111868429929018 4.3886449635028839 2.9308963418006897 2.9862741753458977 2.9351327307522297 2.7467403206974268 1.3618877865374086 2.3320707324892282 3.1838257983326912 2.975379342213273 5.3421565555036068 1.9794623441994188 1.0198415629565714 1.9050777293741701 1.7001786418259142 0.85395437292754639 0.9172161929309367 1.665257372893393 1.4481649640947578
leaf_count=84 11 18 9 31 36 33 37 18 22 23 23 16 22 20 24 34 28 12 17 19 31 31 26 15 24 13 16 8 51 48
internal_value=0 0.00878482 -0.0254378 0.00134814 0.00190096 0.0132344 -0.0377389 -0.0290253 0.00122744 0.0294322 -0.0175021 -0.0485812 0.0100594 -0.0293651 -0.00487059 -0.0464558 -0.0679114 -0.0827432 -0.0140038 0.0669115 -0.0693642 0.00345384 -0.0883795 -0.0944104 -0.111948 -0.109246 -0.0980047 -0.112295 -0.112965 -0.110065
internal_weight=0 58.1565 26.3671 16.3792 54.8217 42.6326 12.1891 11.6432 34.8394 13.9029 20.9364 9.84029 11.0961 6.70749 5.82334 9.97768 8.2205 4.71048 5.2672 7.79318 9.98792 10.0256 7.01254 5.47376 4.01695 5.03308 3.3329 4.45392 3.34859 2.47894
internal_count=800 483 317 172 465 293 172 141 238 87 151 86 65 43 46 132 135 81 51 55 145 64 114 107 40 88 75 92 69 59
shrinkage=0.1


Tree=25
num_leaves=31
num_cat=0
split_feature=8 7 1 11 5 12 1 12 5 9 6 0 7 1 7 0 4 0 7 0 7 12 1 8 0 4 9 8 7 9
split_gain=1.86728 3.1233 2.66849 3.5274 2.54724 2.13274 2.43555 2.73551 2.07556 2.45623 1.86394 1.70457 1.89536 1.70206 1.70791 2.32357 1.67185 1.25673 1.22927 1.14939 1.11018 0.858582 0.461037 0.350818 0.32562 0.201531 0.401635 0.024454 0.005824 0.000969951
threshold=0.89465563850000007 453643.46280000004 73.000000000000014 1.0000000180025095e-35 32.500000000000007 182.50000000000003 48.500000000000007 244.50000000000003 27.500000000000004 135.50000000000003 1.0000000180025095e-35 1102.5000000000002 270872.23665000004 49.500000000000007 207028.73385000005 1225.5000000000002 1.0000000180025095e-35 748.00000000000011 197875.87800000003 82.500000000000014 283283.99200000003 90.500000000000014 66.500000000000014 0.80007284500000009 1238.0000000000002 1.0000000180025095e-35 135.50000000000003 0.82115197750000013 278366.92905000009 137.50000000000003
decision_type=2 2 2 2 2 2 2 2 2 2 2 2 2 2 2 2 2 2 2 2 2 2 2 2 2 2 2 2 2 2
left_child=2 4 3 5 8 11 -7 19 9 -2 13 12 18 -6 -15 17 22 -16 -1 -8 27 -13 -12 -20 -22 26 -21 -5 29 -28
right_child=1 -3 -4 20 10 6 7 -9 -10 -11 16 21 -14 14 15 -17 -18 -19 23 25 24 -23 -24 -25 -26 -27 28 -29 -30 -31
leaf_value=0.02123760060418492 0.096014587645888175 -0.091788203214247771 0.05585362373304148 -0.10703627174996343 0.056389086146508074 0.022498178073404582 0.047515829242195128 0.046475351164080768 0.12643156346741138 -0.021076855832790287 -0.020548057245390529 0.021723556553016596 0.048117556390642156 -0.073048179524479062 -0.0053791013069976025 -0.057657073419019413 0.099272186340755228 0.080767167459270317 -0.051196863951229535 -0.026098756390648216 -0.0065212587686583586 0.089478538718207296 0.037654671303759157 -0.12035428969271494 -0.069497529873929473 -0.12696022273020718 -0.10353804032267688 -0.12124478664112447 -0.11521240530931767 -0.10793047411161259
leaf_weight=1.3465366754680888 3.2605845779180509 2.6603555157780638 4.4807535707950583 2.9666134295985085 3.0380376167595413 4.4546360485255709 0.52788072638213446 1.6946339961141346 3.3970430381596088 3.9762085154652596 2.6796047333627957 4.5495308339595795 2.6779684908688068 5.1237486600875881 3.7453316524624807 4.7190053537487984 3.2933579087257385 3.0910514704883099 1.2046807520091536 0.75977137684822071 1.640464259311557 3.1757579520344734 2.7656425498425961 1.8754089102149007 1.6436465326696632 2.6858172360807657 1.9822647618129856 2.0471983626484871 0.65005532652139653 0.67356160096824158
leaf_count=9 19 20 25 69 21 30 8 24 24 26 23 39 23 39 26 31 20 19 28 11 22 27 17 22 19 27 83 26 10 13
internal_value=0 0.0130548 -0.0169831 -0.0259108 0.0201902 -0.00907802 -0.0379481 -0.0679533 0.0619486 0.0316795 0.00458515 0.0170641 -0.0182889 -0.0124533 -0.0249926 -0.00368444 0.0430295 0.0335717 -0.0584626 -0.0945923 -0.0832346 0.0495767 0.00901312 -0.0933055 -0.0380399 -0.105703 -0.0916608 -0.112838 -0.106729 -0.104652
internal_weight=0 41.75 41.0372 36.5564 39.0896 28.2585 13.4286 8.97399 10.6338 7.23679 28.4558 14.8299 7.10459 19.7172 16.6791 11.5554 8.73861 6.83638 4.42663 7.27935 8.29792 7.72529 5.44525 3.08009 3.28411 6.75147 4.06565 5.01381 3.30588 2.65583
internal_count=800 285 515 490 265 354 206 176 69 45 196 148 82 136 115 76 60 45 59 152 136 66 40 50 41 144 117 95 106 96
shrinkage=0.1


Tree=26
num_leaves=31
num_cat=0
split_feature=9 9 1 5 8 7 1 7 12 12 7 9 3 8 7 8 8 9 8 8 5 7 1 0 8 8 3 1 10 0
split_gain=1.7501 1.47799 2.82382 3.19875 2.78761 2.37867 2.84031 2.41642 2.39366 2.15103 2.13708 1.86444 1.70181 2.41128 1.59985 3.53959 1.59734 1.54043 1.37531 1.08806 1.08802 0.720344 0.640135 0.623287 0.413687 0.0248142 0.0191516 0.00369054 0.00301811 0.00169772
threshold=130.50000000000003 139.50000000000003 77.500000000000014 39.000000000000007 0.75928676400000017 263538.44340000005 68.500000000000014 268122.36465000006 187.50000000000003 87.500000000000014 266366.86875000008 138.50000000000003 245.50000000000003 0.91824981300000019 284731.57915000006 0.96269485050000014 0.87495343400000014 134.50000000000003 0.99764031850000012 0.87354921650000006 27.500000000000004 270796.10780000006 56.500000000000007 1729.5000000000002 0.79364189500000015 0.93532196850000016 227.50000000000003 48.500000000000007 1.0000000180025095e-35 1318.0000000000002
decision_type=2 2 2 2 2 2 2 2 2 2 2 2 2 2 2 2 2 2 2 2 2 2 2 2 2 2 2 2 2 2
left_child=-1 4 3 12 27 8 7 23 9 17 -5 14 16 -14 15 20 24 -6 22 -16 -9 -22 -10 25 -3 28 -23 -2 -7 -29
right_child=1 2 -4 10 5 6 -8 11 18 -11 -12 -13 13 -15 19 -17 -18 -19 -20 -21 21 26 -24 -25 -26 -27 -28 29 -30 -31
leaf_value=0.057060727880932652 -0.11433007322732978 -0.021985868883253268 0.096696805382345832 -0.1194204487117949 0.062641253016151949 -0.11189222421176921 -0.10266877873253188 0.0067245524527345295 0.050062875505180376 0.090967463225856721 -0.0051571441164063496 -0.085149219009435659 0.10372101024756653 -0.0066809647536507262 0.077938846954047333 0.042760870728076682 0.040515740590751775 -0.027599148209524766 -0.095216307690942539 0.0052531307884324547 -0.017439495746514742 -0.1248255842880784 -0.032501943572386158 -0.0036919947286760584 -0.091629192753014121 -0.1264095326082012 -0.10976015113951575 -0.10368567047853815 -0.10303656059681854 -0.10938917541829968
leaf_weight=4.7583110705018035 0.8911798764020199 1.6310612913221185 3.5849425122141829 2.9981733039021483 3.163223151117565 0.4972583781927834 4.2689954563975325 1.354314859956508 1.6404906120151275 5.3266508420929313 3.6049739960581064 2.3829721417278042 4.71076377853751 3.4105991572141647 4.1532731596380454 5.2288377918303013 3.1240239702165127 4.7057179175317287 2.283478831872344 4.0851324051618576 0.91619359515607346 1.716420525684953 2.1961095742881298 0.67490253411233414 1.7878440730273721 0.7215104904025792 1.6597554907202718 1.0059539619833233 1.7024795738980236 1.0845744386315344
leaf_count=33 11 24 20 34 16 8 29 15 14 38 37 26 34 16 31 32 20 39 22 30 18 20 28 12 17 6 33 37 81 19
internal_value=0 -0.005443 0.0145954 0.000755975 -0.0150831 -0.00933388 -0.0272632 -0.0144347 0.0179208 0.0418948 -0.0570386 -0.00174241 0.0267802 0.0573573 0.00865608 -0.0165242 -0.0111734 0.00867645 -0.0337699 0.0418966 -0.0714223 -0.0960789 0.00280192 -0.0903061 -0.0584044 -0.110317 -0.117419 -0.108942 -0.105038 -0.106645
internal_weight=0 76.5118 24.8524 21.2674 51.6594 48.6777 29.362 25.0931 19.3157 13.1956 6.60315 21.4969 14.6643 8.12136 19.1139 10.8755 6.54293 7.86894 6.12008 8.23841 5.64668 4.29237 3.8366 3.59615 3.41891 2.92125 3.37618 2.98171 2.19974 2.09053
internal_count=800 767 202 182 565 498 341 312 157 93 71 205 111 50 179 118 61 55 64 61 86 71 42 107 41 95 53 67 89 56
shrinkage=0.1


Tree=27
num_leaves=31
num_cat=0
split_feature=3 3 9 9 8 8 12 3 8 1 7 8 3 8 8 1 8 0 5 5 8 7 3 0 5 1 8 8 0 11
split_gain=1.72912 2.07454 2.08789 1.68412 1.44555 2.52947 1.85559 2.05511 1.72161 1.50399 1.48882 3.99095 2.40447 2.27847 2.36971 2.35157 1.55398 1.68164 1.61722 1.39264 1.21772 1.20147 1.06107 1.07612 0.799526 0.581493 0.568436 0.375317 0.343068 0.0246513
threshold=59.500000000000007 72.000000000000014 130.50000000000003 132.50000000000003 0.75928676400000017 0.77725501850000012 211.00000000000003 579.50000000000011 0.89465563850000007 48.500000000000007 271146.31550000008 1.4605189845000004 579.50000000000011 1.4284592835000003 0.91824981300000019 70.500000000000014 0.99255521750000009 634.00000000000011 32.500000000000007 36.500000000000007 0.83084374950000017 283701.52690000006 123.50000000000001 1414.5000000000002 39.000000000000007 57.500000000000007 0.95732149200000005 0.83697015200000013 1614.0000000000002 1.0000000180025095e-35
decision_type=2 2 2 2 2 2 2 2 2 2 2 2 2 2 2 2 2 2 2 2 2 2 2 2 2 2 2 2 2 2
left_child=27 24 -3 25 9 -6 10 21 20 -5 12 16 22 14 15 19 17 -12 -19 -14 -9 29 -7 26 -2 -4 -24 -1 -20 -8
right_child=1 2 3 4 5 6 7 8 -10 -11 11 -13 13 -15 -16 -17 -18 18 28 -21 -22 -23 23 -25 -26 -27 -28 -29 -30 -31
leaf_value=-0.11244798691629686 0.078670261168406086 0.066074602153051068 -0.11337640085749592 0.033192186143475952 0.10147289753403939 -0.00027496800104284577 -0.10803309809518002 0.017615324359028371 0.064639863390521329 -0.10826759893994453 0.036297414098939225 -0.12581631900475912 -0.089345145922889974 0.06064349078712105 -0.097181047300739565 0.094374822414668519 0.069520768793769672 0.014695530232731638 -0.061501050682760607 0.017177331813811089 -0.11832508861196506 -0.024989063504608583 0.077394055122622263 0.11593475323465606 0.013466717716709457 -0.033313451564657461 0.019089022935277016 -0.039602364862481351 -0.12114587537800142 -0.12787776746540971
leaf_weight=1.5118438899517053 4.3456959379836908 3.9646419286727896 1.8839032091200345 1.0690753497183316 2.3148982301354399 3.2007645945996073 3.2115273112431155 1.3202924150973561 2.5835533570498228 2.5307912100106478 4.1907077711075562 2.8998863846063605 2.4097815398126823 3.4523793980479232 3.7208499405533075 1.9639890566468237 2.8137741051614276 2.7957271598279476 2.5713026486337185 2.5011699628084898 1.3155002230778334 2.6453608721494675 2.9266563821583969 3.0003221537917852 3.3152112606912851 1.7496720291674135 3.9008683264255524 1.3290397040545938 1.543065497651696 0.77751742862164963
leaf_count=33 24 29 24 9 26 30 100 23 18 63 36 17 28 17 27 11 17 26 32 29 18 20 24 17 24 17 23 12 17 9
internal_value=0 0.0010752 -0.00438678 -0.00866522 -0.00476654 -0.000953944 -0.00520738 -0.0403149 0.00662942 -0.0662574 0.00427413 -0.0190975 0.0187877 -0.00991015 -0.0328983 0.00189271 0.00314335 -0.0136816 -0.043992 -0.0350928 -0.0502313 -0.0772463 0.0497314 0.0660176 0.0504538 -0.0748238 0.0440818 -0.0783689 -0.0838704 -0.111901
internal_weight=0 76.9189 69.258 65.2933 61.6598 58.0599 55.745 11.8538 5.21935 3.59987 43.8912 16.8145 27.0768 14.0482 10.5958 6.87494 13.9146 11.1008 6.9101 4.91095 2.63579 6.63441 13.0286 9.82785 7.66091 3.63358 6.82752 2.84088 4.11437 3.98904
internal_count=800 755 707 678 637 565 539 188 59 72 351 145 206 112 95 68 128 111 75 57 41 129 94 64 48 41 47 45 49 109
shrinkage=0.1


Tree=28
num_leaves=31
num_cat=0
split_feature=8 8 3 0 8 0 1 7 3 5 8 7 5 9 1 4 7 1 8 3 1 0 9 12 3 3 9 1 1 7
split_gain=1.49843 2.4655 2.92414 3.65786 3.05168 5.11084 2.24455 1.97183 1.94592 1.85501 1.91406 2.48562 1.78021 1.95879 1.49186 2.80402 1.47258 1.34146 1.07465 1.059 0.864657 0.816269 0.779953 0.729124 0.424513 0.420332 0.0660658 0.0140775 0.0125898 0.00405725
threshold=0.89465563850000007 0.85682423000000008 691.00000000000011 1074.0000000000002 0.83979313000000011 1150.0000000000002 73.000000000000014 383899.05475000007 579.50000000000011 32.500000000000007 0.92601501600000014 207028.73385000005 27.500000000000004 135.50000000000003 51.500000000000007 1.0000000180025095e-35 372760.65150000009 66.500000000000014 0.81831832150000017 180.50000000000003 58.500000000000007 1034.0000000000002 139.50000000000003 186.50000000000003 249.50000000000003 317.50000000000006 130.50000000000003 60.500000000000007 67.500000000000014 282311.20975000004
decision_type=2 2 2 2 2 2 2 2 2 2 2 2 2 2 2 2 2 2 2 2 2 2 2 2 2 2 2 2 2 2
left_child=1 2 3 6 5 -5 16 9 19 12 -11 20 13 -2 15 -7 26 23 22 -3 -12 -19 -4 24 -13 27 -1 -16 29 -28
right_child=7 8 18 4 -6 14 -8 -9 -10 10 11 17 -14 -15 25 -17 -18 21 -20 -21 -22 -23 -24 -25 -26 -27 28 -29 -30 -31
leaf_value=-0.13906807324409956 0.084545133087876742 -0.062768766037394064 -0.01573497484413186 0.15846473017912799 0.11132453011409094 0.046379373561463599 0.036002590848990816 -0.067902012180351967 -0.12246537237229749 0.06845148214711215 -0.022739555218007992 -0.059998820974723512 0.11574505791138884 -0.02119745002548229 -0.10797021051409394 -0.093271956512527038 -0.0015522656770624972 0.078479070862097433 0.097781247913486344 0.034584729537915603 -0.097588639363018953 0.012349880195334857 0.065749828749930711 0.022321256943211801 -0.0038986119459179427 -0.036375288472773798 -0.10526851207461406 -0.1235361031396663 -0.11974234492504753 -0.11249055809119482
leaf_weight=0.85803504288197086 3.168089307844637 2.7238243911415321 2.6081726197153321 1.5377317555248726 2.5367642976343623 3.6517206598073226 1.669464439153671 2.8762043491005889 3.4060294898226857 3.9436492193490293 3.0076142847538021 3.0982123352587241 3.2198730409145355 3.9186474811285734 1.3224238455295569 2.3714981079101562 1.4567540287971494 3.6402120739221564 2.9553899373859167 1.8945159846916793 3.1701576188206673 3.8309853821992874 2.137233529239893 3.6038823984563351 2.3888714425265789 0.96189842745661724 3.382359940558672 1.0362983513623474 0.92907228134572495 1.0102067328989504
leaf_count=5 19 31 29 15 17 35 9 22 39 31 21 24 24 26 34 33 15 20 24 17 26 22 19 28 22 17 129 20 11 16
internal_value=0 -0.0158149 -0.00281025 -0.0208573 0.0125544 -0.0104714 -0.0690343 0.0118542 -0.0651229 0.0180557 0.00413808 -0.0070154 0.0540882 0.0260742 -0.0382735 -0.00860499 -0.0919973 0.0131766 0.0504448 -0.0228328 -0.0611488 0.0445702 0.0209641 -0.0126234 -0.0355749 -0.0920888 -0.113318 -0.114809 -0.109166 -0.106929
internal_weight=0 38.4494 30.425 22.7242 13.4183 10.8816 9.30589 39.8664 8.02437 36.9902 26.6836 22.7399 10.3066 7.08674 9.34384 6.02322 7.63643 16.5622 7.7008 4.61834 6.17777 7.4712 4.74541 9.09097 5.48708 3.32062 6.17967 2.35872 5.32164 4.39257
internal_count=800 515 428 356 171 154 185 285 87 263 194 163 69 45 139 68 176 116 72 48 47 42 48 74 46 71 161 54 156 145
shrinkage=0.1


Tree=29
num_leaves=31
num_cat=0
split_feature=3 3 9 9 8 8 12 3 5 7 8 7 8 8 0 7 1 3 5 1 7 7 8 7 7 4 12 1 1 3
split_gain=1.3468 1.76016 1.72014 1.42406 1.16947 3.55691 1.54079 1.81258 1.38368 1.37401 1.78026 1.30341 2.58309 2.06845 1.46457 1.31395 1.35875 1.20596 1.32297 2.75249 2.21558 1.48538 1.3386 1.17762 1.07576 1.00817 0.628517 0.56562 0.42154 0.369125
threshold=59.500000000000007 72.000000000000014 130.50000000000003 132.50000000000003 0.75928676400000017 0.77028993950000013 211.00000000000003 579.50000000000011 32.500000000000007 257090.72015000004 0.94386032000000009 269458.9242500001 1.4605189845000004 1.0064992990000003 1775.0000000000002 281677.24800000008 73.000000000000014 2427.5000000000005 42.500000000000007 66.500000000000014 191284.99135000003 217231.08435000005 1.4284592835000003 377216.18640000006 283701.52690000006 1.0000000180025095e-35 112.50000000000001 57.500000000000007 54.000000000000007 498.00000000000006
decision_type=2 2 2 2 2 2 2 2 2 2 2 2 2 2 2 2 2 2 2 2 2 2 2 2 2 2 2 2 2 2
left_child=28 25 -3 27 8 -6 11 24 -5 -9 -11 14 13 15 17 16 29 18 19 20 -7 -20 -22 -17 -8 -2 -23 -4 -1 -13
right_child=1 2 3 4 5 6 7 9 -10 10 -12 12 -14 -15 -16 23 -18 -19 21 -21 22 26 -24 -25 -26 -27 -28 -29 -30 -31
leaf_value=-0.11121951838320641 0.016123653901745871 0.061472391925576908 -0.11191399345279654 0.031151434370438422 0.14744592053864547 0.05765798815590855 -0.11076904737009197 0.095545293854291335 -0.10814799366159045 -0.081232265768151291 0.056336691379758469 -0.053180748508874491 -0.099843139796458716 0.079767723522303255 0.07983367400807212 0.043243448507599751 0.019509775789445825 -0.050674790287208907 -0.088134706944081362 0.11003441303666187 -0.086327164880485627 -0.02676208610049027 0.025371482600065848 -0.043986176714139728 -0.026724716455855942 0.090279576208392331 0.05382772836398414 -0.029975204603400193 -0.030311975768703883 -0.1133233884441029
leaf_weight=1.3526142500340932 4.4899333342909804 3.7384115047752848 1.7114841341972344 1.0546785201877349 1.5610794015228737 4.3130753934383481 3.5528470715507847 1.2744862679392097 2.2016001241281629 2.2670291047543292 1.60784175992012 2.0143115539103764 3.1331441439688197 2.671157367527484 3.3167256079614154 4.4535791985690594 1.8577659949660299 2.9735842291265717 2.1115058269351712 3.615980736911296 2.7418526355177164 1.8211837634444239 1.76259009540081 2.3719488978385925 2.665717039257288 3.0985500290989876 2.0650616660714149 1.6591429393738506 1.2291398327797649 2.0683663934469223
leaf_count=31 31 29 24 13 16 21 110 11 59 40 9 26 19 16 21 40 11 19 20 21 41 19 10 22 21 17 22 17 14 30
internal_value=0 0.000771839 -0.00442853 -0.00834856 -0.00476513 -0.00139045 -0.00564121 -0.0384055 -0.0630302 0.00547558 -0.0241493 0.0029623 -0.0170578 -0.000255552 0.0180009 -0.0169997 -0.0513888 0.00841982 0.0179538 0.0365616 0.00643111 -0.0206207 -0.0426194 0.0129302 -0.0747417 0.0464032 0.0160615 -0.0715808 -0.0727005 -0.0836502
internal_weight=0 74.1746 66.5862 62.8477 59.4771 56.2208 54.6598 11.3679 3.25628 5.14936 3.87487 43.2918 18.5703 15.4371 24.7216 12.766 5.94044 21.4048 18.4313 12.4335 8.81752 5.99775 4.50444 6.82553 6.21856 7.58848 3.88625 3.37063 2.58175 4.08268
internal_count=800 755 707 678 637 565 549 191 72 60 49 358 164 145 194 129 67 173 154 93 72 61 51 62 131 48 41 41 45 56
shrinkage=0.1


Tree=30
num_leaves=31
num_cat=0
split_feature=8 1 1 7 7 9 0 8 3 8 8 8 7 12 5 12 9 3 9 8 1 9 9 7 9 8 7 7 0 7
